{"learner":{"attributes":{},"feature_names":["Open","High","Low","Close","Volume","sentiment_score"],"feature_types":["float","float","float","float","int","float"],"gradient_booster":{"model":{"gbtree_model_param":{"num_parallel_tree":"1","num_trees":"300"},"iteration_indptr":[0,1,2,3,4,5,6,7,8,9,10,11,12,13,14,15,16,17,18,19,20,21,22,23,24,25,26,27,28,29,30,31,32,33,34,35,36,37,38,39,40,41,42,43,44,45,46,47,48,49,50,51,52,53,54,55,56,57,58,59,60,61,62,63,64,65,66,67,68,69,70,71,72,73,74,75,76,77,78,79,80,81,82,83,84,85,86,87,88,89,90,91,92,93,94,95,96,97,98,99,100,101,102,103,104,105,106,107,108,109,110,111,112,113,114,115,116,117,118,119,120,121,122,123,124,125,126,127,128,129,130,131,132,133,134,135,136,137,138,139,140,141,142,143,144,145,146,147,148,149,150,151,152,153,154,155,156,157,158,159,160,161,162,163,164,165,166,167,168,169,170,171,172,173,174,175,176,177,178,179,180,181,182,183,184,185,186,187,188,189,190,191,192,193,194,195,196,197,198,199,200,201,202,203,204,205,206,207,208,209,210,211,212,213,214,215,216,217,218,219,220,221,222,223,224,225,226,227,228,229,230,231,232,233,234,235,236,237,238,239,240,241,242,243,244,245,246,247,248,249,250,251,252,253,254,255,256,257,258,259,260,261,262,263,264,265,266,267,268,269,270,271,272,273,274,275,276,277,278,279,280,281,282,283,284,285,286,287,288,289,290,291,292,293,294,295,296,297,298,299,300],"tree_info":[0,0,0,0,0,0,0,0,0,0,0,0,0,0,0,0,0,0,0,0,0,0,0,0,0,0,0,0,0,0,0,0,0,0,0,0,0,0,0,0,0,0,0,0,0,0,0,0,0,0,0,0,0,0,0,0,0,0,0,0,0,0,0,0,0,0,0,0,0,0,0,0,0,0,0,0,0,0,0,0,0,0,0,0,0,0,0,0,0,0,0,0,0,0,0,0,0,0,0,0,0,0,0,0,0,0,0,0,0,0,0,0,0,0,0,0,0,0,0,0,0,0,0,0,0,0,0,0,0,0,0,0,0,0,0,0,0,0,0,0,0,0,0,0,0,0,0,0,0,0,0,0,0,0,0,0,0,0,0,0,0,0,0,0,0,0,0,0,0,0,0,0,0,0,0,0,0,0,0,0,0,0,0,0,0,0,0,0,0,0,0,0,0,0,0,0,0,0,0,0,0,0,0,0,0,0,0,0,0,0,0,0,0,0,0,0,0,0,0,0,0,0,0,0,0,0,0,0,0,0,0,0,0,0,0,0,0,0,0,0,0,0,0,0,0,0,0,0,0,0,0,0,0,0,0,0,0,0,0,0,0,0,0,0,0,0,0,0,0,0,0,0,0,0,0,0,0,0,0,0,0,0,0,0,0,0,0,0,0,0,0,0,0,0,0,0,0,0,0,0],"trees":[{"base_weights":[1.0172526E-5,-2.8289306E0,1.2573039E1,-2.7495423E-1,1.4832054E1,2.860616E-1,1.8345765E0],"categories":[],"categories_nodes":[],"categories_segments":[],"categories_sizes":[],"default_left":[0,0,0,0,0,0,0],"id":0,"left_children":[1,-1,3,-1,5,-1,-1],"loss_changes":[4.623871E3,0E0,3.5230676E2,0E0,2.8403308E2,0E0,0E0],"parents":[2147483647,0,0,2,2,4,4],"right_children":[2,-1,4,-1,6,-1,-1],"split_conditions":[2.8889E2,-2.8289306E0,3.4890454E-2,-2.7495423E-1,3.2072E2,2.860616E-1,1.8345765E0],"split_indices":[0,0,5,0,3,0,0],"split_type":[0,0,0,0,0,0,0],"sum_hessian":[1.1E1,3E0,8E0,1E0,7E0,2E0,5E0],"tree_param":{"num_deleted":"0","num_feature":"6","num_nodes":"7","size_leaf_vector":"1"}},{"base_weights":[-8.192698E-2,-2.616762E0,1.1520817E1,-2.6120606E-1,1.3613934E1,2.6699015E-1,1.6816961E1,1.9799767E0,7.2342324E-1],"categories":[],"categories_nodes":[],"categories_segments":[],"categories_sizes":[],"default_left":[0,0,0,0,0,0,0,0,0],"id":1,"left_children":[1,-1,3,-1,5,-1,7,-1,-1],"loss_changes":[3.9334592E3,0E0,3.0179626E2,0E0,2.355326E2,0E0,2.8264404E1,0E0,0E0],"parents":[2147483647,0,0,2,2,4,4,6,6],"right_children":[2,-1,4,-1,6,-1,8,-1,-1],"split_conditions":[2.8889E2,-2.616762E0,3.4890454E-2,-2.6120606E-1,3.2072E2,2.6699015E-1,3.4274E2,1.9799767E0,7.2342324E-1],"split_indices":[0,0,5,0,3,0,0,0,0],"split_type":[0,0,0,0,0,0,0,0,0],"sum_hessian":[1.1E1,3E0,8E0,1E0,7E0,2E0,5E0,3E0,2E0],"tree_param":{"num_deleted":"0","num_feature":"6","num_nodes":"9","size_leaf_vector":"1"}},{"base_weights":[-6.603495E-2,-2.4205048E1,1.0669752E1,-2.7498932E0,-7.161698E-1,-2.4814606E-1,1.26238365E1,2.4919026E-1,1.5585831E1,1.8314781E0,6.7519534E-1],"categories":[],"categories_nodes":[],"categories_segments":[],"categories_sizes":[],"default_left":[0,0,0,0,0,0,0,0,0,0,0],"id":2,"left_children":[1,3,5,-1,-1,-1,7,-1,9,-1,-1],"loss_changes":[3.3680776E3,2.761621E1,2.626128E2,0E0,0E0,0E0,2.0124756E2,0E0,2.0982666E1,0E0,0E0],"parents":[2147483647,0,0,1,1,2,2,6,6,8,8],"right_children":[2,4,6,-1,-1,-1,8,-1,10,-1,-1],"split_conditions":[2.8889E2,2.8467E2,3.4890454E-2,-2.7498932E0,-7.161698E-1,-2.4814606E-1,3.2072E2,2.4919026E-1,3.4274E2,1.8314781E0,6.7519534E-1],"split_indices":[0,0,5,0,0,0,3,0,0,0,0],"split_type":[0,0,0,0,0,0,0,0,0,0,0],"sum_hessian":[1.1E1,3E0,8E0,2E0,1E0,1E0,7E0,2E0,5E0,3E0,2E0],"tree_param":{"num_deleted":"0","num_feature":"6","num_nodes":"11","size_leaf_vector":"1"}},{"base_weights":[-1.3929749E-1,-2.265107E1,9.8814125E0,-2.5665681E0,-6.803619E-1,-2.3573914E-1,1.1705936E1,2.3257855E-1,1.4445023E1,1.694117E0,6.301819E-1],"categories":[],"categories_nodes":[],"categories_segments":[],"categories_sizes":[],"default_left":[0,0,0,0,0,0,0,0,0,0,0],"id":3,"left_children":[1,3,5,-1,-1,-1,7,-1,9,-1,-1],"loss_changes":[2.9308318E3,1.647583E1,2.2856543E2,0E0,0E0,0E0,1.7194824E2,0E0,1.5199707E1,0E0,0E0],"parents":[2147483647,0,0,1,1,2,2,6,6,8,8],"right_children":[2,4,6,-1,-1,-1,8,-1,10,-1,-1],"split_conditions":[2.8889E2,2.8467E2,3.4890454E-2,-2.5665681E0,-6.803619E-1,-2.3573914E-1,3.2072E2,2.3257855E-1,3.4274E2,1.694117E0,6.301819E-1],"split_indices":[0,0,5,0,0,0,3,0,0,0,0],"split_type":[0,0,0,0,0,0,0,0,0,0,0],"sum_hessian":[1.1E1,3E0,8E0,2E0,1E0,1E0,7E0,2E0,5E0,3E0,2E0],"tree_param":{"num_deleted":"0","num_feature":"6","num_nodes":"11","size_leaf_vector":"1"}},{"base_weights":[-2.0251973E-1,-2.11977E1,9.151174E0,-2.3954642E0,-6.46344E-1,-2.2395173E-1,1.085495E1,2.1707356E-1,1.3387898E1,1.5670578E0,5.8816934E-1],"categories":[],"categories_nodes":[],"categories_segments":[],"categories_sizes":[],"default_left":[0,0,0,0,0,0,0,0,0,0,0],"id":4,"left_children":[1,3,5,-1,-1,-1,7,-1,9,-1,-1],"loss_changes":[2.5505737E3,7.656616E0,1.9897455E2,0E0,0E0,0E0,1.4691174E2,0E0,1.0635986E1,0E0,0E0],"parents":[2147483647,0,0,1,1,2,2,6,6,8,8],"right_children":[2,4,6,-1,-1,-1,8,-1,10,-1,-1],"split_conditions":[2.8889E2,2.8467E2,3.4890454E-2,-2.3954642E0,-6.46344E-1,-2.2395173E-1,3.2072E2,2.1707356E-1,3.4274E2,1.5670578E0,5.8816934E-1],"split_indices":[0,0,5,0,0,0,3,0,0,0,0],"split_type":[0,0,0,0,0,0,0,0,0,0,0],"sum_hessian":[1.1E1,3E0,8E0,2E0,1E0,1E0,7E0,2E0,5E0,3E0,2E0],"tree_param":{"num_deleted":"0","num_feature":"6","num_nodes":"11","size_leaf_vector":"1"}},{"base_weights":[-2.5671896E-1,-1.9838379E1,8.474766E0,-2.6040742E0,-9.090678E-1,-2.1275483E-1,1.0065998E1,2.0260213E-1,1.240832E1,1.4495293E0,5.4895836E-1],"categories":[],"categories_nodes":[],"categories_segments":[],"categories_sizes":[],"default_left":[0,0,0,0,0,0,0,0,0,0,0],"id":5,"left_children":[1,3,5,-1,-1,-1,7,-1,9,-1,-1],"loss_changes":[2.219849E3,2.9916504E1,1.7325262E2,0E0,0E0,0E0,1.2551813E2,0E0,7.062195E0,0E0,0E0],"parents":[2147483647,0,0,1,1,2,2,6,6,8,8],"right_children":[2,4,6,-1,-1,-1,8,-1,10,-1,-1],"split_conditions":[2.8889E2,2.4734E2,3.4890454E-2,-2.6040742E0,-9.090678E-1,-2.1275483E-1,3.2072E2,2.0260213E-1,3.4274E2,1.4495293E0,5.4895836E-1],"split_indices":[0,0,5,0,0,0,3,0,0,0,0],"split_type":[0,0,0,0,0,0,0,0,0,0,0],"sum_hessian":[1.1E1,3E0,8E0,1E0,2E0,1E0,7E0,2E0,5E0,3E0,2E0],"tree_param":{"num_deleted":"0","num_feature":"6","num_nodes":"11","size_leaf_vector":"1"}},{"base_weights":[-3.5811362E-1,-1.8732834E1,7.848219E0,-2.473871E0,-8.4846395E-1,-2.021164E-1,9.3345375E0,1.8909506E-1,1.1500575E1,1.340815E0,5.123617E-1],"categories":[],"categories_nodes":[],"categories_segments":[],"categories_sizes":[],"default_left":[0,0,0,0,0,0,0,0,0,0,0],"id":6,"left_children":[1,3,5,-1,-1,-1,7,-1,9,-1,-1],"loss_changes":[1.9564882E3,3.6298462E1,1.5088806E2,0E0,0E0,0E0,1.0723767E2,0E0,4.2888794E0,0E0,0E0],"parents":[2147483647,0,0,1,1,2,2,6,6,8,8],"right_children":[2,4,6,-1,-1,-1,8,-1,10,-1,-1],"split_conditions":[2.8889E2,2.4734E2,3.4890454E-2,-2.473871E0,-8.4846395E-1,-2.021164E-1,3.2072E2,1.8909506E-1,3.4274E2,1.340815E0,5.123617E-1],"split_indices":[0,0,5,0,0,0,3,0,0,0,0],"split_type":[0,0,0,0,0,0,0,0,0,0,0],"sum_hessian":[1.1E1,3E0,8E0,1E0,2E0,1E0,7E0,2E0,5E0,3E0,2E0],"tree_param":{"num_deleted":"0","num_feature":"6","num_nodes":"11","size_leaf_vector":"1"}},{"base_weights":[-4.4581857E-1,-1.769014E1,7.2678595E0,-2.350177E0,-7.9190063E-1,-1.920105E-1,8.656368E0,1.7648926E-1,1.0659378E1,1.1531641E0,3.1490326E-1],"categories":[],"categories_nodes":[],"categories_segments":[],"categories_sizes":[],"default_left":[0,0,0,0,0,0,0,0,0,0,0],"id":7,"left_children":[1,3,5,-1,-1,-1,7,-1,9,-1,-1],"loss_changes":[1.7247751E3,4.103418E1,1.3143921E2,0E0,0E0,0E0,9.161694E1,0E0,2.9924316E0,0E0,0E0],"parents":[2147483647,0,0,1,1,2,2,6,6,8,8],"right_children":[2,4,6,-1,-1,-1,8,-1,10,-1,-1],"split_conditions":[2.8889E2,2.4734E2,3.4890454E-2,-2.350177E0,-7.9190063E-1,-1.920105E-1,3.2072E2,1.7648926E-1,3.463E2,1.1531641E0,3.1490326E-1],"split_indices":[0,0,5,0,0,0,3,0,0,0,0],"split_type":[0,0,0,0,0,0,0,0,0,0,0],"sum_hessian":[1.1E1,3E0,8E0,1E0,2E0,1E0,7E0,2E0,5E0,4E0,1E0],"tree_param":{"num_deleted":"0","num_feature":"6","num_nodes":"11","size_leaf_vector":"1"}},{"base_weights":[-5.4203033E-1,-1.6706642E1,6.702467E0,-2.2326677E0,-7.391073E-1,2.1007447E0,9.9636965E0,3.5379791E0,-1.8240967E-1,1.2313477E0,4.2926842E-1,1.6472372E-1,4.6051025E-1],"categories":[],"categories_nodes":[],"categories_segments":[],"categories_sizes":[],"default_left":[0,0,0,0,0,0,0,0,0,0,0,0,0],"id":8,"left_children":[1,3,5,-1,-1,7,9,11,-1,-1,-1,-1,-1],"loss_changes":[1.5172296E3,4.4397217E1,1.1413425E2,0E0,0E0,3.46582E1,1.3770294E1,4.8492813E-1,0E0,0E0,0E0,0E0,0E0],"parents":[2147483647,0,0,1,1,2,2,5,5,6,6,7,7],"right_children":[2,4,6,-1,-1,8,10,12,-1,-1,-1,-1,-1],"split_conditions":[2.8889E2,2.4734E2,1.265475E8,-2.2326677E0,-7.391073E-1,3.3585E2,3.4274E2,3.2072E2,-1.8240967E-1,1.2313477E0,4.2926842E-1,1.6472372E-1,4.6051025E-1],"split_indices":[0,0,4,0,0,0,0,3,0,0,0,0,0],"split_type":[0,0,0,0,0,0,0,0,0,0,0,0,0],"sum_hessian":[1.1E1,3E0,8E0,1E0,2E0,4E0,4E0,3E0,1E0,2E0,2E0,2E0,1E0],"tree_param":{"num_deleted":"0","num_feature":"6","num_nodes":"13","size_leaf_vector":"1"}},{"base_weights":[-5.6019086E-1,-1.5778923E1,6.2659335E0,-2.1210344E0,-6.898336E-1,-1.732895E-1,7.482399E0,1.5374146E-1,9.207825E0,1.0806855E0,4.0065104E-1],"categories":[],"categories_nodes":[],"categories_segments":[],"categories_sizes":[],"default_left":[0,0,0,0,0,0,0,0,0,0,0],"id":9,"left_children":[1,3,5,-1,-1,-1,7,-1,9,-1,-1],"loss_changes":[1.3454891E3,4.6620667E1,1.0053891E2,0E0,0E0,0E0,6.7904816E1,0E0,6.604553E0,0E0,0E0],"parents":[2147483647,0,0,1,1,2,2,6,6,8,8],"right_children":[2,4,6,-1,-1,-1,8,-1,10,-1,-1],"split_conditions":[2.8889E2,2.4734E2,3.4890454E-2,-2.1210344E0,-6.898336E-1,-1.732895E-1,3.2072E2,1.5374146E-1,3.4274E2,1.0806855E0,4.0065104E-1],"split_indices":[0,0,5,0,0,0,3,0,0,0,0],"split_type":[0,0,0,0,0,0,0,0,0,0,0],"sum_hessian":[1.1E1,3E0,8E0,1E0,2E0,1E0,7E0,2E0,5E0,3E0,2E0],"tree_param":{"num_deleted":"0","num_feature":"6","num_nodes":"11","size_leaf_vector":"1"}},{"base_weights":[-6.166026E-1,-1.4903755E1,5.8017545E0,-2.0149827E0,-6.438456E-1,1.7362487E0,8.706909E0,2.9934388E-1,-1.6462556E-1,1.0772115E0,3.7394002E-1],"categories":[],"categories_nodes":[],"categories_segments":[],"categories_sizes":[],"default_left":[0,0,0,0,0,0,0,0,0,0,0],"id":10,"left_children":[1,3,5,-1,-1,7,9,-1,-1,-1,-1],"loss_changes":[1.1868685E3,4.790448E1,9.118094E1,0E0,0E0,2.6190216E1,1.1013397E1,0E0,0E0,0E0,0E0],"parents":[2147483647,0,0,1,1,2,2,5,5,6,6],"right_children":[2,4,6,-1,-1,8,10,-1,-1,-1,-1],"split_conditions":[2.8889E2,2.4734E2,1.265475E8,-2.0149827E0,-6.438456E-1,3.3585E2,3.4274E2,2.9934388E-1,-1.6462556E-1,1.0772115E0,3.7394002E-1],"split_indices":[0,0,4,0,0,0,0,0,0,0,0],"split_type":[0,0,0,0,0,0,0,0,0,0,0],"sum_hessian":[1.1E1,3E0,8E0,1E0,2E0,4E0,4E0,3E0,1E0,2E0,2E0],"tree_param":{"num_deleted":"0","num_feature":"6","num_nodes":"11","size_leaf_vector":"1"}},{"base_weights":[-6.443532E-1,-1.4078079E1,5.3977866E0,-1.9142334E0,-6.0092163E-1,1.589563E0,8.126452E0,2.7689285E0,-1.5639496E-1,1.0053976E0,3.4901124E-1,1.23535156E-1,3.6848298E-1],"categories":[],"categories_nodes":[],"categories_segments":[],"categories_sizes":[],"default_left":[0,0,0,0,0,0,0,0,0,0,0,0,0],"id":11,"left_children":[1,3,5,-1,-1,7,9,11,-1,-1,-1,-1,-1],"loss_changes":[1.0500118E3,4.8420654E1,8.060483E1,0E0,0E0,2.2926186E1,9.5937805E0,1.0663586E0,0E0,0E0,0E0,0E0,0E0],"parents":[2147483647,0,0,1,1,2,2,5,5,6,6,7,7],"right_children":[2,4,6,-1,-1,8,10,12,-1,-1,-1,-1,-1],"split_conditions":[2.8889E2,2.4734E2,1.265475E8,-1.9142334E0,-6.0092163E-1,3.3585E2,3.4274E2,3.2072E2,-1.5639496E-1,1.0053976E0,3.4901124E-1,1.23535156E-1,3.6848298E-1],"split_indices":[0,0,4,0,0,0,0,3,0,0,0,0,0],"split_type":[0,0,0,0,0,0,0,0,0,0,0,0,0],"sum_hessian":[1.1E1,3E0,8E0,1E0,2E0,4E0,4E0,3E0,1E0,2E0,2E0,2E0,1E0],"tree_param":{"num_deleted":"0","num_feature":"6","num_nodes":"13","size_leaf_vector":"1"}},{"base_weights":[-6.48674E-1,-1.3299057E1,5.0457935E0,-1.8185211E0,-5.608602E-1,1.4977356E0,7.5846925E0,2.6150436E0,-1.4857483E-1,9.383708E-1,3.2574463E-1,1.1529948E-1,3.500595E-1],"categories":[],"categories_nodes":[],"categories_segments":[],"categories_sizes":[],"default_left":[0,0,0,0,0,0,0,0,0,0,0,0,0],"id":12,"left_children":[1,3,5,-1,-1,7,9,11,-1,-1,-1,-1,-1],"loss_changes":[9.315506E2,4.8313416E1,6.971358E1,0E0,0E0,2.055265E1,8.356964E0,1.1427097E0,0E0,0E0,0E0,0E0,0E0],"parents":[2147483647,0,0,1,1,2,2,5,5,6,6,7,7],"right_children":[2,4,6,-1,-1,8,10,12,-1,-1,-1,-1,-1],"split_conditions":[2.8889E2,2.4734E2,1.265475E8,-1.8185211E0,-5.608602E-1,3.3585E2,3.4274E2,3.2072E2,-1.4857483E-1,9.383708E-1,3.2574463E-1,1.1529948E-1,3.500595E-1],"split_indices":[0,0,4,0,0,0,0,3,0,0,0,0,0],"split_type":[0,0,0,0,0,0,0,0,0,0,0,0,0],"sum_hessian":[1.1E1,3E0,8E0,1E0,2E0,4E0,4E0,3E0,1E0,2E0,2E0,2E0,1E0],"tree_param":{"num_deleted":"0","num_feature":"6","num_nodes":"13","size_leaf_vector":"1"}},{"base_weights":[-6.503525E-1,-1.2564003E1,4.7168646E0,-1.7275956E0,-5.234701E-1,1.4113159E0,7.0790405E0,2.4698792E0,-1.4114685E-1,8.7581176E-1,3.0402833E-1,1.07613124E-1,3.3255616E-1],"categories":[],"categories_nodes":[],"categories_segments":[],"categories_sizes":[],"default_left":[0,0,0,0,0,0,0,0,0,0,0,0,0],"id":13,"left_children":[1,3,5,-1,-1,7,9,11,-1,-1,-1,-1,-1],"loss_changes":[8.265805E2,4.770685E1,6.0283813E1,0E0,0E0,1.8426638E1,7.279785E0,1.1916809E0,0E0,0E0,0E0,0E0,0E0],"parents":[2147483647,0,0,1,1,2,2,5,5,6,6,7,7],"right_children":[2,4,6,-1,-1,8,10,12,-1,-1,-1,-1,-1],"split_conditions":[2.8889E2,2.4734E2,1.265475E8,-1.7275956E0,-5.234701E-1,3.3585E2,3.4274E2,3.2072E2,-1.4114685E-1,8.7581176E-1,3.0402833E-1,1.07613124E-1,3.3255616E-1],"split_indices":[0,0,4,0,0,0,0,3,0,0,0,0,0],"split_type":[0,0,0,0,0,0,0,0,0,0,0,0,0],"sum_hessian":[1.1E1,3E0,8E0,1E0,2E0,4E0,4E0,3E0,1E0,2E0,2E0,2E0,1E0],"tree_param":{"num_deleted":"0","num_feature":"6","num_nodes":"13","size_leaf_vector":"1"}},{"base_weights":[-6.4966583E-1,-1.1870369E1,4.409498E0,-1.6412156E0,-4.8857218E-1,-1.3408966E-1,5.29591E0,1.0043945E-1,6.5590158E0,7.71032E-1,2.8376058E-1],"categories":[],"categories_nodes":[],"categories_segments":[],"categories_sizes":[],"default_left":[0,0,0,0,0,0,0,0,0,0,0],"id":14,"left_children":[1,3,5,-1,-1,-1,7,-1,9,-1,-1],"loss_changes":[7.3355096E2,4.670587E1,5.297621E1,0E0,0E0,0E0,3.6777283E1,0E0,3.828003E0,0E0,0E0],"parents":[2147483647,0,0,1,1,2,2,6,6,8,8],"right_children":[2,4,6,-1,-1,-1,8,-1,10,-1,-1],"split_conditions":[2.8889E2,2.4734E2,3.4890454E-2,-1.6412156E0,-4.8857218E-1,-1.3408966E-1,3.2072E2,1.0043945E-1,3.4274E2,7.71032E-1,2.8376058E-1],"split_indices":[0,0,5,0,0,0,3,0,0,0,0],"split_type":[0,0,0,0,0,0,0,0,0,0,0],"sum_hessian":[1.1E1,3E0,8E0,1E0,2E0,1E0,7E0,2E0,5E0,3E0,2E0],"tree_param":{"num_deleted":"0","num_feature":"6","num_nodes":"11","size_leaf_vector":"1"}},{"base_weights":[-6.770808E-1,-1.1215775E1,4.082014E0,-1.5591553E0,-4.5599976E-1,1.1624329E0,6.185193E0,2.0899658E0,-1.2738495E-1,7.660217E-1,2.6484376E-1,9.37439E-2,2.7737734E-1],"categories":[],"categories_nodes":[],"categories_segments":[],"categories_sizes":[],"default_left":[0,0,0,0,0,0,0,0,0,0,0,0,0],"id":15,"left_children":[1,3,5,-1,-1,7,9,11,-1,-1,-1,-1,-1],"loss_changes":[6.476387E2,4.5399323E1,4.8073746E1,0E0,0E0,1.3960962E1,5.796402E0,5.5218124E-1,0E0,0E0,0E0,0E0,0E0],"parents":[2147483647,0,0,1,1,2,2,5,5,6,6,7,7],"right_children":[2,4,6,-1,-1,8,10,12,-1,-1,-1,-1,-1],"split_conditions":[2.8889E2,2.4734E2,1.265475E8,-1.5591553E0,-4.5599976E-1,3.3585E2,3.4274E2,3.2072E2,-1.2738495E-1,7.660217E-1,2.6484376E-1,9.37439E-2,2.7737734E-1],"split_indices":[0,0,4,0,0,0,0,3,0,0,0,0,0],"split_type":[0,0,0,0,0,0,0,0,0,0,0,0,0],"sum_hessian":[1.1E1,3E0,8E0,1E0,2E0,4E0,4E0,3E0,1E0,2E0,2E0,2E0,1E0],"tree_param":{"num_deleted":"0","num_feature":"6","num_nodes":"13","size_leaf_vector":"1"}},{"base_weights":[-6.710866E-1,-1.0597992E1,3.8154364E0,-1.4811982E0,-4.256002E-1,1.0949341E0,5.7728515E0,1.9737473E0,-1.2101593E-1,7.149536E-1,2.4718831E-1,8.74939E-2,2.6350862E-1],"categories":[],"categories_nodes":[],"categories_segments":[],"categories_sizes":[],"default_left":[0,0,0,0,0,0,0,0,0,0,0,0,0],"id":16,"left_children":[1,3,5,-1,-1,7,9,11,-1,-1,-1,-1,-1],"loss_changes":[5.748834E2,4.3860504E1,4.160547E1,0E0,0E0,1.2517282E1,5.0491486E0,6.0119724E-1,0E0,0E0,0E0,0E0,0E0],"parents":[2147483647,0,0,1,1,2,2,5,5,6,6,7,7],"right_children":[2,4,6,-1,-1,8,10,12,-1,-1,-1,-1,-1],"split_conditions":[2.8889E2,2.4734E2,1.265475E8,-1.4811982E0,-4.256002E-1,3.3585E2,3.4274E2,3.2072E2,-1.2101593E-1,7.149536E-1,2.4718831E-1,8.74939E-2,2.6350862E-1],"split_indices":[0,0,4,0,0,0,0,3,0,0,0,0,0],"split_type":[0,0,0,0,0,0,0,0,0,0,0,0,0],"sum_hessian":[1.1E1,3E0,8E0,1E0,2E0,4E0,4E0,3E0,1E0,2E0,2E0,2E0,1E0],"tree_param":{"num_deleted":"0","num_feature":"6","num_nodes":"13","size_leaf_vector":"1"}},{"base_weights":[-6.6353863E-1,-1.0014893E1,3.5663452E0,-1.4071381E0,-3.97227E-1,-1.1496582E-1,4.299553E0,8.166097E-2,5.3244324E0,6.2563324E-1,2.3070882E-1],"categories":[],"categories_nodes":[],"categories_segments":[],"categories_sizes":[],"default_left":[0,0,0,0,0,0,0,0,0,0,0],"id":17,"left_children":[1,3,5,-1,-1,-1,7,-1,9,-1,-1],"loss_changes":[5.103782E2,4.2152008E1,3.606331E1,0E0,0E0,0E0,2.4208801E1,0E0,2.437271E0,0E0,0E0],"parents":[2147483647,0,0,1,1,2,2,6,6,8,8],"right_children":[2,4,6,-1,-1,-1,8,-1,10,-1,-1],"split_conditions":[2.8889E2,2.4734E2,3.4890454E-2,-1.4071381E0,-3.97227E-1,-1.1496582E-1,3.2072E2,8.166097E-2,3.4274E2,6.2563324E-1,2.3070882E-1],"split_indices":[0,0,5,0,0,0,3,0,0,0,0],"split_type":[0,0,0,0,0,0,0,0,0,0,0],"sum_hessian":[1.1E1,3E0,8E0,1E0,2E0,1E0,7E0,2E0,5E0,3E0,2E0],"tree_param":{"num_deleted":"0","num_feature":"6","num_nodes":"11","size_leaf_vector":"1"}},{"base_weights":[-6.789678E-1,-9.4645E0,3.3011541E0,-1.3367814E0,-3.7074587E-1,8.966309E-1,5.045447E0,1.6668777E0,-1.0921784E-1,6.2557983E-1,2.1532796E-1,1.9247538E-1,4.4662476E-2],"categories":[],"categories_nodes":[],"categories_segments":[],"categories_sizes":[],"default_left":[0,0,0,0,0,0,0,0,0,0,0,0,0],"id":18,"left_children":[1,3,5,-1,-1,7,9,11,-1,-1,-1,-1,-1],"loss_changes":[4.508537E2,4.032553E1,3.3223824E1,0E0,0E0,9.479898E0,4.0322113E0,3.9905357E-1,0E0,0E0,0E0,0E0,0E0],"parents":[2147483647,0,0,1,1,2,2,5,5,6,6,7,7],"right_children":[2,4,6,-1,-1,8,10,12,-1,-1,-1,-1,-1],"split_conditions":[2.8889E2,2.4734E2,1.265475E8,-1.3367814E0,-3.7074587E-1,3.3585E2,3.4274E2,3.2769E2,-1.0921784E-1,6.2557983E-1,2.1532796E-1,1.9247538E-1,4.4662476E-2],"split_indices":[0,0,4,0,0,0,0,0,0,0,0,0,0],"split_type":[0,0,0,0,0,0,0,0,0,0,0,0,0],"sum_hessian":[1.1E1,3E0,8E0,1E0,2E0,4E0,4E0,3E0,1E0,2E0,2E0,2E0,1E0],"tree_param":{"num_deleted":"0","num_feature":"6","num_nodes":"13","size_leaf_vector":"1"}},{"base_weights":[-6.7262524E-1,-8.944923E0,3.078688E0,-1.2699417E0,-3.4602866E-1,8.325561E-1,4.709082E0,1.5594788E0,-1.0375672E-1,5.838745E-1,2.0097248E-1,6.831258E-2,2.0942688E-1],"categories":[],"categories_nodes":[],"categories_segments":[],"categories_sizes":[],"default_left":[0,0,0,0,0,0,0,0,0,0,0,0,0],"id":19,"left_children":[1,3,5,-1,-1,7,9,11,-1,-1,-1,-1,-1],"loss_changes":[3.999224E2,3.84245E1,2.9038155E1,0E0,0E0,8.415238E0,3.5125427E0,4.4401073E-1,0E0,0E0,0E0,0E0,0E0],"parents":[2147483647,0,0,1,1,2,2,5,5,6,6,7,7],"right_children":[2,4,6,-1,-1,8,10,12,-1,-1,-1,-1,-1],"split_conditions":[2.8889E2,2.4734E2,1.265475E8,-1.2699417E0,-3.4602866E-1,3.3585E2,3.4274E2,3.2072E2,-1.0375672E-1,5.838745E-1,2.0097248E-1,6.831258E-2,2.0942688E-1],"split_indices":[0,0,4,0,0,0,0,3,0,0,0,0,0],"split_type":[0,0,0,0,0,0,0,0,0,0,0,0,0],"sum_hessian":[1.1E1,3E0,8E0,1E0,2E0,4E0,4E0,3E0,1E0,2E0,2E0,2E0,1E0],"tree_param":{"num_deleted":"0","num_feature":"6","num_nodes":"13","size_leaf_vector":"1"}},{"base_weights":[-6.6011554E-1,-8.454422E0,2.8773668E0,-1.2064453E0,-3.229594E-1,7.8410643E-1,4.395154E0,1.4729767E0,-9.856873E-2,5.4495037E-1,1.8757528E-1,6.375936E-2,1.989563E-1],"categories":[],"categories_nodes":[],"categories_segments":[],"categories_sizes":[],"default_left":[0,0,0,0,0,0,0,0,0,0,0,0,0],"id":20,"left_children":[1,3,5,-1,-1,7,9,11,-1,-1,-1,-1,-1],"loss_changes":[3.551931E2,3.6483887E1,2.5147842E1,0E0,0E0,7.5476856E0,3.0597305E0,4.5765686E-1,0E0,0E0,0E0,0E0,0E0],"parents":[2147483647,0,0,1,1,2,2,5,5,6,6,7,7],"right_children":[2,4,6,-1,-1,8,10,12,-1,-1,-1,-1,-1],"split_conditions":[2.8889E2,2.4734E2,1.265475E8,-1.2064453E0,-3.229594E-1,3.3585E2,3.4274E2,3.2072E2,-9.856873E-2,5.4495037E-1,1.8757528E-1,6.375936E-2,1.989563E-1],"split_indices":[0,0,4,0,0,0,0,3,0,0,0,0,0],"split_type":[0,0,0,0,0,0,0,0,0,0,0,0,0],"sum_hessian":[1.1E1,3E0,8E0,1E0,2E0,4E0,4E0,3E0,1E0,2E0,2E0,2E0,1E0],"tree_param":{"num_deleted":"0","num_feature":"6","num_nodes":"13","size_leaf_vector":"1"}},{"base_weights":[-6.4682513E-1,-9.599782E0,2.1037445E0,-1.1461228E0,-2.938446E-1,-3.4516907E-1,3.2025888E0,-1.5829773E-1,5.9509277E-2,-9.364014E-2,4.048487E0,4.4241458E-1,1.0850983E-1],"categories":[],"categories_nodes":[],"categories_segments":[],"categories_sizes":[],"default_left":[0,0,0,0,0,0,0,0,0,0,0,0,0],"id":21,"left_children":[1,3,5,-1,-1,7,9,-1,-1,-1,11,-1,-1],"loss_changes":[3.1570428E2,3.520935E0,2.801519E1,0E0,0E0,5.5974736E0,2.8299164E1,0E0,0E0,0E0,1.8786926E0,0E0,0E0],"parents":[2147483647,0,0,1,1,2,2,5,5,6,6,10,10],"right_children":[2,4,6,-1,-1,8,10,-1,-1,-1,12,-1,-1],"split_conditions":[2.8467E2,2.4734E2,3.2072E2,-1.1461228E0,-2.938446E-1,2.8889E2,3.4890454E-2,-1.5829773E-1,5.9509277E-2,-9.364014E-2,3.463E2,4.4241458E-1,1.0850983E-1],"split_indices":[0,0,3,0,0,0,5,0,0,0,0,0,0],"split_type":[0,0,0,0,0,0,0,0,0,0,0,0,0],"sum_hessian":[1.1E1,2E0,9E0,1E0,1E0,3E0,6E0,1E0,2E0,1E0,5E0,4E0,1E0],"tree_param":{"num_deleted":"0","num_feature":"6","num_nodes":"13","size_leaf_vector":"1"}},{"base_weights":[-6.7226666E-1,-9.119792E0,1.9292176E0,-1.0888169E0,-2.7915192E-1,-3.3535004E-1,2.9476535E0,-1.50383E-1,5.5541992E-2,-8.895874E-2,3.7354584E0,4.427887E-1,1.5670675E-1],"categories":[],"categories_nodes":[],"categories_segments":[],"categories_sizes":[],"default_left":[0,0,0,0,0,0,0,0,0,0,0,0,0],"id":22,"left_children":[1,3,5,-1,-1,7,9,-1,-1,-1,11,-1,-1],"loss_changes":[2.8130728E2,3.1777802E0,2.405167E1,0E0,0E0,4.9986444E0,2.448399E1,0E0,0E0,0E0,2.0699387E0,0E0,0E0],"parents":[2147483647,0,0,1,1,2,2,5,5,6,6,10,10],"right_children":[2,4,6,-1,-1,8,10,-1,-1,-1,12,-1,-1],"split_conditions":[2.8467E2,2.4734E2,3.2072E2,-1.0888169E0,-2.7915192E-1,2.8889E2,3.4890454E-2,-1.50383E-1,5.5541992E-2,-8.895874E-2,3.4274E2,4.427887E-1,1.5670675E-1],"split_indices":[0,0,3,0,0,0,5,0,0,0,0,0,0],"split_type":[0,0,0,0,0,0,0,0,0,0,0,0,0],"sum_hessian":[1.1E1,2E0,9E0,1E0,1E0,3E0,6E0,1E0,2E0,1E0,5E0,3E0,2E0],"tree_param":{"num_deleted":"0","num_feature":"6","num_nodes":"13","size_leaf_vector":"1"}},{"base_weights":[-6.8439484E-1,-8.663808E0,1.7778686E0,-1.0343765E0,-2.651947E-1,-3.2552338E-1,2.7258258E0,-1.4286347E-1,5.183919E-2,-8.45108E-2,3.4618328E0,4.0958023E-1,1.4625956E-1],"categories":[],"categories_nodes":[],"categories_segments":[],"categories_sizes":[],"default_left":[0,0,0,0,0,0,0,0,0,0,0,0,0],"id":23,"left_children":[1,3,5,-1,-1,7,9,-1,-1,-1,11,-1,-1],"loss_changes":[2.5117212E2,2.8678894E0,2.0826576E1,0E0,0E0,4.4643226E0,2.1323238E1,0E0,0E0,0E0,1.6142349E0,0E0,0E0],"parents":[2147483647,0,0,1,1,2,2,5,5,6,6,10,10],"right_children":[2,4,6,-1,-1,8,10,-1,-1,-1,12,-1,-1],"split_conditions":[2.8467E2,2.4734E2,3.2072E2,-1.0343765E0,-2.651947E-1,2.8889E2,3.4890454E-2,-1.4286347E-1,5.183919E-2,-8.45108E-2,3.4274E2,4.0958023E-1,1.4625956E-1],"split_indices":[0,0,3,0,0,0,5,0,0,0,0,0,0],"split_type":[0,0,0,0,0,0,0,0,0,0,0,0,0],"sum_hessian":[1.1E1,2E0,9E0,1E0,1E0,3E0,6E0,1E0,2E0,1E0,5E0,3E0,2E0],"tree_param":{"num_deleted":"0","num_feature":"6","num_nodes":"13","size_leaf_vector":"1"}},{"base_weights":[-6.925659E-1,-8.230621E0,1.6381073E0,-9.826584E-1,-2.5193483E-1,-3.1573486E-1,2.5205731E0,-1.3572083E-1,4.838257E-2,-8.0285646E-2,3.2082875E0,3.78862E-1,1.3650818E-1],"categories":[],"categories_nodes":[],"categories_segments":[],"categories_sizes":[],"default_left":[0,0,0,0,0,0,0,0,0,0,0,0,0],"id":24,"left_children":[1,3,5,-1,-1,7,9,-1,-1,-1,11,-1,-1],"loss_changes":[2.2430757E2,2.5883484E0,1.8037827E1,0E0,0E0,3.987536E0,1.8574787E1,0E0,0E0,0E0,1.246254E0,0E0,0E0],"parents":[2147483647,0,0,1,1,2,2,5,5,6,6,10,10],"right_children":[2,4,6,-1,-1,8,10,-1,-1,-1,12,-1,-1],"split_conditions":[2.8467E2,2.4734E2,3.2072E2,-9.826584E-1,-2.5193483E-1,2.8889E2,3.4890454E-2,-1.3572083E-1,4.838257E-2,-8.0285646E-2,3.4274E2,3.78862E-1,1.3650818E-1],"split_indices":[0,0,3,0,0,0,5,0,0,0,0,0,0],"split_type":[0,0,0,0,0,0,0,0,0,0,0,0,0],"sum_hessian":[1.1E1,2E0,9E0,1E0,1E0,3E0,6E0,1E0,2E0,1E0,5E0,3E0,2E0],"tree_param":{"num_deleted":"0","num_feature":"6","num_nodes":"13","size_leaf_vector":"1"}},{"base_weights":[-6.972148E-1,-7.819092E0,1.5090698E0,-9.335251E-1,-2.3933868E-1,-3.0599213E-1,2.3306668E0,-1.2893525E-1,4.5157876E-2,-7.627106E-2,2.973348E0,3.5044632E0,1.2740783E-1,1.05326846E-1,3.9704388E-1],"categories":[],"categories_nodes":[],"categories_segments":[],"categories_sizes":[],"default_left":[0,0,0,0,0,0,0,0,0,0,0,0,0,0,0],"id":25,"left_children":[1,3,5,-1,-1,7,9,-1,-1,-1,11,13,-1,-1,-1],"loss_changes":[2.0035422E2,2.3358307E0,1.5625658E1,0E0,0E0,3.5621047E0,1.6184193E1,0E0,0E0,0E0,9.500885E-1,3.8684845E-1,0E0,0E0,0E0],"parents":[2147483647,0,0,1,1,2,2,5,5,6,6,10,10,11,11],"right_children":[2,4,6,-1,-1,8,10,-1,-1,-1,12,14,-1,-1,-1],"split_conditions":[2.8467E2,2.4734E2,3.2072E2,-9.335251E-1,-2.3933868E-1,2.8889E2,3.4890454E-2,-1.2893525E-1,4.5157876E-2,-7.627106E-2,3.4274E2,3.2871E2,1.2740783E-1,1.05326846E-1,3.9704388E-1],"split_indices":[0,0,3,0,0,0,5,0,0,0,0,1,0,0,0],"split_type":[0,0,0,0,0,0,0,0,0,0,0,0,0,0,0],"sum_hessian":[1.1E1,2E0,9E0,1E0,1E0,3E0,6E0,1E0,2E0,1E0,5E0,3E0,2E0,1E0,2E0],"tree_param":{"num_deleted":"0","num_feature":"6","num_nodes":"15","size_leaf_vector":"1"}},{"base_weights":[-6.86086E-1,-7.428131E0,1.4051361E0,-8.8684845E-1,-2.2737122E-1,-2.9634094E-1,2.176675E0,-1.224884E-1,4.2146813E-2,-7.245789E-2,2.7809803E0,3.03822E-1,7.4739076E-2],"categories":[],"categories_nodes":[],"categories_segments":[],"categories_sizes":[],"default_left":[0,0,0,0,0,0,0,0,0,0,0,0,0],"id":26,"left_children":[1,3,5,-1,-1,7,9,-1,-1,-1,11,-1,-1],"loss_changes":[1.7962689E2,2.1081848E0,1.3772594E1,0E0,0E0,3.182316E0,1.4287743E1,0E0,0E0,0E0,8.679848E-1,0E0,0E0],"parents":[2147483647,0,0,1,1,2,2,5,5,6,6,10,10],"right_children":[2,4,6,-1,-1,8,10,-1,-1,-1,12,-1,-1],"split_conditions":[2.8467E2,2.4734E2,3.2072E2,-8.8684845E-1,-2.2737122E-1,2.8889E2,3.4890454E-2,-1.224884E-1,4.2146813E-2,-7.245789E-2,3.463E2,3.03822E-1,7.4739076E-2],"split_indices":[0,0,3,0,0,0,5,0,0,0,0,0,0],"split_type":[0,0,0,0,0,0,0,0,0,0,0,0,0],"sum_hessian":[1.1E1,2E0,9E0,1E0,1E0,3E0,6E0,1E0,2E0,1E0,5E0,4E0,1E0],"tree_param":{"num_deleted":"0","num_feature":"6","num_nodes":"13","size_leaf_vector":"1"}},{"base_weights":[-6.915181E-1,-7.056722E0,1.2871948E0,-8.425064E-1,-2.160019E-1,6.241286E-1,3.6273956E-1,-1.16363525E-1,9.9305344E-1,-6.883545E-2,1.3315909E0,3.933716E-2,1.6282044E-1],"categories":[],"categories_nodes":[],"categories_segments":[],"categories_sizes":[],"default_left":[0,0,0,0,0,0,0,0,0,0,0,0,0],"id":27,"left_children":[1,3,5,-1,-1,7,-1,-1,9,-1,11,-1,-1],"loss_changes":[1.6022232E2,1.9027863E0,1.325312E1,0E0,0E0,7.091508E0,0E0,0E0,5.4703627E0,0E0,1.3075304E0,0E0,0E0],"parents":[2147483647,0,0,1,1,2,2,5,5,8,8,10,10],"right_children":[2,4,6,-1,-1,8,-1,-1,10,-1,12,-1,-1],"split_conditions":[2.8467E2,2.4734E2,4.1053405E-1,-8.425064E-1,-2.160019E-1,2.8889E2,3.6273956E-1,-1.16363525E-1,3.4890454E-2,-6.883545E-2,3.2072E2,3.933716E-2,1.6282044E-1],"split_indices":[0,0,5,0,0,0,0,0,5,0,3,0,0],"split_type":[0,0,0,0,0,0,0,0,0,0,0,0,0],"sum_hessian":[1.1E1,2E0,9E0,1E0,1E0,8E0,1E0,1E0,7E0,1E0,6E0,2E0,4E0],"tree_param":{"num_deleted":"0","num_feature":"6","num_nodes":"13","size_leaf_vector":"1"}},{"base_weights":[-6.789296E-1,-6.703888E0,1.1964508E0,-8.003815E-1,-2.0520173E-1,5.636054E-1,3.4460297E-1,-1.1054535E-1,9.1041946E-1,-6.539307E-2,1.2273167E0,3.6714684E-2,1.4979553E-1],"categories":[],"categories_nodes":[],"categories_segments":[],"categories_sizes":[],"default_left":[0,0,0,0,0,0,0,0,0,0,0,0,0],"id":28,"left_children":[1,3,5,-1,-1,7,-1,-1,9,-1,11,-1,-1],"loss_changes":[1.4360994E2,1.7173157E0,1.2294154E1,0E0,0E0,6.216104E0,0E0,0E0,4.768486E0,0E0,1.0795965E0,0E0,0E0],"parents":[2147483647,0,0,1,1,2,2,5,5,8,8,10,10],"right_children":[2,4,6,-1,-1,8,-1,-1,10,-1,12,-1,-1],"split_conditions":[2.8467E2,2.4734E2,4.1053405E-1,-8.003815E-1,-2.0520173E-1,2.8889E2,3.4460297E-1,-1.1054535E-1,3.4890454E-2,-6.539307E-2,3.2072E2,3.6714684E-2,1.4979553E-1],"split_indices":[0,0,5,0,0,0,0,0,5,0,3,0,0],"split_type":[0,0,0,0,0,0,0,0,0,0,0,0,0],"sum_hessian":[1.1E1,2E0,9E0,1E0,1E0,8E0,1E0,1E0,7E0,1E0,6E0,2E0,4E0],"tree_param":{"num_deleted":"0","num_feature":"6","num_nodes":"13","size_leaf_vector":"1"}},{"base_weights":[-6.6524E-1,-6.368693E0,1.11232E0,-7.6036227E-1,-1.9494171E-1,5.0841606E-1,3.2737276E-1,-1.05018616E-1,8.345146E-1,-6.212311E-2,1.1312256E0,3.4267172E-2,1.3781129E-1],"categories":[],"categories_nodes":[],"categories_segments":[],"categories_sizes":[],"default_left":[0,0,0,0,0,0,0,0,0,0,0,0,0],"id":29,"left_children":[1,3,5,-1,-1,7,-1,-1,9,-1,11,-1,-1],"loss_changes":[1.2874278E2,1.5498505E0,1.1388407E1,0E0,0E0,5.450717E0,0E0,0E0,4.158239E0,0E0,8.905468E-1,0E0,0E0],"parents":[2147483647,0,0,1,1,2,2,5,5,8,8,10,10],"right_children":[2,4,6,-1,-1,8,-1,-1,10,-1,12,-1,-1],"split_conditions":[2.8467E2,2.4734E2,4.1053405E-1,-7.6036227E-1,-1.9494171E-1,2.8889E2,3.2737276E-1,-1.05018616E-1,3.4890454E-2,-6.212311E-2,3.2072E2,3.4267172E-2,1.3781129E-1],"split_indices":[0,0,5,0,0,0,0,0,5,0,3,0,0],"split_type":[0,0,0,0,0,0,0,0,0,0,0,0,0],"sum_hessian":[1.1E1,2E0,9E0,1E0,1E0,8E0,1E0,1E0,7E0,1E0,6E0,2E0,4E0],"tree_param":{"num_deleted":"0","num_feature":"6","num_nodes":"13","size_leaf_vector":"1"}},{"base_weights":[-6.506322E-1,-6.0502524E0,1.034317E0,-7.2234344E-1,-1.851944E-1,4.5811972E-1,3.1100464E-1,-9.9768065E-2,7.6480484E-1,-5.9016418E-2,1.042681E0,3.1982422E-2,1.2678589E-1],"categories":[],"categories_nodes":[],"categories_segments":[],"categories_sizes":[],"default_left":[0,0,0,0,0,0,0,0,0,0,0,0,0],"id":30,"left_children":[1,3,5,-1,-1,7,-1,-1,9,-1,11,-1,-1],"loss_changes":[1.1543491E2,1.3987427E0,1.05355215E1,0E0,0E0,4.781282E0,0E0,0E0,3.627462E0,0E0,7.339077E-1,0E0,0E0],"parents":[2147483647,0,0,1,1,2,2,5,5,8,8,10,10],"right_children":[2,4,6,-1,-1,8,-1,-1,10,-1,12,-1,-1],"split_conditions":[2.8467E2,2.4734E2,4.1053405E-1,-7.2234344E-1,-1.851944E-1,2.8889E2,3.1100464E-1,-9.9768065E-2,3.4890454E-2,-5.9016418E-2,3.2072E2,3.1982422E-2,1.2678589E-1],"split_indices":[0,0,5,0,0,0,0,0,5,0,3,0,0],"split_type":[0,0,0,0,0,0,0,0,0,0,0,0,0],"sum_hessian":[1.1E1,2E0,9E0,1E0,1E0,8E0,1E0,1E0,7E0,1E0,6E0,2E0,4E0],"tree_param":{"num_deleted":"0","num_feature":"6","num_nodes":"13","size_leaf_vector":"1"}},{"base_weights":[-6.35287E-1,-5.7477417E0,9.6197814E-1,-6.862259E-1,-1.7593537E-1,4.1229928E-1,2.954544E-1,-9.477997E-2,7.007866E-1,-5.606537E-2,9.6108574E-1,2.985026E-2,1.1664184E-1],"categories":[],"categories_nodes":[],"categories_segments":[],"categories_sizes":[],"default_left":[0,0,0,0,0,0,0,0,0,0,0,0,0],"id":31,"left_children":[1,3,5,-1,-1,7,-1,-1,9,-1,11,-1,-1],"loss_changes":[1.0352056E2,1.2622375E0,9.734559E0,0E0,0E0,4.1955466E0,0E0,0E0,3.165651E0,0E0,6.041713E-1,0E0,0E0],"parents":[2147483647,0,0,1,1,2,2,5,5,8,8,10,10],"right_children":[2,4,6,-1,-1,8,-1,-1,10,-1,12,-1,-1],"split_conditions":[2.8467E2,2.4734E2,4.1053405E-1,-6.862259E-1,-1.7593537E-1,2.8889E2,2.954544E-1,-9.477997E-2,3.4890454E-2,-5.606537E-2,3.2072E2,2.985026E-2,1.1664184E-1],"split_indices":[0,0,5,0,0,0,0,0,5,0,3,0,0],"split_type":[0,0,0,0,0,0,0,0,0,0,0,0,0],"sum_hessian":[1.1E1,2E0,9E0,1E0,1E0,8E0,1E0,1E0,7E0,1E0,6E0,2E0,4E0],"tree_param":{"num_deleted":"0","num_feature":"6","num_nodes":"13","size_leaf_vector":"1"}},{"base_weights":[-6.1934406E-1,-5.4603577E0,8.948944E-1,-6.51915E-1,-1.6713868E-1,3.705885E-1,2.8068238E-1,-1.7112224E-1,1.0905075E-1,4.5983124E-1,-9.553528E-2,5.3250123E-2,1.2091065E-2],"categories":[],"categories_nodes":[],"categories_segments":[],"categories_sizes":[],"default_left":[0,0,0,0,0,0,0,0,0,0,0,0,0],"id":32,"left_children":[1,3,5,-1,-1,7,-1,9,-1,11,-1,-1,-1],"loss_changes":[9.285183E1,1.139183E0,8.984182E0,0E0,0E0,3.6965008E0,0E0,3.4081793E0,0E0,3.413236E-2,0E0,0E0,0E0],"parents":[2147483647,0,0,1,1,2,2,5,5,7,7,9,9],"right_children":[2,4,6,-1,-1,8,-1,10,-1,12,-1,-1,-1],"split_conditions":[2.8467E2,2.4734E2,4.1053405E-1,-6.51915E-1,-1.6713868E-1,3.4073E2,2.8068238E-1,1.254056E8,1.0905075E-1,3.2769E2,-9.553528E-2,5.3250123E-2,1.2091065E-2],"split_indices":[0,0,5,0,0,0,0,4,0,0,0,0,0],"split_type":[0,0,0,0,0,0,0,0,0,0,0,0,0],"sum_hessian":[1.1E1,2E0,9E0,1E0,1E0,8E0,1E0,5E0,3E0,3E0,2E0,2E0,1E0],"tree_param":{"num_deleted":"0","num_feature":"6","num_nodes":"13","size_leaf_vector":"1"}},{"base_weights":[-5.9570056E-1,-5.1873374E0,8.4136045E-1,-6.1931914E-1,-1.5878144E-1,3.4229195E-1,2.6664886E-1,-8.5264586E-2,5.982399E-1,-4.848633E-2,8.222351E-1,1.0920105E-1,3.4690093E-2],"categories":[],"categories_nodes":[],"categories_segments":[],"categories_sizes":[],"default_left":[0,0,0,0,0,0,0,0,0,0,0,0,0],"id":33,"left_children":[1,3,5,-1,-1,7,-1,-1,9,-1,11,-1,-1],"loss_changes":[8.354597E1,1.0281525E0,8.195923E0,0E0,0E0,3.2626638E0,0E0,0E0,2.339551E0,0E0,5.1881456E-1,0E0,0E0],"parents":[2147483647,0,0,1,1,2,2,5,5,8,8,10,10],"right_children":[2,4,6,-1,-1,8,-1,-1,10,-1,12,-1,-1],"split_conditions":[2.8467E2,2.4734E2,4.1053405E-1,-6.1931914E-1,-1.5878144E-1,2.8889E2,2.6664886E-1,-8.5264586E-2,3.4890454E-2,-4.848633E-2,1.9803625E-1,1.0920105E-1,3.4690093E-2],"split_indices":[0,0,5,0,0,0,0,0,5,0,5,0,0],"split_type":[0,0,0,0,0,0,0,0,0,0,0,0,0],"sum_hessian":[1.1E1,2E0,9E0,1E0,1E0,8E0,1E0,1E0,7E0,1E0,6E0,3E0,3E0],"tree_param":{"num_deleted":"0","num_feature":"6","num_nodes":"13","size_leaf_vector":"1"}},{"base_weights":[-5.779063E-1,-4.9279685E0,7.8490293E-1,-5.88353E-1,-1.508423E-1,3.0919054E-1,2.5331575E-1,-1.6651917E-1,9.4545746E-1,3.855362E-1,-8.470866E-2,1.0664673E-1,2.9121399E-2,4.4903565E-2,9.751893E-3],"categories":[],"categories_nodes":[],"categories_segments":[],"categories_sizes":[],"default_left":[0,0,0,0,0,0,0,0,0,0,0,0,0,0,0],"id":34,"left_children":[1,3,5,-1,-1,7,-1,9,11,13,-1,-1,-1,-1,-1],"loss_changes":[7.500764E1,9.2790985E-1,7.533435E0,0E0,0E0,2.881542E0,0E0,2.5808477E0,6.1097145E-3,2.9366314E-2,0E0,0E0,0E0,0E0,0E0],"parents":[2147483647,0,0,1,1,2,2,5,5,7,7,8,8,9,9],"right_children":[2,4,6,-1,-1,8,-1,10,12,14,-1,-1,-1,-1,-1],"split_conditions":[2.8467E2,2.4734E2,4.1053405E-1,-5.88353E-1,-1.508423E-1,3.4073E2,2.5331575E-1,1.254056E8,3.463E2,3.2769E2,-8.470866E-2,1.0664673E-1,2.9121399E-2,4.4903565E-2,9.751893E-3],"split_indices":[0,0,5,0,0,0,0,4,0,0,0,0,0,0,0],"split_type":[0,0,0,0,0,0,0,0,0,0,0,0,0,0,0],"sum_hessian":[1.1E1,2E0,9E0,1E0,1E0,8E0,1E0,5E0,3E0,3E0,2E0,2E0,1E0,2E0,1E0],"tree_param":{"num_deleted":"0","num_feature":"6","num_nodes":"15","size_leaf_vector":"1"}},{"base_weights":[-5.5179596E-1,-4.6815696E0,7.4231565E-1,-5.589356E-1,-1.4329986E-1,2.900187E-1,2.4064942E-1,-7.676544E-2,5.1818466E-1,-4.182587E-2,7.117135E-1,9.455643E-2,2.999344E-2],"categories":[],"categories_nodes":[],"categories_segments":[],"categories_sizes":[],"default_left":[0,0,0,0,0,0,0,0,0,0,0,0,0],"id":35,"left_children":[1,3,5,-1,-1,7,-1,-1,9,-1,11,-1,-1],"loss_changes":[6.760785E1,8.3748627E-1,6.8291006E0,0E0,0E0,2.5697117E0,0E0,0E0,1.7475109E0,0E0,3.9045668E-1,0E0,0E0],"parents":[2147483647,0,0,1,1,2,2,5,5,8,8,10,10],"right_children":[2,4,6,-1,-1,8,-1,-1,10,-1,12,-1,-1],"split_conditions":[2.8467E2,2.4734E2,4.1053405E-1,-5.589356E-1,-1.4329986E-1,2.8889E2,2.4064942E-1,-7.676544E-2,3.4890454E-2,-4.182587E-2,1.9803625E-1,9.455643E-2,2.999344E-2],"split_indices":[0,0,5,0,0,0,0,0,5,0,5,0,0],"split_type":[0,0,0,0,0,0,0,0,0,0,0,0,0],"sum_hessian":[1.1E1,2E0,9E0,1E0,1E0,8E0,1E0,1E0,7E0,1E0,6E0,3E0,3E0],"tree_param":{"num_deleted":"0","num_feature":"6","num_nodes":"13","size_leaf_vector":"1"}},{"base_weights":[-5.3458405E-1,-4.4474893E0,6.92746E-1,-5.309891E-1,-1.3613434E-1,2.6168144E-1,2.2861634E-1,-1.6086324E-1,8.300781E-1,3.2201385E-1,-7.5107835E-2,1.07075505E-1,3.929342E-2,3.77594E-2,7.763672E-3],"categories":[],"categories_nodes":[],"categories_segments":[],"categories_sizes":[],"default_left":[0,0,0,0,0,0,0,0,0,0,0,0,0,0,0],"id":36,"left_children":[1,3,5,-1,-1,7,-1,9,11,13,-1,-1,-1,-1,-1],"loss_changes":[6.07101E1,7.5590897E-1,6.270411E0,0E0,0E0,2.2950861E0,0E0,1.9518656E0,1.0561943E-4,2.5014877E-2,0E0,0E0,0E0,0E0,0E0],"parents":[2147483647,0,0,1,1,2,2,5,5,7,7,8,8,9,9],"right_children":[2,4,6,-1,-1,8,-1,10,12,14,-1,-1,-1,-1,-1],"split_conditions":[2.8467E2,2.4734E2,4.1053405E-1,-5.309891E-1,-1.3613434E-1,3.4073E2,2.2861634E-1,1.254056E8,3.4274E2,3.2769E2,-7.5107835E-2,1.07075505E-1,3.929342E-2,3.77594E-2,7.763672E-3],"split_indices":[0,0,5,0,0,0,0,4,0,0,0,0,0,0,0],"split_type":[0,0,0,0,0,0,0,0,0,0,0,0,0,0,0],"sum_hessian":[1.1E1,2E0,9E0,1E0,1E0,8E0,1E0,5E0,3E0,3E0,2E0,1E0,2E0,2E0,1E0],"tree_param":{"num_deleted":"0","num_feature":"6","num_nodes":"15","size_leaf_vector":"1"}},{"base_weights":[-5.0793713E-1,-4.225118E0,6.5801084E-1,-5.044403E-1,-1.293274E-1,2.4848768E-1,2.1718597E-1,-6.917267E-2,4.5248032E-1,-3.59787E-2,6.199166E-1,8.2862094E-2,2.5623322E-2],"categories":[],"categories_nodes":[],"categories_segments":[],"categories_sizes":[],"default_left":[0,0,0,0,0,0,0,0,0,0,0,0,0],"id":37,"left_children":[1,3,5,-1,-1,7,-1,-1,9,-1,11,-1,-1],"loss_changes":[5.478865E1,6.822548E-1,5.659882E0,0E0,0E0,2.039164E0,0E0,0E0,1.3110623E0,0E0,3.189957E-1,0E0,0E0],"parents":[2147483647,0,0,1,1,2,2,5,5,8,8,10,10],"right_children":[2,4,6,-1,-1,8,-1,-1,10,-1,12,-1,-1],"split_conditions":[2.8467E2,2.4734E2,4.1053405E-1,-5.044403E-1,-1.293274E-1,2.8889E2,2.1718597E-1,-6.917267E-2,3.4890454E-2,-3.59787E-2,1.9803625E-1,8.2862094E-2,2.5623322E-2],"split_indices":[0,0,5,0,0,0,0,0,5,0,5,0,0],"split_type":[0,0,0,0,0,0,0,0,0,0,0,0,0],"sum_hessian":[1.1E1,2E0,9E0,1E0,1E0,8E0,1E0,1E0,7E0,1E0,6E0,3E0,3E0],"tree_param":{"num_deleted":"0","num_feature":"6","num_nodes":"13","size_leaf_vector":"1"}},{"base_weights":[-4.9157968E-1,-4.013855E0,6.1426085E-1,-4.7921753E-1,-1.2286072E-1,2.240092E-1,2.0632629E-1,-1.5453084E-1,7.3581696E-1,2.6766968E-1,-6.659546E-2,9.757843E-2,3.3056643E-2,3.1626385E-2,6.0943603E-3],"categories":[],"categories_nodes":[],"categories_segments":[],"categories_sizes":[],"default_left":[0,0,0,0,0,0,0,0,0,0,0,0,0,0,0],"id":38,"left_children":[1,3,5,-1,-1,7,-1,9,11,13,-1,-1,-1,-1,-1],"loss_changes":[4.920645E1,6.1574554E-1,5.192565E0,0E0,0E0,1.8573639E0,0E0,1.473796E0,6.642604E-2,2.0908475E-2,0E0,0E0,0E0,0E0,0E0],"parents":[2147483647,0,0,1,1,2,2,5,5,7,7,8,8,9,9],"right_children":[2,4,6,-1,-1,8,-1,10,12,14,-1,-1,-1,-1,-1],"split_conditions":[2.8467E2,2.4734E2,4.1053405E-1,-4.7921753E-1,-1.2286072E-1,3.4073E2,2.0632629E-1,1.254056E8,3.4274E2,3.2769E2,-6.659546E-2,9.757843E-2,3.3056643E-2,3.1626385E-2,6.0943603E-3],"split_indices":[0,0,5,0,0,0,0,4,0,0,0,0,0,0,0],"split_type":[0,0,0,0,0,0,0,0,0,0,0,0,0,0,0],"sum_hessian":[1.1E1,2E0,9E0,1E0,1E0,8E0,1E0,5E0,3E0,3E0,2E0,1E0,2E0,2E0,1E0],"tree_param":{"num_deleted":"0","num_feature":"6","num_nodes":"15","size_leaf_vector":"1"}},{"base_weights":[-4.6691895E-1,-3.8131611E0,5.8364564E-1,-4.5525667E-1,-1.1671753E-1,2.1291775E-1,1.9600983E-1,-1.4389038E-1,6.949005E-1,2.503357E-1,-6.215617E-2,9.27002E-2,3.0853271E-2,2.9518638E-2,5.7891845E-3],"categories":[],"categories_nodes":[],"categories_segments":[],"categories_sizes":[],"default_left":[0,0,0,0,0,0,0,0,0,0,0,0,0,0,0],"id":39,"left_children":[1,3,5,-1,-1,7,-1,9,11,13,-1,-1,-1,-1,-1],"loss_changes":[4.4410854E1,5.557289E-1,4.685554E0,0E0,0E0,1.6477678E0,0E0,1.2854619E0,7.269573E-2,1.7436057E-2,0E0,0E0,0E0,0E0,0E0],"parents":[2147483647,0,0,1,1,2,2,5,5,7,7,8,8,9,9],"right_children":[2,4,6,-1,-1,8,-1,10,12,14,-1,-1,-1,-1,-1],"split_conditions":[2.8467E2,2.4734E2,4.1053405E-1,-4.5525667E-1,-1.1671753E-1,3.4073E2,1.9600983E-1,1.254056E8,3.4274E2,3.2769E2,-6.215617E-2,9.27002E-2,3.0853271E-2,2.9518638E-2,5.7891845E-3],"split_indices":[0,0,5,0,0,0,0,4,0,0,0,0,0,0,0],"split_type":[0,0,0,0,0,0,0,0,0,0,0,0,0,0,0],"sum_hessian":[1.1E1,2E0,9E0,1E0,1E0,8E0,1E0,5E0,3E0,3E0,2E0,1E0,2E0,2E0,1E0],"tree_param":{"num_deleted":"0","num_feature":"6","num_nodes":"15","size_leaf_vector":"1"}},{"base_weights":[-4.434967E-1,-3.6224976E0,5.545532E-1,-4.324936E-1,-1.10881045E-1,2.0237224E-1,1.8620911E-1,-5.9275817E-2,3.758583E-1,-2.7742004E-2,5.088152E-1,7.6039635E-2,2.5610352E-2],"categories":[],"categories_nodes":[],"categories_segments":[],"categories_sizes":[],"default_left":[0,0,0,0,0,0,0,0,0,0,0,0,0],"id":40,"left_children":[1,3,5,-1,-1,7,-1,-1,9,-1,11,-1,-1],"loss_changes":[4.008249E1,5.0159454E-1,4.2280645E0,0E0,0E0,1.4642895E0,0E0,0E0,8.3601856E-1,0E0,2.503022E-1,0E0,0E0],"parents":[2147483647,0,0,1,1,2,2,5,5,8,8,10,10],"right_children":[2,4,6,-1,-1,8,-1,-1,10,-1,12,-1,-1],"split_conditions":[2.8467E2,2.4734E2,4.1053405E-1,-4.324936E-1,-1.10881045E-1,2.8889E2,1.8620911E-1,-5.9275817E-2,3.4890454E-2,-2.7742004E-2,1.5187164E-1,7.6039635E-2,2.5610352E-2],"split_indices":[0,0,5,0,0,0,0,0,5,0,5,0,0],"split_type":[0,0,0,0,0,0,0,0,0,0,0,0,0],"sum_hessian":[1.1E1,2E0,9E0,1E0,1E0,8E0,1E0,1E0,7E0,1E0,6E0,2E0,4E0],"tree_param":{"num_deleted":"0","num_feature":"6","num_nodes":"13","size_leaf_vector":"1"}},{"base_weights":[-4.276937E-1,-3.4413757E0,5.191803E-1,-4.1086885E-1,-1.0533752E-1,1.837599E-1,1.768982E-1,-1.4068095E-1,6.244812E-1,2.0231628E-1,-5.5111695E-2,8.426209E-2,2.7089437E-2,2.4162801E-2,4.219055E-3],"categories":[],"categories_nodes":[],"categories_segments":[],"categories_sizes":[],"default_left":[0,0,0,0,0,0,0,0,0,0,0,0,0,0,0],"id":41,"left_children":[1,3,5,-1,-1,7,-1,9,11,13,-1,-1,-1,-1,-1],"loss_changes":[3.6029617E1,4.5263672E-1,3.8670216E0,0E0,0E0,1.3747445E0,0E0,9.561703E-1,8.026397E-2,1.4984846E-2,0E0,0E0,0E0,0E0,0E0],"parents":[2147483647,0,0,1,1,2,2,5,5,7,7,8,8,9,9],"right_children":[2,4,6,-1,-1,8,-1,10,12,14,-1,-1,-1,-1,-1],"split_conditions":[2.8467E2,2.4734E2,4.1053405E-1,-4.1086885E-1,-1.0533752E-1,3.4073E2,1.768982E-1,1.254056E8,3.4274E2,3.2769E2,-5.5111695E-2,8.426209E-2,2.7089437E-2,2.4162801E-2,4.219055E-3],"split_indices":[0,0,5,0,0,0,0,4,0,0,0,0,0,0,0],"split_type":[0,0,0,0,0,0,0,0,0,0,0,0,0,0,0],"sum_hessian":[1.1E1,2E0,9E0,1E0,1E0,8E0,1E0,5E0,3E0,3E0,2E0,1E0,2E0,2E0,1E0],"tree_param":{"num_deleted":"0","num_feature":"6","num_nodes":"15","size_leaf_vector":"1"}},{"base_weights":[-4.0615082E-1,-3.2693074E0,4.9341124E-1,-3.9032593E-1,-1.0007019E-1,1.7478435E-1,1.6805267E-1,-1.3106792E-1,5.8986664E-1,1.8917847E-1,-5.1437378E-2,8.0049135E-2,2.5282798E-2,2.2551473E-2,4.008484E-3],"categories":[],"categories_nodes":[],"categories_segments":[],"categories_sizes":[],"default_left":[0,0,0,0,0,0,0,0,0,0,0,0,0,0,0],"id":42,"left_children":[1,3,5,-1,-1,7,-1,9,11,13,-1,-1,-1,-1,-1],"loss_changes":[3.2520157E1,4.085617E-1,3.4887397E0,0E0,0E0,1.2198973E0,0E0,8.3382237E-1,8.1568E-2,1.2630299E-2,0E0,0E0,0E0,0E0,0E0],"parents":[2147483647,0,0,1,1,2,2,5,5,7,7,8,8,9,9],"right_children":[2,4,6,-1,-1,8,-1,10,12,14,-1,-1,-1,-1,-1],"split_conditions":[2.8467E2,2.4734E2,4.1053405E-1,-3.9032593E-1,-1.0007019E-1,3.4073E2,1.6805267E-1,1.254056E8,3.4274E2,3.2769E2,-5.1437378E-2,8.0049135E-2,2.5282798E-2,2.2551473E-2,4.008484E-3],"split_indices":[0,0,5,0,0,0,0,4,0,0,0,0,0,0,0],"split_type":[0,0,0,0,0,0,0,0,0,0,0,0,0,0,0],"sum_hessian":[1.1E1,2E0,9E0,1E0,1E0,8E0,1E0,5E0,3E0,3E0,2E0,1E0,2E0,2E0,1E0],"tree_param":{"num_deleted":"0","num_feature":"6","num_nodes":"15","size_leaf_vector":"1"}},{"base_weights":[-3.8568878E-1,-3.1058452E0,4.68927E-1,-3.7080994E-1,-9.506684E-2,1.6625299E-1,1.5964966E-1,-1.2210083E-1,5.5722046E-1,1.7690277E-1,-4.80072E-2,7.604676E-2,2.3598226E-2,2.1047974E-2,3.8085938E-3],"categories":[],"categories_nodes":[],"categories_segments":[],"categories_sizes":[],"default_left":[0,0,0,0,0,0,0,0,0,0,0,0,0,0,0],"id":43,"left_children":[1,3,5,-1,-1,7,-1,9,11,13,-1,-1,-1,-1,-1],"loss_changes":[2.9352676E1,3.68721E-1,3.147438E0,0E0,0E0,1.0826697E0,0E0,7.271341E-1,8.170605E-2,1.0627866E-2,0E0,0E0,0E0,0E0,0E0],"parents":[2147483647,0,0,1,1,2,2,5,5,7,7,8,8,9,9],"right_children":[2,4,6,-1,-1,8,-1,10,12,14,-1,-1,-1,-1,-1],"split_conditions":[2.8467E2,2.4734E2,4.1053405E-1,-3.7080994E-1,-9.506684E-2,3.4073E2,1.5964966E-1,1.254056E8,3.4274E2,3.2769E2,-4.80072E-2,7.604676E-2,2.3598226E-2,2.1047974E-2,3.8085938E-3],"split_indices":[0,0,5,0,0,0,0,4,0,0,0,0,0,0,0],"split_type":[0,0,0,0,0,0,0,0,0,0,0,0,0,0,0],"sum_hessian":[1.1E1,2E0,9E0,1E0,1E0,8E0,1E0,5E0,3E0,3E0,2E0,1E0,2E0,2E0,1E0],"tree_param":{"num_deleted":"0","num_feature":"6","num_nodes":"15","size_leaf_vector":"1"}},{"base_weights":[-3.6626434E-1,-2.9505513E0,4.456482E-1,-3.52269E-1,-9.0313725E-2,1.5812513E-1,1.5166779E-1,-4.8583984E-2,2.9935074E-1,-1.8626405E-2,3.9533344E-1,6.0698446E-2,1.8927613E-2],"categories":[],"categories_nodes":[],"categories_segments":[],"categories_sizes":[],"default_left":[0,0,0,0,0,0,0,0,0,0,0,0,0],"id":44,"left_children":[1,3,5,-1,-1,7,-1,-1,9,-1,11,-1,-1],"loss_changes":[2.6493486E1,3.327427E-1,2.8396323E0,0E0,0E0,9.639357E-1,0E0,0E0,4.4652134E-1,0E0,1.9039798E-1,0E0,0E0],"parents":[2147483647,0,0,1,1,2,2,5,5,8,8,10,10],"right_children":[2,4,6,-1,-1,8,-1,-1,10,-1,12,-1,-1],"split_conditions":[2.8467E2,2.4734E2,4.1053405E-1,-3.52269E-1,-9.0313725E-2,2.8889E2,1.5166779E-1,-4.8583984E-2,3.4890454E-2,-1.8626405E-2,1.5187164E-1,6.0698446E-2,1.8927613E-2],"split_indices":[0,0,5,0,0,0,0,0,5,0,5,0,0],"split_type":[0,0,0,0,0,0,0,0,0,0,0,0,0],"sum_hessian":[1.1E1,2E0,9E0,1E0,1E0,8E0,1E0,1E0,7E0,1E0,6E0,2E0,4E0],"tree_param":{"num_deleted":"0","num_feature":"6","num_nodes":"13","size_leaf_vector":"1"}},{"base_weights":[-3.5284677E-1,-2.8030293E0,4.174927E-1,-3.3465576E-1,-8.579864E-2,1.4369372E-1,1.4408417E-1,-1.1897787E-1,5.0177765E-1,1.4078522E-1,-4.2566936E-2,6.920929E-2,2.076416E-2,1.6990153E-2,2.671814E-3],"categories":[],"categories_nodes":[],"categories_segments":[],"categories_sizes":[],"default_left":[0,0,0,0,0,0,0,0,0,0,0,0,0,0,0],"id":45,"left_children":[1,3,5,-1,-1,7,-1,9,11,13,-1,-1,-1,-1,-1],"loss_changes":[2.3819912E1,3.0025673E-1,2.5948792E0,0E0,0E0,9.0622663E-1,0E0,5.379307E-1,8.020699E-2,8.745395E-3,0E0,0E0,0E0,0E0,0E0],"parents":[2147483647,0,0,1,1,2,2,5,5,7,7,8,8,9,9],"right_children":[2,4,6,-1,-1,8,-1,10,12,14,-1,-1,-1,-1,-1],"split_conditions":[2.8467E2,2.4734E2,4.1053405E-1,-3.3465576E-1,-8.579864E-2,3.4073E2,1.4408417E-1,1.254056E8,3.4274E2,3.2769E2,-4.2566936E-2,6.920929E-2,2.076416E-2,1.6990153E-2,2.671814E-3],"split_indices":[0,0,5,0,0,0,0,4,0,0,0,0,0,0,0],"split_type":[0,0,0,0,0,0,0,0,0,0,0,0,0,0,0],"sum_hessian":[1.1E1,2E0,9E0,1E0,1E0,8E0,1E0,5E0,3E0,3E0,2E0,1E0,2E0,2E0,1E0],"tree_param":{"num_deleted":"0","num_feature":"6","num_nodes":"15","size_leaf_vector":"1"}},{"base_weights":[-3.3500418E-1,-2.6628826E0,3.9685974E-1,-3.1792298E-1,-8.1509404E-2,1.3677639E-1,1.368805E-1,-1.1090088E-1,4.740982E-1,1.3161469E-1,-3.97288E-2,6.5748595E-2,1.9380696E-2,1.5856935E-2,2.5375367E-3],"categories":[],"categories_nodes":[],"categories_segments":[],"categories_sizes":[],"default_left":[0,0,0,0,0,0,0,0,0,0,0,0,0,0,0],"id":46,"left_children":[1,3,5,-1,-1,7,-1,9,11,13,-1,-1,-1,-1,-1],"loss_changes":[2.1501072E1,2.7093124E-1,2.3406472E0,0E0,0E0,8.0450046E-1,0E0,4.6900895E-1,7.818252E-2,7.4308217E-3,0E0,0E0,0E0,0E0,0E0],"parents":[2147483647,0,0,1,1,2,2,5,5,7,7,8,8,9,9],"right_children":[2,4,6,-1,-1,8,-1,10,12,14,-1,-1,-1,-1,-1],"split_conditions":[2.8467E2,2.4734E2,4.1053405E-1,-3.1792298E-1,-8.1509404E-2,3.4073E2,1.368805E-1,1.254056E8,3.4274E2,3.2769E2,-3.97288E-2,6.5748595E-2,1.9380696E-2,1.5856935E-2,2.5375367E-3],"split_indices":[0,0,5,0,0,0,0,4,0,0,0,0,0,0,0],"split_type":[0,0,0,0,0,0,0,0,0,0,0,0,0,0,0],"sum_hessian":[1.1E1,2E0,9E0,1E0,1E0,8E0,1E0,5E0,3E0,3E0,2E0,1E0,2E0,2E0,1E0],"tree_param":{"num_deleted":"0","num_feature":"6","num_nodes":"15","size_leaf_vector":"1"}},{"base_weights":[-3.1806436E-1,-2.5297344E0,3.7724304E-1,-3.0202636E-1,-7.743378E-2,1.3018799E-1,1.3003694E-1,-1.03368126E-1,4.4797516E-1,1.23046875E-1,-3.7079874E-2,6.2461853E-2,1.8088786E-2,1.4798991E-2,2.4108887E-3],"categories":[],"categories_nodes":[],"categories_segments":[],"categories_sizes":[],"default_left":[0,0,0,0,0,0,0,0,0,0,0,0,0,0,0],"id":47,"left_children":[1,3,5,-1,-1,7,-1,9,11,13,-1,-1,-1,-1,-1],"loss_changes":[1.940781E1,2.4451637E-1,2.1113374E0,0E0,0E0,7.142966E-1,0E0,4.0892747E-1,7.573092E-2,6.303385E-3,0E0,0E0,0E0,0E0,0E0],"parents":[2147483647,0,0,1,1,2,2,5,5,7,7,8,8,9,9],"right_children":[2,4,6,-1,-1,8,-1,10,12,14,-1,-1,-1,-1,-1],"split_conditions":[2.8467E2,2.4734E2,4.1053405E-1,-3.0202636E-1,-7.743378E-2,3.4073E2,1.3003694E-1,1.254056E8,3.4274E2,3.2769E2,-3.7079874E-2,6.2461853E-2,1.8088786E-2,1.4798991E-2,2.4108887E-3],"split_indices":[0,0,5,0,0,0,0,4,0,0,0,0,0,0,0],"split_type":[0,0,0,0,0,0,0,0,0,0,0,0,0,0,0],"sum_hessian":[1.1E1,2E0,9E0,1E0,1E0,8E0,1E0,5E0,3E0,3E0,2E0,1E0,2E0,2E0,1E0],"tree_param":{"num_deleted":"0","num_feature":"6","num_nodes":"15","size_leaf_vector":"1"}},{"base_weights":[-3.0198923E-1,-2.403249E0,3.5858765E-1,-2.8692475E-1,-7.356262E-2,1.2390815E-1,1.23535156E-1,-4.018555E-2,2.3986053E-1,4.5129396E-2,4.2330933E-1,1.1504364E-2,-1.1726379E-2,5.933838E-2,1.6882325E-2],"categories":[],"categories_nodes":[],"categories_segments":[],"categories_sizes":[],"default_left":[0,0,0,0,0,0,0,0,0,0,0,0,0,0,0],"id":48,"left_children":[1,3,5,-1,-1,7,-1,-1,9,11,13,-1,-1,-1,-1],"loss_changes":[1.75183E1,2.2063637E-1,1.904515E0,0E0,0E0,6.450612E-1,0E0,0E0,2.6668185E-1,7.025844E-2,7.294935E-2,0E0,0E0,0E0,0E0],"parents":[2147483647,0,0,1,1,2,2,5,5,8,8,9,9,10,10],"right_children":[2,4,6,-1,-1,8,-1,-1,10,12,14,-1,-1,-1,-1],"split_conditions":[2.8467E2,2.4734E2,4.1053405E-1,-2.8692475E-1,-7.356262E-2,2.8889E2,1.23535156E-1,-4.018555E-2,3.4073E2,3.3585E2,3.4274E2,1.1504364E-2,-1.1726379E-2,5.933838E-2,1.6882325E-2],"split_indices":[0,0,5,0,0,0,0,0,0,0,0,0,0,0,0],"split_type":[0,0,0,0,0,0,0,0,0,0,0,0,0,0,0],"sum_hessian":[1.1E1,2E0,9E0,1E0,1E0,8E0,1E0,1E0,7E0,4E0,3E0,3E0,1E0,1E0,2E0],"tree_param":{"num_deleted":"0","num_feature":"6","num_nodes":"15","size_leaf_vector":"1"}},{"base_weights":[-2.885488E-1,-2.283081E0,3.3866578E-1,-2.7257845E-1,-6.988373E-2,1.1549886E-1,1.173584E-1,-3.8175967E-2,2.2537613E-1,4.057007E-2,4.0003967E-1,1.064148E-2,-1.1140442E-2,5.6372073E-2,1.5757244E-2],"categories":[],"categories_nodes":[],"categories_segments":[],"categories_sizes":[],"default_left":[0,0,0,0,0,0,0,0,0,0,0,0,0,0,0],"id":49,"left_children":[1,3,5,-1,-1,7,-1,-1,9,11,13,-1,-1,-1,-1],"loss_changes":[1.5785198E1,1.9917011E-1,1.7277135E0,0E0,0E0,5.7777613E-1,0E0,0E0,2.4200141E-1,6.1888672E-2,6.992233E-2,0E0,0E0,0E0,0E0],"parents":[2147483647,0,0,1,1,2,2,5,5,8,8,9,9,10,10],"right_children":[2,4,6,-1,-1,8,-1,-1,10,12,14,-1,-1,-1,-1],"split_conditions":[2.8467E2,2.4734E2,4.1053405E-1,-2.7257845E-1,-6.988373E-2,2.8889E2,1.173584E-1,-3.8175967E-2,3.4073E2,3.3585E2,3.4274E2,1.064148E-2,-1.1140442E-2,5.6372073E-2,1.5757244E-2],"split_indices":[0,0,5,0,0,0,0,0,0,0,0,0,0,0,0],"split_type":[0,0,0,0,0,0,0,0,0,0,0,0,0,0,0],"sum_hessian":[1.1E1,2E0,9E0,1E0,1E0,8E0,1E0,1E0,7E0,4E0,3E0,3E0,1E0,1E0,2E0],"tree_param":{"num_deleted":"0","num_feature":"6","num_nodes":"15","size_leaf_vector":"1"}},{"base_weights":[-2.7566528E-1,-2.168925E0,3.1987914E-1,-2.5894928E-1,-6.6389464E-2,1.07666016E-1,1.1148987E-1,-3.626709E-2,2.1179199E-1,3.640747E-2,3.7807465E-1,9.842682E-3,-1.0583497E-2,5.355377E-2,1.4707439E-2],"categories":[],"categories_nodes":[],"categories_segments":[],"categories_sizes":[],"default_left":[0,0,0,0,0,0,0,0,0,0,0,0,0,0,0],"id":50,"left_children":[1,3,5,-1,-1,7,-1,-1,9,11,13,-1,-1,-1,-1],"loss_changes":[1.4224037E1,1.7975235E-1,1.5670991E0,0E0,0E0,5.175794E-1,0E0,0E0,2.1954244E-1,5.4525916E-2,6.673217E-2,0E0,0E0,0E0,0E0],"parents":[2147483647,0,0,1,1,2,2,5,5,8,8,9,9,10,10],"right_children":[2,4,6,-1,-1,8,-1,-1,10,12,14,-1,-1,-1,-1],"split_conditions":[2.8467E2,2.4734E2,4.1053405E-1,-2.5894928E-1,-6.6389464E-2,2.8889E2,1.1148987E-1,-3.626709E-2,3.4073E2,3.3585E2,3.4274E2,9.842682E-3,-1.0583497E-2,5.355377E-2,1.4707439E-2],"split_indices":[0,0,5,0,0,0,0,0,0,0,0,0,0,0,0],"split_type":[0,0,0,0,0,0,0,0,0,0,0,0,0,0,0],"sum_hessian":[1.1E1,2E0,9E0,1E0,1E0,8E0,1E0,1E0,7E0,4E0,3E0,3E0,1E0,1E0,2E0],"tree_param":{"num_deleted":"0","num_feature":"6","num_nodes":"15","size_leaf_vector":"1"}},{"base_weights":[-2.6332092E-1,-2.0604858E0,3.0216065E-1,-2.460022E-1,-6.307068E-2,1.00365534E-1,1.0591584E-1,-8.767191E-2,3.5733032E-1,9.1033936E-2,-2.967224E-2,5.0875854E-2,1.3726807E-2,1.16780605E-2,6.896973E-4],"categories":[],"categories_nodes":[],"categories_segments":[],"categories_sizes":[],"default_left":[0,0,0,0,0,0,0,0,0,0,0,0,0,0,0],"id":51,"left_children":[1,3,5,-1,-1,7,-1,9,11,13,-1,-1,-1,-1,-1],"loss_changes":[1.2817761E1,1.6219234E-1,1.4212813E0,0E0,0E0,4.661989E-1,0E0,2.511631E-1,6.3458204E-2,7.85955E-3,0E0,0E0,0E0,0E0,0E0],"parents":[2147483647,0,0,1,1,2,2,5,5,7,7,8,8,9,9],"right_children":[2,4,6,-1,-1,8,-1,10,12,14,-1,-1,-1,-1,-1],"split_conditions":[2.8467E2,2.4734E2,4.1053405E-1,-2.460022E-1,-6.307068E-2,3.4073E2,1.0591584E-1,1.254056E8,3.4274E2,3.2769E2,-2.967224E-2,5.0875854E-2,1.3726807E-2,1.16780605E-2,6.896973E-4],"split_indices":[0,0,5,0,0,0,0,4,0,0,0,0,0,0,0],"split_type":[0,0,0,0,0,0,0,0,0,0,0,0,0,0,0],"sum_hessian":[1.1E1,2E0,9E0,1E0,1E0,8E0,1E0,5E0,3E0,3E0,2E0,1E0,2E0,2E0,1E0],"tree_param":{"num_deleted":"0","num_feature":"6","num_nodes":"15","size_leaf_vector":"1"}},{"base_weights":[-2.499822E-1,-1.9574585E0,2.8725892E-1,-2.337021E-1,-5.9916686E-2,9.5577665E-2,1.0061951E-1,-3.2971192E-2,1.8995285E-1,3.3728026E-2,3.3774567E-1,1.0898844E-2,-5.2775065E-3,4.8332214E-2,1.281128E-2],"categories":[],"categories_nodes":[],"categories_segments":[],"categories_sizes":[],"default_left":[0,0,0,0,0,0,0,0,0,0,0,0,0,0,0],"id":52,"left_children":[1,3,5,-1,-1,7,-1,-1,9,11,13,-1,-1,-1,-1],"loss_changes":[1.1570215E1,1.4640427E-1,1.281896E0,0E0,0E0,4.2386076E-1,0E0,0E0,1.7331976E-1,3.8303163E-2,6.0150713E-2,0E0,0E0,0E0,0E0],"parents":[2147483647,0,0,1,1,2,2,5,5,8,8,9,9,10,10],"right_children":[2,4,6,-1,-1,8,-1,-1,10,12,14,-1,-1,-1,-1],"split_conditions":[2.8467E2,2.4734E2,4.1053405E-1,-2.337021E-1,-5.9916686E-2,2.8889E2,1.0061951E-1,-3.2971192E-2,3.4073E2,3.2769E2,3.4274E2,1.0898844E-2,-5.2775065E-3,4.8332214E-2,1.281128E-2],"split_indices":[0,0,5,0,0,0,0,0,0,0,0,0,0,0,0],"split_type":[0,0,0,0,0,0,0,0,0,0,0,0,0,0,0],"sum_hessian":[1.1E1,2E0,9E0,1E0,1E0,8E0,1E0,1E0,7E0,4E0,3E0,2E0,2E0,1E0,2E0],"tree_param":{"num_deleted":"0","num_feature":"6","num_nodes":"15","size_leaf_vector":"1"}},{"base_weights":[-2.3825328E-1,-1.8595886E0,2.7197266E-1,-2.2201692E-1,-5.692139E-2,8.9772545E-2,9.5588684E-2,-3.1323243E-2,1.7930222E-1,3.1481933E-2,3.19252E-1,8.088685E-3,-8.306885E-3,4.5915224E-2,1.1956788E-2],"categories":[],"categories_nodes":[],"categories_segments":[],"categories_sizes":[],"default_left":[0,0,0,0,0,0,0,0,0,0,0,0,0,0,0],"id":53,"left_children":[1,3,5,-1,-1,7,-1,-1,9,11,13,-1,-1,-1,-1],"loss_changes":[1.0432726E1,1.321001E-1,1.16028E0,0E0,0E0,3.8089138E-1,0E0,0E0,1.5544868E-1,3.501603E-2,5.684355E-2,0E0,0E0,0E0,0E0],"parents":[2147483647,0,0,1,1,2,2,5,5,8,8,9,9,10,10],"right_children":[2,4,6,-1,-1,8,-1,-1,10,12,14,-1,-1,-1,-1],"split_conditions":[2.8467E2,2.4734E2,4.1053405E-1,-2.2201692E-1,-5.692139E-2,2.8889E2,9.5588684E-2,-3.1323243E-2,3.4073E2,3.3585E2,3.4274E2,8.088685E-3,-8.306885E-3,4.5915224E-2,1.1956788E-2],"split_indices":[0,0,5,0,0,0,0,0,0,0,0,0,0,0,0],"split_type":[0,0,0,0,0,0,0,0,0,0,0,0,0,0,0],"sum_hessian":[1.1E1,2E0,9E0,1E0,1E0,8E0,1E0,1E0,7E0,4E0,3E0,3E0,1E0,1E0,2E0],"tree_param":{"num_deleted":"0","num_feature":"6","num_nodes":"15","size_leaf_vector":"1"}},{"base_weights":[-2.2751617E-1,-1.7666117E0,2.5696412E-1,-2.1091615E-1,-5.4075625E-2,8.37165E-2,9.0809636E-2,-2.9757692E-2,1.6857529E-1,2.8289795E-2,3.0178833E-1,9.633383E-3,-4.9184165E-3,4.3618776E-2,1.1159262E-2],"categories":[],"categories_nodes":[],"categories_segments":[],"categories_sizes":[],"default_left":[0,0,0,0,0,0,0,0,0,0,0,0,0,0,0],"id":54,"left_children":[1,3,5,-1,-1,7,-1,-1,9,11,13,-1,-1,-1,-1],"loss_changes":[9.401894E0,1.1920738E-1,1.0520482E0,0E0,0E0,3.4136897E-1,0E0,0E0,1.4096531E-1,3.1096298E-2,5.357346E-2,0E0,0E0,0E0,0E0],"parents":[2147483647,0,0,1,1,2,2,5,5,8,8,9,9,10,10],"right_children":[2,4,6,-1,-1,8,-1,-1,10,12,14,-1,-1,-1,-1],"split_conditions":[2.8467E2,2.4734E2,4.1053405E-1,-2.1091615E-1,-5.4075625E-2,2.8889E2,9.0809636E-2,-2.9757692E-2,3.4073E2,3.2769E2,3.4274E2,9.633383E-3,-4.9184165E-3,4.3618776E-2,1.1159262E-2],"split_indices":[0,0,5,0,0,0,0,0,0,0,0,0,0,0,0],"split_type":[0,0,0,0,0,0,0,0,0,0,0,0,0,0,0],"sum_hessian":[1.1E1,2E0,9E0,1E0,1E0,8E0,1E0,1E0,7E0,4E0,3E0,2E0,2E0,1E0,2E0],"tree_param":{"num_deleted":"0","num_feature":"6","num_nodes":"15","size_leaf_vector":"1"}},{"base_weights":[-2.1680577E-1,-1.6782786E0,2.4331665E-1,-2.0037003E-1,-5.1371764E-2,7.86438E-2,8.626862E-2,-2.826996E-2,1.5914917E-1,2.6397705E-2,2.853012E-1,7.122803E-3,-7.6461793E-3,4.1438293E-2,1.0414633E-2],"categories":[],"categories_nodes":[],"categories_segments":[],"categories_sizes":[],"default_left":[0,0,0,0,0,0,0,0,0,0,0,0,0,0,0],"id":55,"left_children":[1,3,5,-1,-1,7,-1,-1,9,11,13,-1,-1,-1,-1],"loss_changes":[8.477829E0,1.0758495E-1,9.520885E-1,0E0,0E0,3.0680215E-1,0E0,0E0,1.2644365E-1,2.8502345E-2,5.037868E-2,0E0,0E0,0E0,0E0],"parents":[2147483647,0,0,1,1,2,2,5,5,8,8,9,9,10,10],"right_children":[2,4,6,-1,-1,8,-1,-1,10,12,14,-1,-1,-1,-1],"split_conditions":[2.8467E2,2.4734E2,4.1053405E-1,-2.0037003E-1,-5.1371764E-2,2.8889E2,8.626862E-2,-2.826996E-2,3.4073E2,3.3585E2,3.4274E2,7.122803E-3,-7.6461793E-3,4.1438293E-2,1.0414633E-2],"split_indices":[0,0,5,0,0,0,0,0,0,0,0,0,0,0,0],"split_type":[0,0,0,0,0,0,0,0,0,0,0,0,0,0,0],"sum_hessian":[1.1E1,2E0,9E0,1E0,1E0,8E0,1E0,1E0,7E0,4E0,3E0,3E0,1E0,1E0,2E0],"tree_param":{"num_deleted":"0","num_feature":"6","num_nodes":"15","size_leaf_vector":"1"}},{"base_weights":[-2.0699055E-1,-1.5943705E0,2.2992249E-1,-1.9035187E-1,-4.8803713E-2,7.33473E-2,8.1954956E-2,-2.6856994E-2,1.496582E-1,2.366333E-2,2.6973724E-1,8.516439E-3,-4.5725508E-3,3.9366152E-2,9.720866E-3],"categories":[],"categories_nodes":[],"categories_segments":[],"categories_sizes":[],"default_left":[0,0,0,0,0,0,0,0,0,0,0,0,0,0,0],"id":56,"left_children":[1,3,5,-1,-1,7,-1,-1,9,11,13,-1,-1,-1,-1],"loss_changes":[7.6405544E0,9.707451E-2,8.630979E-1,0E0,0E0,2.7502182E-1,0E0,0E0,1.1465189E-1,2.5231618E-2,4.7254592E-2,0E0,0E0,0E0,0E0],"parents":[2147483647,0,0,1,1,2,2,5,5,8,8,9,9,10,10],"right_children":[2,4,6,-1,-1,8,-1,-1,10,12,14,-1,-1,-1,-1],"split_conditions":[2.8467E2,2.4734E2,4.1053405E-1,-1.9035187E-1,-4.8803713E-2,2.8889E2,8.1954956E-2,-2.6856994E-2,3.4073E2,3.2769E2,3.4274E2,8.516439E-3,-4.5725508E-3,3.9366152E-2,9.720866E-3],"split_indices":[0,0,5,0,0,0,0,0,0,0,0,0,0,0,0],"split_type":[0,0,0,0,0,0,0,0,0,0,0,0,0,0,0],"sum_hessian":[1.1E1,2E0,9E0,1E0,1E0,8E0,1E0,1E0,7E0,4E0,3E0,2E0,2E0,1E0,2E0],"tree_param":{"num_deleted":"0","num_feature":"6","num_nodes":"15","size_leaf_vector":"1"}},{"base_weights":[-1.9721349E-1,-1.5146536E0,2.1773987E-1,-1.808342E-1,-4.636383E-2,6.891886E-2,7.7856444E-2,-2.551422E-2,1.4131927E-1,2.2088623E-2,2.5502777E-1,6.278229E-3,-7.0343018E-3,3.739777E-2,9.0718595E-3],"categories":[],"categories_nodes":[],"categories_segments":[],"categories_sizes":[],"default_left":[0,0,0,0,0,0,0,0,0,0,0,0,0,0,0],"id":57,"left_children":[1,3,5,-1,-1,7,-1,-1,9,11,13,-1,-1,-1,-1],"loss_changes":[6.8899145E0,8.759689E-2,7.8096706E-1,0E0,0E0,2.4721591E-1,0E0,0E0,1.0282709E-1,2.3223206E-2,4.42515E-2,0E0,0E0,0E0,0E0],"parents":[2147483647,0,0,1,1,2,2,5,5,8,8,9,9,10,10],"right_children":[2,4,6,-1,-1,8,-1,-1,10,12,14,-1,-1,-1,-1],"split_conditions":[2.8467E2,2.4734E2,4.1053405E-1,-1.808342E-1,-4.636383E-2,2.8889E2,7.7856444E-2,-2.551422E-2,3.4073E2,3.3585E2,3.4274E2,6.278229E-3,-7.0343018E-3,3.739777E-2,9.0718595E-3],"split_indices":[0,0,5,0,0,0,0,0,0,0,0,0,0,0,0],"split_type":[0,0,0,0,0,0,0,0,0,0,0,0,0,0,0],"sum_hessian":[1.1E1,2E0,9E0,1E0,1E0,8E0,1E0,1E0,7E0,4E0,3E0,3E0,1E0,1E0,2E0],"tree_param":{"num_deleted":"0","num_feature":"6","num_nodes":"15","size_leaf_vector":"1"}},{"base_weights":[-1.8825531E-1,-1.4389242E0,2.0577088E-1,-1.7179261E-1,-4.4046022E-2,6.427002E-2,7.396393E-2,-2.4238586E-2,1.3290024E-1,1.972046E-2,2.411499E-1,5.8067325E-3,-6.6833496E-3,3.5528567E-2,8.467611E-3],"categories":[],"categories_nodes":[],"categories_segments":[],"categories_sizes":[],"default_left":[0,0,0,0,0,0,0,0,0,0,0,0,0,0,0],"id":58,"left_children":[1,3,5,-1,-1,7,-1,-1,9,11,13,-1,-1,-1,-1],"loss_changes":[6.2096443E0,7.904196E-2,7.078918E-1,0E0,0E0,2.216259E-1,0E0,0E0,9.32578E-2,2.0476205E-2,4.1352794E-2,0E0,0E0,0E0,0E0],"parents":[2147483647,0,0,1,1,2,2,5,5,8,8,9,9,10,10],"right_children":[2,4,6,-1,-1,8,-1,-1,10,12,14,-1,-1,-1,-1],"split_conditions":[2.8467E2,2.4734E2,4.1053405E-1,-1.7179261E-1,-4.4046022E-2,2.8889E2,7.396393E-2,-2.4238586E-2,3.4073E2,3.3585E2,3.4274E2,5.8067325E-3,-6.6833496E-3,3.5528567E-2,8.467611E-3],"split_indices":[0,0,5,0,0,0,0,0,0,0,0,0,0,0,0],"split_type":[0,0,0,0,0,0,0,0,0,0,0,0,0,0,0],"sum_hessian":[1.1E1,2E0,9E0,1E0,1E0,8E0,1E0,1E0,7E0,4E0,3E0,3E0,1E0,1E0,2E0],"tree_param":{"num_deleted":"0","num_feature":"6","num_nodes":"15","size_leaf_vector":"1"}},{"base_weights":[-1.7967606E-1,-1.366979E0,1.9448242E-1,-1.6320267E-1,-4.1844178E-2,5.9946697E-2,7.0265196E-2,-6.2108357E-2,2.280426E-1,5.3718567E-2,-1.9584147E-2,3.375244E-2,7.904053E-3,7.143148E-3,2.8991699E-5],"categories":[],"categories_nodes":[],"categories_segments":[],"categories_sizes":[],"default_left":[0,0,0,0,0,0,0,0,0,0,0,0,0,0,0],"id":59,"left_children":[1,3,5,-1,-1,7,-1,9,11,13,-1,-1,-1,-1,-1],"loss_changes":[5.5967264E0,7.1314335E-2,6.415479E-1,0E0,0E0,1.9881594E-1,0E0,1.03459686E-1,3.8573965E-2,3.7647989E-3,0E0,0E0,0E0,0E0,0E0],"parents":[2147483647,0,0,1,1,2,2,5,5,7,7,8,8,9,9],"right_children":[2,4,6,-1,-1,8,-1,10,12,14,-1,-1,-1,-1,-1],"split_conditions":[2.8467E2,2.4734E2,4.1053405E-1,-1.6320267E-1,-4.1844178E-2,3.4073E2,7.0265196E-2,1.254056E8,3.4274E2,3.2769E2,-1.9584147E-2,3.375244E-2,7.904053E-3,7.143148E-3,2.8991699E-5],"split_indices":[0,0,5,0,0,0,0,4,0,0,0,0,0,0,0],"split_type":[0,0,0,0,0,0,0,0,0,0,0,0,0,0,0],"sum_hessian":[1.1E1,2E0,9E0,1E0,1E0,8E0,1E0,5E0,3E0,3E0,2E0,1E0,2E0,2E0,1E0],"tree_param":{"num_deleted":"0","num_feature":"6","num_nodes":"15","size_leaf_vector":"1"}},{"base_weights":[-1.7050044E-1,-1.2986298E0,1.8498841E-1,-1.5504228E-1,-3.9752197E-2,5.7203505E-2,6.675263E-2,-2.2047425E-2,1.194725E-1,1.8634032E-2,2.1565247E-1,6.667074E-3,-3.5614015E-3,3.206482E-2,7.3771155E-3],"categories":[],"categories_nodes":[],"categories_segments":[],"categories_sizes":[],"default_left":[0,0,0,0,0,0,0,0,0,0,0,0,0,0,0],"id":60,"left_children":[1,3,5,-1,-1,7,-1,-1,9,11,13,-1,-1,-1,-1],"loss_changes":[5.05268E0,6.4350605E-2,5.7842565E-1,0E0,0E0,1.8195705E-1,0E0,0E0,7.3570654E-2,1.5403898E-2,3.5933122E-2,0E0,0E0,0E0,0E0],"parents":[2147483647,0,0,1,1,2,2,5,5,8,8,9,9,10,10],"right_children":[2,4,6,-1,-1,8,-1,-1,10,12,14,-1,-1,-1,-1],"split_conditions":[2.8467E2,2.4734E2,4.1053405E-1,-1.5504228E-1,-3.9752197E-2,2.8889E2,6.675263E-2,-2.2047425E-2,3.4073E2,3.2769E2,3.4274E2,6.667074E-3,-3.5614015E-3,3.206482E-2,7.3771155E-3],"split_indices":[0,0,5,0,0,0,0,0,0,0,0,0,0,0,0],"split_type":[0,0,0,0,0,0,0,0,0,0,0,0,0,0,0],"sum_hessian":[1.1E1,2E0,9E0,1E0,1E0,8E0,1E0,1E0,7E0,4E0,3E0,2E0,2E0,1E0,2E0],"tree_param":{"num_deleted":"0","num_feature":"6","num_nodes":"15","size_leaf_vector":"1"}},{"base_weights":[-1.6240947E-1,-1.2336935E0,1.7521667E-1,-1.4729004E-1,-3.776398E-2,5.37618E-2,6.341553E-2,-2.094574E-2,1.12846375E-1,1.7401123E-2,2.0394135E-1,6.2235515E-3,-3.3233643E-3,3.0461121E-2,6.884766E-3],"categories":[],"categories_nodes":[],"categories_segments":[],"categories_sizes":[],"default_left":[0,0,0,0,0,0,0,0,0,0,0,0,0,0,0],"id":61,"left_children":[1,3,5,-1,-1,7,-1,-1,9,11,13,-1,-1,-1,-1],"loss_changes":[4.556485E0,5.8095932E-2,5.2330995E-1,0E0,0E0,1.6360626E-1,0E0,0E0,6.600786E-2,1.3419207E-2,3.3427685E-2,0E0,0E0,0E0,0E0],"parents":[2147483647,0,0,1,1,2,2,5,5,8,8,9,9,10,10],"right_children":[2,4,6,-1,-1,8,-1,-1,10,12,14,-1,-1,-1,-1],"split_conditions":[2.8467E2,2.4734E2,4.1053405E-1,-1.4729004E-1,-3.776398E-2,2.8889E2,6.341553E-2,-2.094574E-2,3.4073E2,3.2769E2,3.4274E2,6.2235515E-3,-3.3233643E-3,3.0461121E-2,6.884766E-3],"split_indices":[0,0,5,0,0,0,0,0,0,0,0,0,0,0,0],"split_type":[0,0,0,0,0,0,0,0,0,0,0,0,0,0,0],"sum_hessian":[1.1E1,2E0,9E0,1E0,1E0,8E0,1E0,1E0,7E0,4E0,3E0,2E0,2E0,1E0,2E0],"tree_param":{"num_deleted":"0","num_feature":"6","num_nodes":"15","size_leaf_vector":"1"}},{"base_weights":[-1.5469997E-1,-1.1720123E0,1.6596374E-1,-1.3992539E-1,-3.5876464E-2,5.0526936E-2,6.024475E-2,-1.9898986E-2,1.0659027E-1,1.6241455E-2,1.9287872E-1,4.5425417E-3,-5.0247195E-3,2.8938293E-2,6.424967E-3],"categories":[],"categories_nodes":[],"categories_segments":[],"categories_sizes":[],"default_left":[0,0,0,0,0,0,0,0,0,0,0,0,0,0,0],"id":62,"left_children":[1,3,5,-1,-1,7,-1,-1,9,11,13,-1,-1,-1,-1],"loss_changes":[4.1090937E0,5.240822E-2,4.734231E-1,0E0,0E0,1.4710908E-1,0E0,0E0,5.923585E-2,1.198451E-2,3.1060219E-2,0E0,0E0,0E0,0E0],"parents":[2147483647,0,0,1,1,2,2,5,5,8,8,9,9,10,10],"right_children":[2,4,6,-1,-1,8,-1,-1,10,12,14,-1,-1,-1,-1],"split_conditions":[2.8467E2,2.4734E2,4.1053405E-1,-1.3992539E-1,-3.5876464E-2,2.8889E2,6.024475E-2,-1.9898986E-2,3.4073E2,3.3585E2,3.4274E2,4.5425417E-3,-5.0247195E-3,2.8938293E-2,6.424967E-3],"split_indices":[0,0,5,0,0,0,0,0,0,0,0,0,0,0,0],"split_type":[0,0,0,0,0,0,0,0,0,0,0,0,0,0,0],"sum_hessian":[1.1E1,2E0,9E0,1E0,1E0,8E0,1E0,1E0,7E0,4E0,3E0,3E0,1E0,1E0,2E0],"tree_param":{"num_deleted":"0","num_feature":"6","num_nodes":"15","size_leaf_vector":"1"}},{"base_weights":[-1.4761226E-1,-1.1134084E0,1.5688781E-1,-1.3292924E-1,-3.4082033E-2,4.7136094E-2,5.7232667E-2,-1.8904114E-2,1.0028839E-1,1.4520263E-2,1.8242645E-1,5.5053714E-3,-3.085327E-3,2.7491761E-2,5.9956866E-3],"categories":[],"categories_nodes":[],"categories_segments":[],"categories_sizes":[],"default_left":[0,0,0,0,0,0,0,0,0,0,0,0,0,0,0],"id":63,"left_children":[1,3,5,-1,-1,7,-1,-1,9,11,13,-1,-1,-1,-1],"loss_changes":[3.7037003E0,4.731798E-2,4.28974E-1,0E0,0E0,1.3193889E-1,0E0,0E0,5.3709753E-2,1.0894316E-2,2.8826207E-2,0E0,0E0,0E0,0E0],"parents":[2147483647,0,0,1,1,2,2,5,5,8,8,9,9,10,10],"right_children":[2,4,6,-1,-1,8,-1,-1,10,12,14,-1,-1,-1,-1],"split_conditions":[2.8467E2,2.4734E2,4.1053405E-1,-1.3292924E-1,-3.4082033E-2,2.8889E2,5.7232667E-2,-1.8904114E-2,3.4073E2,3.2769E2,3.4274E2,5.5053714E-3,-3.085327E-3,2.7491761E-2,5.9956866E-3],"split_indices":[0,0,5,0,0,0,0,0,0,0,0,0,0,0,0],"split_type":[0,0,0,0,0,0,0,0,0,0,0,0,0,0,0],"sum_hessian":[1.1E1,2E0,9E0,1E0,1E0,8E0,1E0,1E0,7E0,4E0,3E0,2E0,2E0,1E0,2E0],"tree_param":{"num_deleted":"0","num_feature":"6","num_nodes":"15","size_leaf_vector":"1"}},{"base_weights":[-1.4057796E-1,-1.0577341E0,1.4862671E-1,-1.262825E-1,-3.2377627E-2,4.4314913E-2,5.4371644E-2,-1.7959595E-2,9.4753265E-2,1.3555909E-2,1.7256165E-1,6.880188E-3,-1.7456055E-3,2.6116943E-2,5.596924E-3],"categories":[],"categories_nodes":[],"categories_segments":[],"categories_sizes":[],"default_left":[0,0,0,0,0,0,0,0,0,0,0,0,0,0,0],"id":64,"left_children":[1,3,5,-1,-1,7,-1,-1,9,11,13,-1,-1,-1,-1],"loss_changes":[3.3401575E0,4.2711735E-2,3.8803047E-1,0E0,0E0,1.1866056E-1,0E0,0E0,4.8203446E-2,9.767439E-3,2.6706524E-2,0E0,0E0,0E0,0E0],"parents":[2147483647,0,0,1,1,2,2,5,5,8,8,9,9,10,10],"right_children":[2,4,6,-1,-1,8,-1,-1,10,12,14,-1,-1,-1,-1],"split_conditions":[2.8467E2,2.4734E2,4.1053405E-1,-1.262825E-1,-3.2377627E-2,2.8889E2,5.4371644E-2,-1.7959595E-2,3.4073E2,1.173092E8,3.4274E2,6.880188E-3,-1.7456055E-3,2.6116943E-2,5.596924E-3],"split_indices":[0,0,5,0,0,0,0,0,0,4,0,0,0,0,0],"split_type":[0,0,0,0,0,0,0,0,0,0,0,0,0,0,0],"sum_hessian":[1.1E1,2E0,9E0,1E0,1E0,8E0,1E0,1E0,7E0,4E0,3E0,1E0,3E0,1E0,2E0],"tree_param":{"num_deleted":"0","num_feature":"6","num_nodes":"15","size_leaf_vector":"1"}},{"base_weights":[-1.3363521E-1,-1.0048472E0,1.4109191E-1,-1.19968414E-1,-3.0758668E-2,4.1985407E-2,5.165253E-2,-1.7060852E-2,8.988571E-2,1.3226318E-2,1.6323853E-1,3.91922E-3,-4.5318604E-3,2.4810791E-2,5.2246093E-3],"categories":[],"categories_nodes":[],"categories_segments":[],"categories_sizes":[],"default_left":[0,0,0,0,0,0,0,0,0,0,0,0,0,0,0],"id":65,"left_children":[1,3,5,-1,-1,7,-1,-1,9,11,13,-1,-1,-1,-1],"loss_changes":[3.0139227E0,3.8549423E-2,3.5039237E-1,0E0,0E0,1.0698509E-1,0E0,0E0,4.2826407E-2,9.376988E-3,2.4716765E-2,0E0,0E0,0E0,0E0],"parents":[2147483647,0,0,1,1,2,2,5,5,8,8,9,9,10,10],"right_children":[2,4,6,-1,-1,8,-1,-1,10,12,14,-1,-1,-1,-1],"split_conditions":[2.8467E2,2.4734E2,4.1053405E-1,-1.19968414E-1,-3.0758668E-2,2.8889E2,5.165253E-2,-1.7060852E-2,3.4073E2,3.3585E2,3.4274E2,3.91922E-3,-4.5318604E-3,2.4810791E-2,5.2246093E-3],"split_indices":[0,0,5,0,0,0,0,0,0,0,0,0,0,0,0],"split_type":[0,0,0,0,0,0,0,0,0,0,0,0,0,0,0],"sum_hessian":[1.1E1,2E0,9E0,1E0,1E0,8E0,1E0,1E0,7E0,4E0,3E0,3E0,1E0,1E0,2E0],"tree_param":{"num_deleted":"0","num_feature":"6","num_nodes":"15","size_leaf_vector":"1"}},{"base_weights":[-1.2749608E-1,-9.546051E-1,1.3338622E-1,-1.1397018E-1,-2.9220581E-2,3.9164227E-2,4.9069215E-2,-1.6207887E-2,8.457947E-2,1.1785889E-2,1.5442657E-1,6.341553E-3,-1.6975403E-3,2.3570253E-2,4.876709E-3],"categories":[],"categories_nodes":[],"categories_segments":[],"categories_sizes":[],"default_left":[0,0,0,0,0,0,0,0,0,0,0,0,0,0,0],"id":66,"left_children":[1,3,5,-1,-1,7,-1,-1,9,11,13,-1,-1,-1,-1],"loss_changes":[2.7166684E0,3.4796476E-2,3.174432E-1,0E0,0E0,9.5964074E-2,0E0,0E0,3.8855314E-2,8.5011795E-3,2.2855766E-2,0E0,0E0,0E0,0E0],"parents":[2147483647,0,0,1,1,2,2,5,5,8,8,9,9,10,10],"right_children":[2,4,6,-1,-1,8,-1,-1,10,12,14,-1,-1,-1,-1],"split_conditions":[2.8467E2,2.4734E2,4.1053405E-1,-1.1397018E-1,-2.9220581E-2,2.8889E2,4.9069215E-2,-1.6207887E-2,3.4073E2,1.173092E8,3.4274E2,6.341553E-3,-1.6975403E-3,2.3570253E-2,4.876709E-3],"split_indices":[0,0,5,0,0,0,0,0,0,4,0,0,0,0,0],"split_type":[0,0,0,0,0,0,0,0,0,0,0,0,0,0,0],"sum_hessian":[1.1E1,2E0,9E0,1E0,1E0,8E0,1E0,1E0,7E0,4E0,3E0,1E0,3E0,1E0,2E0],"tree_param":{"num_deleted":"0","num_feature":"6","num_nodes":"15","size_leaf_vector":"1"}},{"base_weights":[-1.2118276E-1,-9.068807E-1,1.266449E-1,-1.0827179E-1,-2.7760316E-2,3.712633E-2,4.66156E-2,-1.5397645E-2,8.026123E-2,1.1541748E-2,1.4609528E-1,3.5530091E-3,-4.220581E-3,2.2392273E-2,4.5511886E-3],"categories":[],"categories_nodes":[],"categories_segments":[],"categories_sizes":[],"default_left":[0,0,0,0,0,0,0,0,0,0,0,0,0,0,0],"id":67,"left_children":[1,3,5,-1,-1,7,-1,-1,9,11,13,-1,-1,-1,-1],"loss_changes":[2.451464E0,3.138542E-2,2.8661883E-1,0E0,0E0,8.654714E-2,0E0,0E0,3.4506455E-2,7.94615E-3,2.1121457E-2,0E0,0E0,0E0,0E0],"parents":[2147483647,0,0,1,1,2,2,5,5,8,8,9,9,10,10],"right_children":[2,4,6,-1,-1,8,-1,-1,10,12,14,-1,-1,-1,-1],"split_conditions":[2.8467E2,2.4734E2,4.1053405E-1,-1.0827179E-1,-2.7760316E-2,2.8889E2,4.66156E-2,-1.5397645E-2,3.4073E2,3.3585E2,3.4274E2,3.5530091E-3,-4.220581E-3,2.2392273E-2,4.5511886E-3],"split_indices":[0,0,5,0,0,0,0,0,0,0,0,0,0,0,0],"split_type":[0,0,0,0,0,0,0,0,0,0,0,0,0,0,0],"sum_hessian":[1.1E1,2E0,9E0,1E0,1E0,8E0,1E0,1E0,7E0,4E0,3E0,3E0,1E0,1E0,2E0],"tree_param":{"num_deleted":"0","num_feature":"6","num_nodes":"15","size_leaf_vector":"1"}},{"base_weights":[-1.15605675E-1,-8.6153156E-1,1.1973266E-1,-1.0285797E-1,-2.6371766E-2,3.4627277E-2,4.4284057E-2,-1.4627076E-2,7.552338E-2,1.026001E-2,1.3822174E-1,5.847168E-3,-1.6410828E-3,2.1272277E-2,4.248047E-3],"categories":[],"categories_nodes":[],"categories_segments":[],"categories_sizes":[],"default_left":[0,0,0,0,0,0,0,0,0,0,0,0,0,0,0],"id":68,"left_children":[1,3,5,-1,-1,7,-1,-1,9,11,13,-1,-1,-1,-1],"loss_changes":[2.2096932E0,2.8336287E-2,2.5964785E-1,0E0,0E0,7.7629074E-2,0E0,0E0,3.1317096E-2,7.3887967E-3,1.9494735E-2,0E0,0E0,0E0,0E0],"parents":[2147483647,0,0,1,1,2,2,5,5,8,8,9,9,10,10],"right_children":[2,4,6,-1,-1,8,-1,-1,10,12,14,-1,-1,-1,-1],"split_conditions":[2.8467E2,2.4734E2,4.1053405E-1,-1.0285797E-1,-2.6371766E-2,2.8889E2,4.4284057E-2,-1.4627076E-2,3.4073E2,1.173092E8,3.4274E2,5.847168E-3,-1.6410828E-3,2.1272277E-2,4.248047E-3],"split_indices":[0,0,5,0,0,0,0,0,0,4,0,0,0,0,0],"split_type":[0,0,0,0,0,0,0,0,0,0,0,0,0,0,0],"sum_hessian":[1.1E1,2E0,9E0,1E0,1E0,8E0,1E0,1E0,7E0,4E0,3E0,1E0,3E0,1E0,2E0],"tree_param":{"num_deleted":"0","num_feature":"6","num_nodes":"15","size_leaf_vector":"1"}},{"base_weights":[-1.09864555E-1,-8.18456E-1,1.1369934E-1,-9.7715E-2,-2.5053406E-2,3.2843694E-2,4.207001E-2,-1.3896179E-2,7.1689606E-2,1.0076905E-2,1.3078308E-1,3.2234192E-3,-3.927612E-3,2.020874E-2,3.9652507E-3],"categories":[],"categories_nodes":[],"categories_segments":[],"categories_sizes":[],"default_left":[0,0,0,0,0,0,0,0,0,0,0,0,0,0,0],"id":69,"left_children":[1,3,5,-1,-1,7,-1,-1,9,11,13,-1,-1,-1,-1],"loss_changes":[1.9940436E0,2.556777E-2,2.3441008E-1,0E0,0E0,7.002758E-2,0E0,0E0,2.7809378E-2,6.73368E-3,1.7978743E-2,0E0,0E0,0E0,0E0],"parents":[2147483647,0,0,1,1,2,2,5,5,8,8,9,9,10,10],"right_children":[2,4,6,-1,-1,8,-1,-1,10,12,14,-1,-1,-1,-1],"split_conditions":[2.8467E2,2.4734E2,4.1053405E-1,-9.7715E-2,-2.5053406E-2,2.8889E2,4.207001E-2,-1.3896179E-2,3.4073E2,3.3585E2,3.4274E2,3.2234192E-3,-3.927612E-3,2.020874E-2,3.9652507E-3],"split_indices":[0,0,5,0,0,0,0,0,0,0,0,0,0,0,0],"split_type":[0,0,0,0,0,0,0,0,0,0,0,0,0,0,0],"sum_hessian":[1.1E1,2E0,9E0,1E0,1E0,8E0,1E0,1E0,7E0,4E0,3E0,3E0,1E0,1E0,2E0],"tree_param":{"num_deleted":"0","num_feature":"6","num_nodes":"15","size_leaf_vector":"1"}},{"base_weights":[-1.0480881E-1,-7.775319E-1,1.0748901E-1,-9.282913E-2,-2.380066E-2,3.0619303E-2,3.996582E-2,-1.32019045E-2,6.745148E-2,8.92334E-3,1.2374878E-1,5.392456E-3,-1.5808105E-3,1.919861E-2,3.7007648E-3],"categories":[],"categories_nodes":[],"categories_segments":[],"categories_sizes":[],"default_left":[0,0,0,0,0,0,0,0,0,0,0,0,0,0,0],"id":70,"left_children":[1,3,5,-1,-1,7,-1,-1,9,11,13,-1,-1,-1,-1],"loss_changes":[1.797388E0,2.3076057E-2,2.1235235E-1,0E0,0E0,6.28178E-2,0E0,0E0,2.5255557E-2,6.417171E-3,1.6570967E-2,0E0,0E0,0E0,0E0],"parents":[2147483647,0,0,1,1,2,2,5,5,8,8,9,9,10,10],"right_children":[2,4,6,-1,-1,8,-1,-1,10,12,14,-1,-1,-1,-1],"split_conditions":[2.8467E2,2.4734E2,4.1053405E-1,-9.282913E-2,-2.380066E-2,2.8889E2,3.996582E-2,-1.32019045E-2,3.4073E2,1.173092E8,3.4274E2,5.392456E-3,-1.5808105E-3,1.919861E-2,3.7007648E-3],"split_indices":[0,0,5,0,0,0,0,0,0,4,0,0,0,0,0],"split_type":[0,0,0,0,0,0,0,0,0,0,0,0,0,0,0],"sum_hessian":[1.1E1,2E0,9E0,1E0,1E0,8E0,1E0,1E0,7E0,4E0,3E0,1E0,3E0,1E0,2E0],"tree_param":{"num_deleted":"0","num_feature":"6","num_nodes":"15","size_leaf_vector":"1"}},{"base_weights":[-9.958776E-2,-7.386525E-1,1.02090456E-1,-8.818741E-2,-2.2610474E-2,2.9062906E-2,3.796692E-2,-1.2541199E-2,6.404877E-2,8.795166E-3,1.1710358E-1,5.1223757E-3,-1.461792E-3,1.8238831E-2,3.45459E-3],"categories":[],"categories_nodes":[],"categories_segments":[],"categories_sizes":[],"default_left":[0,0,0,0,0,0,0,0,0,0,0,0,0,0,0],"id":71,"left_children":[1,3,5,-1,-1,7,-1,-1,9,11,13,-1,-1,-1,-1],"loss_changes":[1.6220345E0,2.082777E-2,1.9167466E-1,0E0,0E0,5.6672417E-2,0E0,0E0,2.242181E-2,5.715706E-3,1.5258253E-2,0E0,0E0,0E0,0E0],"parents":[2147483647,0,0,1,1,2,2,5,5,8,8,9,9,10,10],"right_children":[2,4,6,-1,-1,8,-1,-1,10,12,14,-1,-1,-1,-1],"split_conditions":[2.8467E2,2.4734E2,4.1053405E-1,-8.818741E-2,-2.2610474E-2,2.8889E2,3.796692E-2,-1.2541199E-2,3.4073E2,1.173092E8,3.4274E2,5.1223757E-3,-1.461792E-3,1.8238831E-2,3.45459E-3],"split_indices":[0,0,5,0,0,0,0,0,0,4,0,0,0,0,0],"split_type":[0,0,0,0,0,0,0,0,0,0,0,0,0,0,0],"sum_hessian":[1.1E1,2E0,9E0,1E0,1E0,8E0,1E0,1E0,7E0,4E0,3E0,1E0,3E0,1E0,2E0],"tree_param":{"num_deleted":"0","num_feature":"6","num_nodes":"15","size_leaf_vector":"1"}},{"base_weights":[-9.462992E-2,-7.017212E-1,9.696045E-2,-8.377838E-2,-2.1479798E-2,2.7581109E-2,3.6068726E-2,-1.1914062E-2,6.0813904E-2,8.648681E-3,1.10816956E-1,2.8701783E-3,-3.578186E-3,1.7326355E-2,3.2246907E-3],"categories":[],"categories_nodes":[],"categories_segments":[],"categories_sizes":[],"default_left":[0,0,0,0,0,0,0,0,0,0,0,0,0,0,0],"id":72,"left_children":[1,3,5,-1,-1,7,-1,-1,9,11,13,-1,-1,-1,-1],"loss_changes":[1.4637933E0,1.8801928E-2,1.7302378E-1,0E0,0E0,5.1129166E-2,0E0,0E0,1.9908942E-2,5.4818536E-3,1.4038514E-2,0E0,0E0,0E0,0E0],"parents":[2147483647,0,0,1,1,2,2,5,5,8,8,9,9,10,10],"right_children":[2,4,6,-1,-1,8,-1,-1,10,12,14,-1,-1,-1,-1],"split_conditions":[2.8467E2,2.4734E2,4.1053405E-1,-8.377838E-2,-2.1479798E-2,2.8889E2,3.6068726E-2,-1.1914062E-2,3.4073E2,3.3585E2,3.4274E2,2.8701783E-3,-3.578186E-3,1.7326355E-2,3.2246907E-3],"split_indices":[0,0,5,0,0,0,0,0,0,0,0,0,0,0,0],"split_type":[0,0,0,0,0,0,0,0,0,0,0,0,0,0,0],"sum_hessian":[1.1E1,2E0,9E0,1E0,1E0,8E0,1E0,1E0,7E0,4E0,3E0,3E0,1E0,1E0,2E0],"tree_param":{"num_deleted":"0","num_feature":"6","num_nodes":"15","size_leaf_vector":"1"}},{"base_weights":[-9.0276085E-2,-6.6663617E-1,9.1659546E-2,-7.9589844E-2,-2.040558E-2,2.569919E-2,3.426514E-2,-1.131897E-2,5.7209015E-2,7.6416014E-3,1.0486603E-1,4.722595E-3,-1.4060974E-3,1.6459657E-2,3.0090332E-3],"categories":[],"categories_nodes":[],"categories_segments":[],"categories_sizes":[],"default_left":[0,0,0,0,0,0,0,0,0,0,0,0,0,0,0],"id":73,"left_children":[1,3,5,-1,-1,7,-1,-1,9,11,13,-1,-1,-1,-1],"loss_changes":[1.3194288E0,1.6974926E-2,1.5674923E-1,0E0,0E0,4.586275E-2,0E0,0E0,1.8096533E-2,4.9594548E-3,1.2912802E-2,0E0,0E0,0E0,0E0],"parents":[2147483647,0,0,1,1,2,2,5,5,8,8,9,9,10,10],"right_children":[2,4,6,-1,-1,8,-1,-1,10,12,14,-1,-1,-1,-1],"split_conditions":[2.8467E2,2.4734E2,4.1053405E-1,-7.9589844E-2,-2.040558E-2,2.8889E2,3.426514E-2,-1.131897E-2,3.4073E2,1.173092E8,3.4274E2,4.722595E-3,-1.4060974E-3,1.6459657E-2,3.0090332E-3],"split_indices":[0,0,5,0,0,0,0,0,0,4,0,0,0,0,0],"split_type":[0,0,0,0,0,0,0,0,0,0,0,0,0,0,0],"sum_hessian":[1.1E1,2E0,9E0,1E0,1E0,8E0,1E0,1E0,7E0,4E0,3E0,1E0,3E0,1E0,2E0],"tree_param":{"num_deleted":"0","num_feature":"6","num_nodes":"15","size_leaf_vector":"1"}},{"base_weights":[-8.5772194E-2,-6.333008E-1,8.7063596E-2,-7.5610355E-2,-1.9384766E-2,2.4400499E-2,3.2551575E-2,-1.0752869E-2,5.4332733E-2,7.537842E-3,9.9243164E-2,2.6069642E-3,-3.3294677E-3,1.30778E-2,2.3193359E-4],"categories":[],"categories_nodes":[],"categories_segments":[],"categories_sizes":[],"default_left":[0,0,0,0,0,0,0,0,0,0,0,0,0,0,0],"id":74,"left_children":[1,3,5,-1,-1,7,-1,-1,9,11,13,-1,-1,-1,-1],"loss_changes":[1.1907278E0,1.5329242E-2,1.4147876E-1,0E0,0E0,4.1382745E-2,0E0,0E0,1.6064549E-2,4.6514804E-3,1.1922587E-2,0E0,0E0,0E0,0E0],"parents":[2147483647,0,0,1,1,2,2,5,5,8,8,9,9,10,10],"right_children":[2,4,6,-1,-1,8,-1,-1,10,12,14,-1,-1,-1,-1],"split_conditions":[2.8467E2,2.4734E2,4.1053405E-1,-7.5610355E-2,-1.9384766E-2,2.8889E2,3.2551575E-2,-1.0752869E-2,3.4073E2,3.3585E2,3.463E2,2.6069642E-3,-3.3294677E-3,1.30778E-2,2.3193359E-4],"split_indices":[0,0,5,0,0,0,0,0,0,0,0,0,0,0,0],"split_type":[0,0,0,0,0,0,0,0,0,0,0,0,0,0,0],"sum_hessian":[1.1E1,2E0,9E0,1E0,1E0,8E0,1E0,1E0,7E0,4E0,3E0,3E0,1E0,2E0,1E0],"tree_param":{"num_deleted":"0","num_feature":"6","num_nodes":"15","size_leaf_vector":"1"}},{"base_weights":[-8.224869E-2,-6.016388E-1,8.179321E-2,-7.182999E-2,-1.8415833E-2,2.2162544E-2,3.0923462E-2,-1.0215759E-2,5.047226E-2,6.6467286E-3,9.263611E-2,4.3563843E-3,-1.3473511E-3,1.4982605E-2,2.3630778E-3],"categories":[],"categories_nodes":[],"categories_segments":[],"categories_sizes":[],"default_left":[0,0,0,0,0,0,0,0,0,0,0,0,0,0,0],"id":75,"left_children":[1,3,5,-1,-1,7,-1,-1,9,11,13,-1,-1,-1,-1],"loss_changes":[1.0716308E0,1.3830185E-2,1.2877141E-1,0E0,0E0,3.6831334E-2,0E0,0E0,1.41670965E-2,4.300864E-3,1.2245137E-2,0E0,0E0,0E0,0E0],"parents":[2147483647,0,0,1,1,2,2,5,5,8,8,9,9,10,10],"right_children":[2,4,6,-1,-1,8,-1,-1,10,12,14,-1,-1,-1,-1],"split_conditions":[2.8467E2,2.4734E2,4.1053405E-1,-7.182999E-2,-1.8415833E-2,2.8889E2,3.0923462E-2,-1.0215759E-2,3.4073E2,1.173092E8,3.4274E2,4.3563843E-3,-1.3473511E-3,1.4982605E-2,2.3630778E-3],"split_indices":[0,0,5,0,0,0,0,0,0,4,0,0,0,0,0],"split_type":[0,0,0,0,0,0,0,0,0,0,0,0,0,0,0],"sum_hessian":[1.1E1,2E0,9E0,1E0,1E0,8E0,1E0,1E0,7E0,4E0,3E0,1E0,3E0,1E0,2E0],"tree_param":{"num_deleted":"0","num_feature":"6","num_nodes":"15","size_leaf_vector":"1"}},{"base_weights":[-7.812246E-2,-5.715637E-1,7.772217E-2,-6.823883E-2,-1.7495727E-2,2.1074083E-2,2.9377747E-2,-9.70459E-3,4.7969818E-2,6.57959E-3,8.771515E-2,3.1361897E-3,-2.0395915E-3,1.4233398E-2,2.206421E-3],"categories":[],"categories_nodes":[],"categories_segments":[],"categories_sizes":[],"default_left":[0,0,0,0,0,0,0,0,0,0,0,0,0,0,0],"id":76,"left_children":[1,3,5,-1,-1,7,-1,-1,9,11,13,-1,-1,-1,-1],"loss_changes":[9.672252E-1,1.2472451E-2,1.16200104E-1,0E0,0E0,3.3247586E-2,0E0,0E0,1.2583416E-2,3.9822306E-3,1.1202626E-2,0E0,0E0,0E0,0E0],"parents":[2147483647,0,0,1,1,2,2,5,5,8,8,9,9,10,10],"right_children":[2,4,6,-1,-1,8,-1,-1,10,12,14,-1,-1,-1,-1],"split_conditions":[2.8467E2,2.4734E2,4.1053405E-1,-6.823883E-2,-1.7495727E-2,2.8889E2,2.9377747E-2,-9.70459E-3,3.4073E2,3.2769E2,3.4274E2,3.1361897E-3,-2.0395915E-3,1.4233398E-2,2.206421E-3],"split_indices":[0,0,5,0,0,0,0,0,0,0,0,0,0,0,0],"split_type":[0,0,0,0,0,0,0,0,0,0,0,0,0,0,0],"sum_hessian":[1.1E1,2E0,9E0,1E0,1E0,8E0,1E0,1E0,7E0,4E0,3E0,2E0,2E0,1E0,2E0],"tree_param":{"num_deleted":"0","num_feature":"6","num_nodes":"15","size_leaf_vector":"1"}},{"base_weights":[-7.435354E-2,-5.429891E-1,7.367249E-2,-6.4826965E-2,-1.66214E-2,1.9839816E-2,2.7908325E-2,-9.219361E-3,4.5368195E-2,6.1401366E-3,8.306122E-2,2.2644044E-3,-2.9937744E-3,1.3522339E-2,2.0599365E-3],"categories":[],"categories_nodes":[],"categories_segments":[],"categories_sizes":[],"default_left":[0,0,0,0,0,0,0,0,0,0,0,0,0,0,0],"id":77,"left_children":[1,3,5,-1,-1,7,-1,-1,9,11,13,-1,-1,-1,-1],"loss_changes":[8.724464E-1,1.1249781E-2,1.0504114E-1,0E0,0E0,2.992294E-2,0E0,0E0,1.1318985E-2,3.6550413E-3,1.0247067E-2,0E0,0E0,0E0,0E0],"parents":[2147483647,0,0,1,1,2,2,5,5,8,8,9,9,10,10],"right_children":[2,4,6,-1,-1,8,-1,-1,10,12,14,-1,-1,-1,-1],"split_conditions":[2.8467E2,2.4734E2,4.1053405E-1,-6.4826965E-2,-1.66214E-2,2.8889E2,2.7908325E-2,-9.219361E-3,3.4073E2,3.3585E2,3.4274E2,2.2644044E-3,-2.9937744E-3,1.3522339E-2,2.0599365E-3],"split_indices":[0,0,5,0,0,0,0,0,0,0,0,0,0,0,0],"split_type":[0,0,0,0,0,0,0,0,0,0,0,0,0,0,0],"sum_hessian":[1.1E1,2E0,9E0,1E0,1E0,8E0,1E0,1E0,7E0,4E0,3E0,3E0,1E0,1E0,2E0],"tree_param":{"num_deleted":"0","num_feature":"6","num_nodes":"15","size_leaf_vector":"1"}},{"base_weights":[-7.090759E-2,-5.158386E-1,6.9662474E-2,-6.1586E-2,-1.5789796E-2,1.848348E-2,2.6513672E-2,-8.758545E-3,4.2690277E-2,5.3833006E-3,7.865143E-2,3.868103E-3,-1.2611389E-3,1.2846375E-2,1.9226074E-3],"categories":[],"categories_nodes":[],"categories_segments":[],"categories_sizes":[],"default_left":[0,0,0,0,0,0,0,0,0,0,0,0,0,0,0],"id":78,"left_children":[1,3,5,-1,-1,7,-1,-1,9,11,13,-1,-1,-1,-1],"loss_changes":[7.864625E-1,1.01620555E-2,9.5141105E-2,0E0,0E0,2.6847348E-2,0E0,0E0,1.0309409E-2,3.4837332E-3,9.3706045E-3,0E0,0E0,0E0,0E0],"parents":[2147483647,0,0,1,1,2,2,5,5,8,8,9,9,10,10],"right_children":[2,4,6,-1,-1,8,-1,-1,10,12,14,-1,-1,-1,-1],"split_conditions":[2.8467E2,2.4734E2,4.1053405E-1,-6.1586E-2,-1.5789796E-2,2.8889E2,2.6513672E-2,-8.758545E-3,3.4073E2,1.173092E8,3.4274E2,3.868103E-3,-1.2611389E-3,1.2846375E-2,1.9226074E-3],"split_indices":[0,0,5,0,0,0,0,0,0,4,0,0,0,0,0],"split_type":[0,0,0,0,0,0,0,0,0,0,0,0,0,0,0],"sum_hessian":[1.1E1,2E0,9E0,1E0,1E0,8E0,1E0,1E0,7E0,4E0,3E0,1E0,3E0,1E0,2E0],"tree_param":{"num_deleted":"0","num_feature":"6","num_nodes":"15","size_leaf_vector":"1"}},{"base_weights":[-6.7342125E-2,-4.9005127E-1,6.620483E-2,-5.8506776E-2,-1.5000916E-2,1.7588297E-2,2.5187684E-2,-8.3206175E-3,4.058838E-2,5.358887E-3,7.447815E-2,2.0606995E-3,-2.7816773E-3,1.2203979E-2,1.7944336E-3],"categories":[],"categories_nodes":[],"categories_segments":[],"categories_sizes":[],"default_left":[0,0,0,0,0,0,0,0,0,0,0,0,0,0,0],"id":79,"left_children":[1,3,5,-1,-1,7,-1,-1,9,11,13,-1,-1,-1,-1],"loss_changes":[7.09862E-1,9.16332E-3,8.5837215E-2,0E0,0E0,2.4241734E-2,0E0,0E0,9.152234E-3,3.1025503E-3,8.565443E-3,0E0,0E0,0E0,0E0],"parents":[2147483647,0,0,1,1,2,2,5,5,8,8,9,9,10,10],"right_children":[2,4,6,-1,-1,8,-1,-1,10,12,14,-1,-1,-1,-1],"split_conditions":[2.8467E2,2.4734E2,4.1053405E-1,-5.8506776E-2,-1.5000916E-2,2.8889E2,2.5187684E-2,-8.3206175E-3,3.4073E2,3.3585E2,3.4274E2,2.0606995E-3,-2.7816773E-3,1.2203979E-2,1.7944336E-3],"split_indices":[0,0,5,0,0,0,0,0,0,0,0,0,0,0,0],"split_type":[0,0,0,0,0,0,0,0,0,0,0,0,0,0,0],"sum_hessian":[1.1E1,2E0,9E0,1E0,1E0,8E0,1E0,1E0,7E0,4E0,3E0,3E0,1E0,1E0,2E0],"tree_param":{"num_deleted":"0","num_feature":"6","num_nodes":"15","size_leaf_vector":"1"}},{"base_weights":[-6.422424E-2,-4.6554565E-1,6.259461E-2,-5.5581667E-2,-1.42501835E-2,1.6374376E-2,2.3928834E-2,-7.904053E-3,3.8181305E-2,4.6691895E-3,7.052612E-2,3.5705566E-3,-1.2016296E-3,1.1593628E-2,1.6743978E-3],"categories":[],"categories_nodes":[],"categories_segments":[],"categories_sizes":[],"default_left":[0,0,0,0,0,0,0,0,0,0,0,0,0,0,0],"id":80,"left_children":[1,3,5,-1,-1,7,-1,-1,9,11,13,-1,-1,-1,-1],"loss_changes":[6.39882E-1,8.279562E-3,7.775004E-2,0E0,0E0,2.1744225E-2,0E0,0E0,8.342246E-3,3.0183338E-3,7.827789E-3,0E0,0E0,0E0,0E0],"parents":[2147483647,0,0,1,1,2,2,5,5,8,8,9,9,10,10],"right_children":[2,4,6,-1,-1,8,-1,-1,10,12,14,-1,-1,-1,-1],"split_conditions":[2.8467E2,2.4734E2,4.1053405E-1,-5.5581667E-2,-1.42501835E-2,2.8889E2,2.3928834E-2,-7.904053E-3,3.4073E2,1.173092E8,3.4274E2,3.5705566E-3,-1.2016296E-3,1.1593628E-2,1.6743978E-3],"split_indices":[0,0,5,0,0,0,0,0,0,4,0,0,0,0,0],"split_type":[0,0,0,0,0,0,0,0,0,0,0,0,0,0,0],"sum_hessian":[1.1E1,2E0,9E0,1E0,1E0,8E0,1E0,1E0,7E0,4E0,3E0,1E0,3E0,1E0,2E0],"tree_param":{"num_deleted":"0","num_feature":"6","num_nodes":"15","size_leaf_vector":"1"}},{"base_weights":[-6.0985565E-2,-4.4226584E-1,5.949707E-2,-5.2802276E-2,-1.3537598E-2,1.55910915E-2,2.2732545E-2,-7.50885E-3,3.6312103E-2,-2.583313E-3,4.888044E-2,8.564758E-3,-1.0681152E-5],"categories":[],"categories_nodes":[],"categories_segments":[],"categories_sizes":[],"default_left":[0,0,0,0,0,0,0,0,0,0,0,0,0],"id":81,"left_children":[1,3,5,-1,-1,7,-1,-1,9,-1,11,-1,-1],"loss_changes":[5.775653E-1,7.472217E-3,7.014243E-2,0E0,0E0,1.9637376E-2,0E0,0E0,7.511232E-3,0E0,1.2616996E-2,0E0,0E0],"parents":[2147483647,0,0,1,1,2,2,5,5,8,8,10,10],"right_children":[2,4,6,-1,-1,8,-1,-1,10,-1,12,-1,-1],"split_conditions":[2.8467E2,2.4734E2,4.1053405E-1,-5.2802276E-2,-1.3537598E-2,2.8889E2,2.2732545E-2,-7.50885E-3,3.4890454E-2,-2.583313E-3,1.9803625E-1,8.564758E-3,-1.0681152E-5],"split_indices":[0,0,5,0,0,0,0,0,5,0,5,0,0],"split_type":[0,0,0,0,0,0,0,0,0,0,0,0,0],"sum_hessian":[1.1E1,2E0,9E0,1E0,1E0,8E0,1E0,1E0,7E0,1E0,6E0,3E0,3E0],"tree_param":{"num_deleted":"0","num_feature":"6","num_nodes":"13","size_leaf_vector":"1"}},{"base_weights":[-5.8653515E-2,-4.2015076E-1,5.566101E-2,-5.0162505E-2,-1.2860107E-2,1.38549805E-2,2.1595765E-2,-7.133484E-3,3.3420563E-2,3.4729005E-3,6.25E-2,1.6609192E-3,-2.4536133E-3,1.0585022E-2,1.2766521E-3],"categories":[],"categories_nodes":[],"categories_segments":[],"categories_sizes":[],"default_left":[0,0,0,0,0,0,0,0,0,0,0,0,0,0,0],"id":82,"left_children":[1,3,5,-1,-1,7,-1,-1,9,11,13,-1,-1,-1,-1],"loss_changes":[5.192786E-1,6.7519546E-3,6.402157E-2,0E0,0E0,1.7385146E-2,0E0,0E0,6.749833E-3,2.2471994E-3,7.2724894E-3,0E0,0E0,0E0,0E0],"parents":[2147483647,0,0,1,1,2,2,5,5,8,8,9,9,10,10],"right_children":[2,4,6,-1,-1,8,-1,-1,10,12,14,-1,-1,-1,-1],"split_conditions":[2.8467E2,2.4734E2,4.1053405E-1,-5.0162505E-2,-1.2860107E-2,2.8889E2,2.1595765E-2,-7.133484E-3,3.4073E2,3.3585E2,3.4274E2,1.6609192E-3,-2.4536133E-3,1.0585022E-2,1.2766521E-3],"split_indices":[0,0,5,0,0,0,0,0,0,0,0,0,0,0,0],"split_type":[0,0,0,0,0,0,0,0,0,0,0,0,0,0,0],"sum_hessian":[1.1E1,2E0,9E0,1E0,1E0,8E0,1E0,1E0,7E0,4E0,3E0,3E0,1E0,1E0,2E0],"tree_param":{"num_deleted":"0","num_feature":"6","num_nodes":"15","size_leaf_vector":"1"}},{"base_weights":[-5.591329E-2,-3.9914957E-1,5.2648924E-2,-4.7654726E-2,-1.2217713E-2,1.2908936E-2,2.0515442E-2,5.1342774E-2,-2.810669E-2,-2.331543E-3,7.583618E-2,-6.7764283E-3,-1.2512207E-3,3.4077961E-3,1.0055542E-2,1.2919107E-4,-4.4403077E-4],"categories":[],"categories_nodes":[],"categories_segments":[],"categories_sizes":[],"default_left":[0,0,0,0,0,0,0,0,0,0,0,0,0,0,0,0,0],"id":83,"left_children":[1,3,5,-1,-1,7,-1,9,11,-1,13,-1,15,-1,-1,-1,-1],"loss_changes":[4.681647E-1,6.087899E-3,5.7957347E-2,0E0,0E0,1.5630566E-2,0E0,1.0911322E-2,5.2403277E-3,0E0,7.022023E-4,0E0,3.817755E-5,0E0,0E0,0E0,0E0],"parents":[2147483647,0,0,1,1,2,2,5,5,7,7,8,8,10,10,12,12],"right_children":[2,4,6,-1,-1,8,-1,10,12,-1,14,-1,16,-1,-1,-1,-1],"split_conditions":[2.8467E2,2.4734E2,4.1053405E-1,-4.7654726E-2,-1.2217713E-2,1.9803625E-1,2.0515442E-2,3.4890454E-2,2.8889E2,-2.331543E-3,3.4855E2,-6.7764283E-3,3.3585E2,3.4077961E-3,1.0055542E-2,1.2919107E-4,-4.4403077E-4],"split_indices":[0,0,5,0,0,5,0,5,0,0,1,0,0,0,0,0,0],"split_type":[0,0,0,0,0,0,0,0,0,0,0,0,0,0,0,0,0],"sum_hessian":[1.1E1,2E0,9E0,1E0,1E0,8E0,1E0,4E0,4E0,1E0,3E0,1E0,3E0,2E0,1E0,2E0,1E0],"tree_param":{"num_deleted":"0","num_feature":"6","num_nodes":"17","size_leaf_vector":"1"}},{"base_weights":[-5.3267162E-2,-3.7919617E-1,4.9838256E-2,-4.5272063E-2,-1.1607361E-2,1.2064616E-2,1.9490052E-2,-6.437683E-3,2.96669E-2,2.7038574E-3,5.595398E-2,2.709961E-3,-1.0169983E-3,9.552002E-3,1.0925293E-3],"categories":[],"categories_nodes":[],"categories_segments":[],"categories_sizes":[],"default_left":[0,0,0,0,0,0,0,0,0,0,0,0,0,0,0],"id":84,"left_children":[1,3,5,-1,-1,7,-1,-1,9,11,13,-1,-1,-1,-1],"loss_changes":[4.2215902E-1,5.488932E-3,5.2443895E-2,0E0,0E0,1.40197575E-2,0E0,0E0,5.518946E-3,1.8459377E-3,6.082843E-3,0E0,0E0,0E0,0E0],"parents":[2147483647,0,0,1,1,2,2,5,5,8,8,9,9,10,10],"right_children":[2,4,6,-1,-1,8,-1,-1,10,12,14,-1,-1,-1,-1],"split_conditions":[2.8467E2,2.4734E2,4.1053405E-1,-4.5272063E-2,-1.1607361E-2,2.8889E2,1.9490052E-2,-6.437683E-3,3.4073E2,1.173092E8,3.4274E2,2.709961E-3,-1.0169983E-3,9.552002E-3,1.0925293E-3],"split_indices":[0,0,5,0,0,0,0,0,0,4,0,0,0,0,0],"split_type":[0,0,0,0,0,0,0,0,0,0,0,0,0,0,0],"sum_hessian":[1.1E1,2E0,9E0,1E0,1E0,8E0,1E0,1E0,7E0,4E0,3E0,1E0,3E0,1E0,2E0],"tree_param":{"num_deleted":"0","num_feature":"6","num_nodes":"15","size_leaf_vector":"1"}},{"base_weights":[-5.057017E-2,-3.6023965E-1,4.7387697E-2,-4.3008424E-2,-1.1027527E-2,1.1508518E-2,1.8515015E-2,-6.115723E-3,2.823639E-2,-2.1652223E-3,3.8456507E-2,6.826782E-3,-9.689331E-5],"categories":[],"categories_nodes":[],"categories_segments":[],"categories_sizes":[],"default_left":[0,0,0,0,0,0,0,0,0,0,0,0,0],"id":85,"left_children":[1,3,5,-1,-1,7,-1,-1,9,-1,11,-1,-1],"loss_changes":[3.8108566E-1,4.948318E-3,4.7297224E-2,0E0,0E0,1.2666748E-2,0E0,0E0,4.9116085E-3,0E0,8.293416E-3,0E0,0E0],"parents":[2147483647,0,0,1,1,2,2,5,5,8,8,10,10],"right_children":[2,4,6,-1,-1,8,-1,-1,10,-1,12,-1,-1],"split_conditions":[2.8467E2,2.4734E2,4.1053405E-1,-4.3008424E-2,-1.1027527E-2,2.8889E2,1.8515015E-2,-6.115723E-3,3.4890454E-2,-2.1652223E-3,1.9803625E-1,6.826782E-3,-9.689331E-5],"split_indices":[0,0,5,0,0,0,0,0,5,0,5,0,0],"split_type":[0,0,0,0,0,0,0,0,0,0,0,0,0],"sum_hessian":[1.1E1,2E0,9E0,1E0,1E0,8E0,1E0,1E0,7E0,1E0,6E0,3E0,3E0],"tree_param":{"num_deleted":"0","num_feature":"6","num_nodes":"13","size_leaf_vector":"1"}},{"base_weights":[-4.8608143E-2,-3.4222922E-1,4.433899E-2,-4.08577E-2,-1.0476685E-2,1.0179307E-2,1.7588807E-2,-5.810547E-3,2.5978088E-2,1.8676758E-3,4.9621582E-2,1.2619019E-3,-2.0568848E-3,8.732605E-3,7.944743E-4],"categories":[],"categories_nodes":[],"categories_segments":[],"categories_sizes":[],"default_left":[0,0,0,0,0,0,0,0,0,0,0,0,0,0,0],"id":86,"left_children":[1,3,5,-1,-1,7,-1,-1,9,11,13,-1,-1,-1,-1],"loss_changes":[3.4266895E-1,4.4599473E-3,4.3146327E-2,0E0,0E0,1.1218814E-2,0E0,0E0,4.467758E-3,1.4656724E-3,5.5918284E-3,0E0,0E0,0E0,0E0],"parents":[2147483647,0,0,1,1,2,2,5,5,8,8,9,9,10,10],"right_children":[2,4,6,-1,-1,8,-1,-1,10,12,14,-1,-1,-1,-1],"split_conditions":[2.8467E2,2.4734E2,4.1053405E-1,-4.08577E-2,-1.0476685E-2,2.8889E2,1.7588807E-2,-5.810547E-3,3.4073E2,3.3585E2,3.4274E2,1.2619019E-3,-2.0568848E-3,8.732605E-3,7.944743E-4],"split_indices":[0,0,5,0,0,0,0,0,0,0,0,0,0,0,0],"split_type":[0,0,0,0,0,0,0,0,0,0,0,0,0,0,0],"sum_hessian":[1.1E1,2E0,9E0,1E0,1E0,8E0,1E0,1E0,7E0,4E0,3E0,3E0,1E0,1E0,2E0],"tree_param":{"num_deleted":"0","num_feature":"6","num_nodes":"15","size_leaf_vector":"1"}},{"base_weights":[-4.631424E-2,-3.2511902E-1,4.195862E-2,-3.8814545E-2,-9.953308E-3,9.487576E-3,1.67099E-2,4.053955E-2,-2.3461914E-2,-1.954651E-3,6.0447693E-2,-5.52063E-3,-1.7242432E-3,2.52889E-3,8.296204E-3,1.1088053E-4,-5.1116943E-4],"categories":[],"categories_nodes":[],"categories_segments":[],"categories_sizes":[],"default_left":[0,0,0,0,0,0,0,0,0,0,0,0,0,0,0,0,0],"id":87,"left_children":[1,3,5,-1,-1,7,-1,9,11,-1,13,-1,15,-1,-1,-1,-1],"loss_changes":[3.0897224E-1,4.0203333E-3,3.9049022E-2,0E0,0E0,1.0159456E-2,0E0,7.1625495E-3,3.3550558E-3,0E0,1.0682903E-3,0E0,4.4055127E-5,0E0,0E0,0E0,0E0],"parents":[2147483647,0,0,1,1,2,2,5,5,7,7,8,8,10,10,12,12],"right_children":[2,4,6,-1,-1,8,-1,10,12,-1,14,-1,16,-1,-1,-1,-1],"split_conditions":[2.8467E2,2.4734E2,4.1053405E-1,-3.8814545E-2,-9.953308E-3,1.9803625E-1,1.67099E-2,3.4890454E-2,2.8889E2,-1.954651E-3,3.4855E2,-5.52063E-3,3.3585E2,2.52889E-3,8.296204E-3,1.1088053E-4,-5.1116943E-4],"split_indices":[0,0,5,0,0,5,0,5,0,0,1,0,0,0,0,0,0],"split_type":[0,0,0,0,0,0,0,0,0,0,0,0,0,0,0,0,0],"sum_hessian":[1.1E1,2E0,9E0,1E0,1E0,8E0,1E0,4E0,4E0,1E0,3E0,1E0,3E0,2E0,1E0,2E0,1E0],"tree_param":{"num_deleted":"0","num_feature":"6","num_nodes":"17","size_leaf_vector":"1"}},{"base_weights":[-4.411189E-2,-3.088633E-1,3.972473E-2,-3.6873627E-2,-9.455872E-3,8.863661E-3,1.5873719E-2,3.8256835E-2,-2.2302246E-2,-1.8569947E-3,5.7106018E-2,-5.244446E-3,-1.6555786E-3,2.3600261E-3,7.881165E-3,1.0274252E-4,-4.852295E-4],"categories":[],"categories_nodes":[],"categories_segments":[],"categories_sizes":[],"default_left":[0,0,0,0,0,0,0,0,0,0,0,0,0,0,0,0,0],"id":88,"left_children":[1,3,5,-1,-1,7,-1,9,11,-1,13,-1,15,-1,-1,-1,-1],"loss_changes":[2.786199E-1,3.6259294E-3,3.5321523E-2,0E0,0E0,9.097798E-3,0E0,6.4161466E-3,3.0248554E-3,0E0,1.0490781E-3,0E0,3.9292576E-5,0E0,0E0,0E0,0E0],"parents":[2147483647,0,0,1,1,2,2,5,5,7,7,8,8,10,10,12,12],"right_children":[2,4,6,-1,-1,8,-1,10,12,-1,14,-1,16,-1,-1,-1,-1],"split_conditions":[2.8467E2,2.4734E2,4.1053405E-1,-3.6873627E-2,-9.455872E-3,1.9803625E-1,1.5873719E-2,3.4890454E-2,2.8889E2,-1.8569947E-3,3.4855E2,-5.244446E-3,3.3585E2,2.3600261E-3,7.881165E-3,1.0274252E-4,-4.852295E-4],"split_indices":[0,0,5,0,0,5,0,5,0,0,1,0,0,0,0,0,0],"split_type":[0,0,0,0,0,0,0,0,0,0,0,0,0,0,0,0,0],"sum_hessian":[1.1E1,2E0,9E0,1E0,1E0,8E0,1E0,4E0,4E0,1E0,3E0,1E0,3E0,2E0,1E0,2E0,1E0],"tree_param":{"num_deleted":"0","num_feature":"6","num_nodes":"17","size_leaf_vector":"1"}},{"base_weights":[-4.200236E-2,-2.9341635E-1,3.762207E-2,-3.50296E-2,-8.982849E-3,8.290608E-3,1.5080261E-2,3.6114503E-2,-2.1191407E-2,-1.763916E-3,5.3962708E-2,-4.9819946E-3,-1.5792847E-3,2.2033693E-3,7.487488E-3,9.6639E-5,-4.6081544E-4],"categories":[],"categories_nodes":[],"categories_segments":[],"categories_sizes":[],"default_left":[0,0,0,0,0,0,0,0,0,0,0,0,0,0,0,0,0],"id":89,"left_children":[1,3,5,-1,-1,7,-1,9,11,-1,13,-1,15,-1,-1,-1,-1],"loss_changes":[2.5126326E-1,3.273487E-3,3.1947263E-2,0E0,0E0,8.148056E-3,0E0,5.748889E-3,2.7286524E-3,0E0,1.0210499E-3,0E0,3.529534E-5,0E0,0E0,0E0,0E0],"parents":[2147483647,0,0,1,1,2,2,5,5,7,7,8,8,10,10,12,12],"right_children":[2,4,6,-1,-1,8,-1,10,12,-1,14,-1,16,-1,-1,-1,-1],"split_conditions":[2.8467E2,2.4734E2,4.1053405E-1,-3.50296E-2,-8.982849E-3,1.9803625E-1,1.5080261E-2,3.4890454E-2,2.8889E2,-1.763916E-3,3.4855E2,-4.9819946E-3,3.3585E2,2.2033693E-3,7.487488E-3,9.6639E-5,-4.6081544E-4],"split_indices":[0,0,5,0,0,5,0,5,0,0,1,0,0,0,0,0,0],"split_type":[0,0,0,0,0,0,0,0,0,0,0,0,0,0,0,0,0],"sum_hessian":[1.1E1,2E0,9E0,1E0,1E0,8E0,1E0,4E0,4E0,1E0,3E0,1E0,3E0,2E0,1E0,2E0,1E0],"tree_param":{"num_deleted":"0","num_feature":"6","num_nodes":"17","size_leaf_vector":"1"}},{"base_weights":[-3.999583E-2,-2.7874756E-1,3.5629272E-2,-3.3277895E-2,-8.534241E-3,7.751465E-3,1.4326477E-2,-4.7332766E-3,2.0553589E-2,1.1047364E-3,3.9726257E-2,1.3458253E-3,-1.1617024E-3,7.1136476E-3,5.544027E-4],"categories":[],"categories_nodes":[],"categories_segments":[],"categories_sizes":[],"default_left":[0,0,0,0,0,0,0,0,0,0,0,0,0,0,0],"id":90,"left_children":[1,3,5,-1,-1,7,-1,-1,9,11,13,-1,-1,-1,-1],"loss_changes":[2.2659907E-1,2.94967E-3,2.8895903E-2,0E0,0E0,7.3196143E-3,0E0,0E0,2.9392038E-3,9.4213727E-4,3.9003026E-3,0E0,0E0,0E0,0E0],"parents":[2147483647,0,0,1,1,2,2,5,5,8,8,9,9,10,10],"right_children":[2,4,6,-1,-1,8,-1,-1,10,12,14,-1,-1,-1,-1],"split_conditions":[2.8467E2,2.4734E2,4.1053405E-1,-3.3277895E-2,-8.534241E-3,2.8889E2,1.4326477E-2,-4.7332766E-3,3.4073E2,3.2769E2,3.4274E2,1.3458253E-3,-1.1617024E-3,7.1136476E-3,5.544027E-4],"split_indices":[0,0,5,0,0,0,0,0,0,0,0,0,0,0,0],"split_type":[0,0,0,0,0,0,0,0,0,0,0,0,0,0,0],"sum_hessian":[1.1E1,2E0,9E0,1E0,1E0,8E0,1E0,1E0,7E0,4E0,3E0,2E0,2E0,1E0,2E0],"tree_param":{"num_deleted":"0","num_feature":"6","num_nodes":"15","size_leaf_vector":"1"}},{"base_weights":[-3.8023632E-2,-2.6480612E-1,3.3813477E-2,-3.1613924E-2,-8.106994E-3,7.3242188E-3,1.361084E-2,2.3594448E-2,-3.3081055E-2,4.9997964E-3,6.7581176E-3,-4.4967653E-3,-4.6539307E-4,1.2469483E-3,-1.6174316E-3],"categories":[],"categories_nodes":[],"categories_segments":[],"categories_sizes":[],"default_left":[0,0,0,0,0,0,0,0,0,0,0,0,0,0,0],"id":91,"left_children":[1,3,5,-1,-1,7,-1,9,11,13,-1,-1,-1,-1,-1],"loss_changes":[2.0445079E-1,2.6658624E-3,2.6100278E-2,0E0,0E0,6.6971565E-3,0E0,5.3875325E-3,8.0442894E-4,1.1506692E-3,0E0,0E0,0E0,0E0,0E0],"parents":[2147483647,0,0,1,1,2,2,5,5,7,7,8,8,9,9],"right_children":[2,4,6,-1,-1,8,-1,10,12,14,-1,-1,-1,-1,-1],"split_conditions":[2.8467E2,2.4734E2,4.1053405E-1,-3.1613924E-2,-8.106994E-3,1.652287E8,1.361084E-2,3.4855E2,2.8889E2,3.3024E2,6.7581176E-3,-4.4967653E-3,-4.6539307E-4,1.2469483E-3,-1.6174316E-3],"split_indices":[0,0,5,0,0,4,0,1,0,3,0,0,0,0,0],"split_type":[0,0,0,0,0,0,0,0,0,0,0,0,0,0,0],"sum_hessian":[1.1E1,2E0,9E0,1E0,1E0,8E0,1E0,6E0,2E0,5E0,1E0,1E0,1E0,4E0,1E0],"tree_param":{"num_deleted":"0","num_feature":"6","num_nodes":"15","size_leaf_vector":"1"}},{"base_weights":[-3.627904E-2,-2.515615E-1,3.1933594E-2,-3.0033112E-2,-7.701111E-3,6.7477757E-3,1.2930298E-2,3.0999755E-2,-1.885376E-2,-1.5365601E-3,4.6432495E-2,-4.272461E-3,-2.204895E-3,1.9104005E-3,6.4208987E-3,1.0172527E-6,-4.4250488E-4],"categories":[],"categories_nodes":[],"categories_segments":[],"categories_sizes":[],"default_left":[0,0,0,0,0,0,0,0,0,0,0,0,0,0,0,0,0],"id":92,"left_children":[1,3,5,-1,-1,7,-1,9,11,-1,13,-1,15,-1,-1,-1,-1],"loss_changes":[1.8425307E-1,2.4094433E-3,2.3650767E-2,0E0,0E0,6.172453E-3,0E0,4.291186E-3,