{"learner":{"attributes":{},"feature_names":["Open","High","Low","Close","Volume","sentiment_score"],"feature_types":["float","float","float","float","int","float"],"gradient_booster":{"model":{"gbtree_model_param":{"num_parallel_tree":"1","num_trees":"150"},"iteration_indptr":[0,1,2,3,4,5,6,7,8,9,10,11,12,13,14,15,16,17,18,19,20,21,22,23,24,25,26,27,28,29,30,31,32,33,34,35,36,37,38,39,40,41,42,43,44,45,46,47,48,49,50,51,52,53,54,55,56,57,58,59,60,61,62,63,64,65,66,67,68,69,70,71,72,73,74,75,76,77,78,79,80,81,82,83,84,85,86,87,88,89,90,91,92,93,94,95,96,97,98,99,100,101,102,103,104,105,106,107,108,109,110,111,112,113,114,115,116,117,118,119,120,121,122,123,124,125,126,127,128,129,130,131,132,133,134,135,136,137,138,139,140,141,142,143,144,145,146,147,148,149,150],"tree_info":[0,0,0,0,0,0,0,0,0,0,0,0,0,0,0,0,0,0,0,0,0,0,0,0,0,0,0,0,0,0,0,0,0,0,0,0,0,0,0,0,0,0,0,0,0,0,0,0,0,0,0,0,0,0,0,0,0,0,0,0,0,0,0,0,0,0,0,0,0,0,0,0,0,0,0,0,0,0,0,0,0,0,0,0,0,0,0,0,0,0,0,0,0,0,0,0,0,0,0,0,0,0,0,0,0,0,0,0,0,0,0,0,0,0,0,0,0,0,0,0,0,0,0,0,0,0,0,0,0,0,0,0,0,0,0,0,0,0,0,0,0,0,0,0,0,0,0,0,0,0],"trees":[{"base_weights":[-5.722046E-6,-9.568634E-1,1.19606785E-1,6.9071196E-2,-1.5414353E-1],"categories":[],"categories_nodes":[],"categories_segments":[],"categories_sizes":[],"default_left":[0,0,0,0,0],"id":0,"left_children":[1,3,-1,-1,-1],"loss_changes":[1.0300251E1,5.880319E0,0E0,0E0,0E0],"parents":[2147483647,0,0,1,1],"right_children":[2,4,-1,-1,-1],"split_conditions":[2.2525E2,2.2455E2,1.19606785E-1,6.9071196E-2,-1.5414353E-1],"split_indices":[0,0,0,0,0],"split_type":[0,0,0,0,0],"sum_hessian":[7E0,4E0,3E0,1E0,3E0],"tree_param":{"num_deleted":"0","num_feature":"6","num_nodes":"5","size_leaf_vector":"1"}},{"base_weights":[4.3087006E-3,-8.781921E-1,1.1063576E-1,6.5617375E-2,-1.425827E-1],"categories":[],"categories_nodes":[],"categories_segments":[],"categories_sizes":[],"default_left":[0,0,0,0,0],"id":1,"left_children":[1,3,-1,-1,-1],"loss_changes":[8.752067E0,5.136952E0,0E0,0E0,0E0],"parents":[2147483647,0,0,1,1],"right_children":[2,4,-1,-1,-1],"split_conditions":[2.2525E2,2.2455E2,1.1063576E-1,6.5617375E-2,-1.425827E-1],"split_indices":[0,0,0,0,0],"split_type":[0,0,0,0,0],"sum_hessian":[7E0,4E0,3E0,1E0,3E0],"tree_param":{"num_deleted":"0","num_feature":"6","num_nodes":"5","size_leaf_vector":"1"}},{"base_weights":[8.0833435E-3,-8.0576783E-1,1.0233765E-1,6.233673E-2,-1.3188934E-1],"categories":[],"categories_nodes":[],"categories_segments":[],"categories_sizes":[],"default_left":[0,0,0,0,0],"id":2,"left_children":[1,3,-1,-1,-1],"loss_changes":[7.4349837E0,4.4887843E0,0E0,0E0,0E0],"parents":[2147483647,0,0,1,1],"right_children":[2,4,-1,-1,-1],"split_conditions":[2.2525E2,2.2455E2,1.0233765E-1,6.233673E-2,-1.3188934E-1],"split_indices":[0,0,0,0,0],"split_type":[0,0,0,0,0],"sum_hessian":[7E0,4E0,3E0,1E0,3E0],"tree_param":{"num_deleted":"0","num_feature":"6","num_nodes":"5","size_leaf_vector":"1"}},{"base_weights":[1.1369705E-2,-7.391052E-1,9.466209E-2,5.9220124E-2,-1.2199821E-1],"categories":[],"categories_nodes":[],"categories_segments":[],"categories_sizes":[],"default_left":[0,0,0,0,0],"id":3,"left_children":[1,3,-1,-1,-1],"loss_changes":[6.3147135E0,3.9234476E0,0E0,0E0,0E0],"parents":[2147483647,0,0,1,1],"right_children":[2,4,-1,-1,-1],"split_conditions":[2.2525E2,2.2455E2,9.466209E-2,5.9220124E-2,-1.2199821E-1],"split_indices":[0,0,0,0,0],"split_type":[0,0,0,0,0],"sum_hessian":[7E0,4E0,3E0,1E0,3E0],"tree_param":{"num_deleted":"0","num_feature":"6","num_nodes":"5","size_leaf_vector":"1"}},{"base_weights":[1.4215469E-2,-6.777527E-1,8.756218E-2,5.6259155E-2,-1.1284866E-1],"categories":[],"categories_nodes":[],"categories_segments":[],"categories_sizes":[],"default_left":[0,0,0,0,0],"id":4,"left_children":[1,3,-1,-1,-1],"loss_changes":[5.3619814E0,3.4302032E0,0E0,0E0,0E0],"parents":[2147483647,0,0,1,1],"right_children":[2,4,-1,-1,-1],"split_conditions":[2.2525E2,2.2455E2,8.756218E-2,5.6259155E-2,-1.1284866E-1],"split_indices":[0,0,0,0,0],"split_type":[0,0,0,0,0],"sum_hessian":[7E0,4E0,3E0,1E0,3E0],"tree_param":{"num_deleted":"0","num_feature":"6","num_nodes":"5","size_leaf_vector":"1"}},{"base_weights":[1.6670227E-2,-1.00008644E-1,5.222702E-1,9.105339E-2,-1.695048E-1,-5.875626E-2,3.3330537E-2],"categories":[],"categories_nodes":[],"categories_segments":[],"categories_sizes":[],"default_left":[0,0,0,0,0,0,0],"id":5,"left_children":[1,-1,3,-1,5,-1,-1],"loss_changes":[4.634893E0,0E0,1.7658867E0,0E0,8.2644886E-1,0E0,0E0],"parents":[2147483647,0,0,2,2,4,4],"right_children":[2,-1,4,-1,6,-1,-1],"split_conditions":[2.2665E2,-1.00008644E-1,2.0326804E-1,9.105339E-2,2.2525E2,-5.875626E-2,3.3330537E-2],"split_indices":[1,0,5,0,0,0,0],"split_type":[0,0,0,0,0,0,0],"sum_hessian":[7E0,2E0,5E0,3E0,2E0,1E0,1E0],"tree_param":{"num_deleted":"0","num_feature":"6","num_nodes":"7","size_leaf_vector":"1"}},{"base_weights":[1.0707855E-2,-5.877472E-1,7.5609975E-2,4.889374E-2,-9.791527E-2],"categories":[],"categories_nodes":[],"categories_segments":[],"categories_sizes":[],"default_left":[0,0,0,0,0],"id":6,"left_children":[1,3,-1,-1,-1],"loss_changes":[4.0130634E0,2.5858455E0,0E0,0E0,0E0],"parents":[2147483647,0,0,1,1],"right_children":[2,4,-1,-1,-1],"split_conditions":[2.2525E2,2.2455E2,7.5609975E-2,4.889374E-2,-9.791527E-2],"split_indices":[0,0,0,0,0],"split_type":[0,0,0,0,0],"sum_hessian":[7E0,4E0,3E0,1E0,3E0],"tree_param":{"num_deleted":"0","num_feature":"6","num_nodes":"5","size_leaf_vector":"1"}},{"base_weights":[1.2962341E-2,-8.681386E-2,4.5135245E-1,7.9222105E-2,-1.5358989E-1,-5.0922394E-2,2.7883912E-2],"categories":[],"categories_nodes":[],"categories_segments":[],"categories_sizes":[],"default_left":[0,0,0,0,0,0,0],"id":7,"left_children":[1,-1,3,-1,5,-1,-1],"loss_changes":[3.481964E0,0E0,1.3589122E0,0E0,6.03351E-1,0E0,0E0],"parents":[2147483647,0,0,2,2,4,4],"right_children":[2,-1,4,-1,6,-1,-1],"split_conditions":[2.2665E2,-8.681386E-2,2.0326804E-1,7.9222105E-2,2.2525E2,-5.0922394E-2,2.7883912E-2],"split_indices":[1,0,5,0,0,0,0],"split_type":[0,0,0,0,0,0,0],"sum_hessian":[7E0,2E0,5E0,3E0,2E0,1E0,1E0],"tree_param":{"num_deleted":"0","num_feature":"6","num_nodes":"7","size_leaf_vector":"1"}},{"base_weights":[7.835388E-3,-8.102672E-2,4.1558075E-1,7.3280334E-2,-1.4590962E-1,-4.8376467E-2,2.6490021E-2],"categories":[],"categories_nodes":[],"categories_segments":[],"categories_sizes":[],"default_left":[0,0,0,0,0,0,0],"id":8,"left_children":[1,-1,3,-1,5,-1,-1],"loss_changes":[3.0053515E0,0E0,1.1756275E0,0E0,5.445318E-1,0E0,0E0],"parents":[2147483647,0,0,2,2,4,4],"right_children":[2,-1,4,-1,6,-1,-1],"split_conditions":[2.2665E2,-8.102672E-2,2.0326804E-1,7.3280334E-2,2.2525E2,-4.8376467E-2,2.6490021E-2],"split_indices":[1,0,5,0,0,0,0],"split_type":[0,0,0,0,0,0,0],"sum_hessian":[7E0,2E0,5E0,3E0,2E0,1E0,1E0],"tree_param":{"num_deleted":"0","num_feature":"6","num_nodes":"7","size_leaf_vector":"1"}},{"base_weights":[3.3493042E-3,-4.8228455E-1,6.095543E-2,3.8824465E-2,-7.96978E-2],"categories":[],"categories_nodes":[],"categories_segments":[],"categories_sizes":[],"default_left":[0,0,0,0,0],"id":9,"left_children":[1,3,-1,-1,-1],"loss_changes":[2.649128E0,1.6791717E0,0E0,0E0,0E0],"parents":[2147483647,0,0,1,1],"right_children":[2,4,-1,-1,-1],"split_conditions":[2.2525E2,2.2455E2,6.095543E-2,3.8824465E-2,-7.96978E-2],"split_indices":[0,0,0,0,0],"split_type":[0,0,0,0,0],"sum_hessian":[7E0,4E0,3E0,1E0,3E0],"tree_param":{"num_deleted":"0","num_feature":"6","num_nodes":"5","size_leaf_vector":"1"}},{"base_weights":[5.5236816E-3,-7.031199E-2,3.5892487E-1,6.376648E-2,-1.3237E-1,-4.1973114E-2,2.2117615E-2],"categories":[],"categories_nodes":[],"categories_segments":[],"categories_sizes":[],"default_left":[0,0,0,0,0,0,0],"id":10,"left_children":[1,-1,3,-1,5,-1,-1],"loss_changes":[2.255851E0,0E0,9.060687E-1,0E0,3.9762077E-1,0E0,0E0],"parents":[2147483647,0,0,2,2,4,4],"right_children":[2,-1,4,-1,6,-1,-1],"split_conditions":[2.2665E2,-7.031199E-2,2.0326804E-1,6.376648E-2,2.2525E2,-4.1973114E-2,2.2117615E-2],"split_indices":[1,0,5,0,0,0,0],"split_type":[0,0,0,0,0,0,0],"sum_hessian":[7E0,2E0,5E0,3E0,2E0,1E0,1E0],"tree_param":{"num_deleted":"0","num_feature":"6","num_nodes":"7","size_leaf_vector":"1"}},{"base_weights":[1.6727448E-3,-4.1846314E-1,5.2642442E-2,3.369522E-2,-6.915551E-2],"categories":[],"categories_nodes":[],"categories_segments":[],"categories_sizes":[],"default_left":[0,0,0,0,0],"id":11,"left_children":[1,3,-1,-1,-1],"loss_changes":[1.9840251E0,1.2645102E0,0E0,0E0,0E0],"parents":[2147483647,0,0,1,1],"right_children":[2,4,-1,-1,-1],"split_conditions":[2.2525E2,2.2455E2,5.2642442E-2,3.369522E-2,-6.915551E-2],"split_indices":[0,0,0,0,0],"split_type":[0,0,0,0,0],"sum_hessian":[7E0,4E0,3E0,1E0,3E0],"tree_param":{"num_deleted":"0","num_feature":"6","num_nodes":"5","size_leaf_vector":"1"}},{"base_weights":[3.6525726E-3,-6.1014302E-2,3.0994162E-1,5.5509567E-2,-1.2024435E-1,-3.6416627E-2,1.8379975E-2],"categories":[],"categories_nodes":[],"categories_segments":[],"categories_sizes":[],"default_left":[0,0,0,0,0,0,0],"id":12,"left_children":[1,-1,3,-1,5,-1,-1],"loss_changes":[1.6930996E0,0E0,6.9951814E-1,0E0,2.8942272E-1,0E0,0E0],"parents":[2147483647,0,0,2,2,4,4],"right_children":[2,-1,4,-1,6,-1,-1],"split_conditions":[2.2665E2,-6.1014302E-2,2.0326804E-1,5.5509567E-2,2.2525E2,-3.6416627E-2,1.8379975E-2],"split_indices":[1,0,5,0,0,0,0],"split_type":[0,0,0,0,0,0,0],"sum_hessian":[7E0,2E0,5E0,3E0,2E0,1E0,1E0],"tree_param":{"num_deleted":"0","num_feature":"6","num_nodes":"7","size_leaf_vector":"1"}},{"base_weights":[3.452301E-4,-3.631195E-1,4.5458984E-2,2.9235078E-2,-6.000748E-2],"categories":[],"categories_nodes":[],"categories_segments":[],"categories_sizes":[],"default_left":[0,0,0,0,0],"id":13,"left_children":[1,3,-1,-1,-1],"loss_changes":[1.4858856E0,9.520179E-1,0E0,0E0,0E0],"parents":[2147483647,0,0,1,1],"right_children":[2,4,-1,-1,-1],"split_conditions":[2.2525E2,2.2455E2,4.5458984E-2,2.9235078E-2,-6.000748E-2],"split_indices":[0,0,0,0,0],"split_type":[0,0,0,0,0],"sum_hessian":[7E0,4E0,3E0,1E0,3E0],"tree_param":{"num_deleted":"0","num_feature":"6","num_nodes":"5","size_leaf_vector":"1"}},{"base_weights":[2.149582E-3,-5.2945454E-2,2.6759338E-1,4.8342515E-2,-1.0938009E-1,-3.159485E-2,1.5187836E-2],"categories":[],"categories_nodes":[],"categories_segments":[],"categories_sizes":[],"default_left":[0,0,0,0,0,0,0],"id":14,"left_children":[1,-1,3,-1,5,-1,-1],"loss_changes":[1.2705667E0,0E0,5.410542E-1,0E0,2.0988895E-1,0E0,0E0],"parents":[2147483647,0,0,2,2,4,4],"right_children":[2,-1,4,-1,6,-1,-1],"split_conditions":[2.2665E2,-5.2945454E-2,2.0326804E-1,4.8342515E-2,2.2525E2,-3.159485E-2,1.5187836E-2],"split_indices":[1,0,5,0,0,0,0],"split_type":[0,0,0,0,0,0,0],"sum_hessian":[7E0,2E0,5E0,3E0,2E0,1E0,1E0],"tree_param":{"num_deleted":"0","num_feature":"6","num_nodes":"7","size_leaf_vector":"1"}},{"base_weights":[-6.8855286E-4,-3.1512755E-1,3.9253235E-2,2.5356293E-2,-5.206909E-1,-1.4811707E-2,-5.9550982E-2],"categories":[],"categories_nodes":[],"categories_segments":[],"categories_sizes":[],"default_left":[0,0,0,0,0,0,0],"id":15,"left_children":[1,3,-1,-1,5,-1,-1],"loss_changes":[1.1128497E0,7.1653754E-1,0E0,0E0,2.329719E-2,0E0,0E0],"parents":[2147483647,0,0,1,1,4,4],"right_children":[2,4,-1,-1,6,-1,-1],"split_conditions":[2.2525E2,2.2455E2,3.9253235E-2,2.5356293E-2,2.25E2,-1.4811707E-2,-5.9550982E-2],"split_indices":[0,0,0,0,0,0,0],"split_type":[0,0,0,0,0,0,0],"sum_hessian":[7E0,4E0,3E0,1E0,3E0,1E0,2E0],"tree_param":{"num_deleted":"0","num_feature":"6","num_nodes":"7","size_leaf_vector":"1"}},{"base_weights":[-1.8405914E-3,-4.6936545E-1,2.3222859E-1,-1.4070893E-2,-5.6333926E-2,4.211998E-2,-9.714254E-2,-2.7037049E-2,1.2465668E-2],"categories":[],"categories_nodes":[],"categories_segments":[],"categories_sizes":[],"default_left":[0,0,0,0,0,0,0,0,0],"id":16,"left_children":[1,3,5,-1,-1,-1,7,-1,-1],"loss_changes":[9.844653E-1,1.3388455E-2,4.143664E-1,0E0,0E0,0E0,1.4896896E-1,0E0,0E0],"parents":[2147483647,0,0,1,1,2,2,6,6],"right_children":[2,4,6,-1,-1,-1,8,-1,-1],"split_conditions":[2.2665E2,2.25E2,2.0326804E-1,-1.4070893E-2,-5.6333926E-2,4.211998E-2,2.2525E2,-2.7037049E-2,1.2465668E-2],"split_indices":[1,0,5,0,0,0,0,0,0],"split_type":[0,0,0,0,0,0,0,0,0],"sum_hessian":[7E0,2E0,5E0,1E0,1E0,3E0,2E0,1E0,1E0],"tree_param":{"num_deleted":"0","num_feature":"6","num_nodes":"9","size_leaf_vector":"1"}},{"base_weights":[-7.0114136E-3,-4.4589743E-1,2.1360016E-1,-1.3367462E-2,-5.351715E-2,3.896141E-2,-9.2285156E-2,-2.568512E-2,1.1842347E-2],"categories":[],"categories_nodes":[],"categories_segments":[],"categories_sizes":[],"default_left":[0,0,0,0,0,0,0,0,0],"id":17,"left_children":[1,3,5,-1,-1,-1,7,-1,-1],"loss_changes":[8.6983037E-1,1.2081385E-2,3.5899612E-1,0E0,0E0,0E0,1.3444366E-1,0E0,0E0],"parents":[2147483647,0,0,1,1,2,2,6,6],"right_children":[2,4,6,-1,-1,-1,8,-1,-1],"split_conditions":[2.2665E2,2.25E2,2.0326804E-1,-1.3367462E-2,-5.351715E-2,3.896141E-2,2.2525E2,-2.568512E-2,1.1842347E-2],"split_indices":[1,0,5,0,0,0,0,0,0],"split_type":[0,0,0,0,0,0,0,0,0],"sum_hessian":[7E0,2E0,5E0,1E0,1E0,3E0,2E0,1E0,1E0],"tree_param":{"num_deleted":"0","num_feature":"6","num_nodes":"9","size_leaf_vector":"1"}},{"base_weights":[-1.15299225E-2,-4.2360434E-1,1.9642894E-1,-1.2699127E-2,-5.084152E-2,3.6039736E-2,-8.767191E-2,-2.4401093E-2,1.1250305E-2],"categories":[],"categories_nodes":[],"categories_segments":[],"categories_sizes":[],"default_left":[0,0,0,0,0,0,0,0,0],"id":18,"left_children":[1,3,5,-1,-1,-1,7,-1,-1],"loss_changes":[7.687643E-1,1.0903716E-2,3.110981E-1,0E0,0E0,0E0,1.2133745E-1,0E0,0E0],"parents":[2147483647,0,0,1,1,2,2,6,6],"right_children":[2,4,6,-1,-1,-1,8,-1,-1],"split_conditions":[2.2665E2,2.25E2,2.0326804E-1,-1.2699127E-2,-5.084152E-2,3.6039736E-2,2.2525E2,-2.4401093E-2,1.1250305E-2],"split_indices":[1,0,5,0,0,0,0,0,0],"split_type":[0,0,0,0,0,0,0,0,0],"sum_hessian":[7E0,2E0,5E0,1E0,1E0,3E0,2E0,1E0,1E0],"tree_param":{"num_deleted":"0","num_feature":"6","num_nodes":"9","size_leaf_vector":"1"}},{"base_weights":[-1.5459061E-2,-2.6124877E-1,2.9564285E-1,1.8232727E-2,-4.177246E-1,1.1272176E-2,4.2220306E-2,-1.2064362E-2,-4.765371E-2],"categories":[],"categories_nodes":[],"categories_segments":[],"categories_sizes":[],"default_left":[0,0,0,0,0,0,0,0,0],"id":19,"left_children":[1,3,5,-1,7,-1,-1,-1,-1],"loss_changes":[6.889615E-1,4.2320725E-1,4.5010626E-2,0E0,1.239711E-2,0E0,0E0,0E0,0E0],"parents":[2147483647,0,0,1,1,2,2,4,4],"right_children":[2,4,6,-1,8,-1,-1,-1,-1],"split_conditions":[2.2525E2,2.2455E2,2.2698E2,1.8232727E-2,2.25E2,1.1272176E-2,4.2220306E-2,-1.2064362E-2,-4.765371E-2],"split_indices":[0,0,0,0,0,0,0,0,0],"split_type":[0,0,0,0,0,0,0,0,0],"sum_hessian":[7E0,4E0,3E0,1E0,3E0,2E0,1E0,1E0,2E0],"tree_param":{"num_deleted":"0","num_feature":"6","num_nodes":"9","size_leaf_vector":"1"}},{"base_weights":[-1.2413025E-2,-3.825175E-1,1.7470805E-1,-1.1460877E-2,-4.5916747E-2,3.154335E-2,-7.11619E-2,-2.0798493E-2,1.0124207E-2],"categories":[],"categories_nodes":[],"categories_segments":[],"categories_sizes":[],"default_left":[0,0,0,0,0,0,0,0,0],"id":20,"left_children":[1,3,5,-1,-1,-1,7,-1,-1],"loss_changes":[6.208636E-1,8.98096E-3,2.3004782E-1,0E0,0E0,0E0,9.1823325E-2,0E0,0E0],"parents":[2147483647,0,0,1,1,2,2,6,6],"right_children":[2,4,6,-1,-1,-1,8,-1,-1],"split_conditions":[2.2665E2,2.25E2,2.0326804E-1,-1.1460877E-2,-4.5916747E-2,3.154335E-2,2.2525E2,-2.0798493E-2,1.0124207E-2],"split_indices":[1,0,5,0,0,0,0,0,0],"split_type":[0,0,0,0,0,0,0,0,0],"sum_hessian":[7E0,2E0,5E0,1E0,1E0,3E0,2E0,1E0,1E0],"tree_param":{"num_deleted":"0","num_feature":"6","num_nodes":"9","size_leaf_vector":"1"}},{"base_weights":[-1.5733719E-2,-3.6339316E-1,1.6071828E-1,-1.0887909E-2,-4.3621063E-2,2.9177856E-1,-6.7601524E-2,1.3215637E-1,3.8532257E-2,-1.9758606E-2,9.618378E-3,1.574402E-2,4.0794373E-3],"categories":[],"categories_nodes":[],"categories_segments":[],"categories_sizes":[],"default_left":[0,0,0,0,0,0,0,0,0,0,0,0,0],"id":21,"left_children":[1,3,5,-1,-1,7,9,11,-1,-1,-1,-1,-1],"loss_changes":[5.491655E-1,8.10501E-3,1.9926663E-1,0E0,0E0,8.803964E-3,8.287325E-2,5.072616E-4,0E0,0E0,0E0,0E0,0E0],"parents":[2147483647,0,0,1,1,2,2,5,5,6,6,7,7],"right_children":[2,4,6,-1,-1,8,10,12,-1,-1,-1,-1,-1],"split_conditions":[2.2665E2,2.25E2,2.0326804E-1,-1.0887909E-2,-4.3621063E-2,2.264E2,2.2525E2,2.2455E2,3.8532257E-2,-1.9758606E-2,9.618378E-3,1.574402E-2,4.0794373E-3],"split_indices":[1,0,5,0,0,0,0,0,0,0,0,0,0],"split_type":[0,0,0,0,0,0,0,0,0,0,0,0,0],"sum_hessian":[7E0,2E0,5E0,1E0,1E0,3E0,2E0,2E0,1E0,1E0,1E0,1E0,1E0],"tree_param":{"num_deleted":"0","num_feature":"6","num_nodes":"13","size_leaf_vector":"1"}},{"base_weights":[-1.4944077E-2,-3.4521994E-1,1.5268452E-1,-1.0343171E-2,-4.143982E-2,2.7719116E-1,-6.4219154E-2,1.2554932E-1,3.6605835E-2,-1.87706E-2,9.137726E-3,1.4956665E-2,3.8757324E-3],"categories":[],"categories_nodes":[],"categories_segments":[],"categories_sizes":[],"default_left":[0,0,0,0,0,0,0,0,0,0,0,0,0],"id":22,"left_children":[1,3,5,-1,-1,7,9,11,-1,-1,-1,-1,-1],"loss_changes":[4.9561918E-1,7.317573E-3,1.7983665E-1,0E0,0E0,7.945567E-3,7.479438E-2,4.5673177E-4,0E0,0E0,0E0,0E0,0E0],"parents":[2147483647,0,0,1,1,2,2,5,5,6,6,7,7],"right_children":[2,4,6,-1,-1,8,10,12,-1,-1,-1,-1,-1],"split_conditions":[2.2665E2,2.25E2,2.0326804E-1,-1.0343171E-2,-4.143982E-2,2.264E2,2.2525E2,2.2455E2,3.6605835E-2,-1.87706E-2,9.137726E-3,1.4956665E-2,3.8757324E-3],"split_indices":[1,0,5,0,0,0,0,0,0,0,0,0,0],"split_type":[0,0,0,0,0,0,0,0,0,0,0,0,0],"sum_hessian":[7E0,2E0,5E0,1E0,1E0,3E0,2E0,2E0,1E0,1E0,1E0,1E0,1E0],"tree_param":{"num_deleted":"0","num_feature":"6","num_nodes":"13","size_leaf_vector":"1"}},{"base_weights":[-1.4196396E-2,-3.2795715E-1,1.4505005E-1,-9.825897E-3,-3.9367676E-2,2.6333237E-1,-6.1009724E-2,1.19272865E-1,3.4775544E-2,-1.7832184E-2,8.6807255E-3,1.4208985E-2,3.6819458E-3],"categories":[],"categories_nodes":[],"categories_segments":[],"categories_sizes":[],"default_left":[0,0,0,0,0,0,0,0,0,0,0,0,0],"id":23,"left_children":[1,3,5,-1,-1,7,9,11,-1,-1,-1,-1,-1],"loss_changes":[4.472925E-1,6.604731E-3,1.6230519E-1,0E0,0E0,7.1699917E-3,6.75018E-2,4.1233748E-4,0E0,0E0,0E0,0E0,0E0],"parents":[2147483647,0,0,1,1,2,2,5,5,6,6,7,7],"right_children":[2,4,6,-1,-1,8,10,12,-1,-1,-1,-1,-1],"split_conditions":[2.2665E2,2.25E2,2.0326804E-1,-9.825897E-3,-3.9367676E-2,2.264E2,2.2525E2,2.2455E2,3.4775544E-2,-1.7832184E-2,8.6807255E-3,1.4208985E-2,3.6819458E-3],"split_indices":[1,0,5,0,0,0,0,0,0,0,0,0,0],"split_type":[0,0,0,0,0,0,0,0,0,0,0,0,0],"sum_hessian":[7E0,2E0,5E0,1E0,1E0,3E0,2E0,2E0,1E0,1E0,1E0,1E0,1E0],"tree_param":{"num_deleted":"0","num_feature":"6","num_nodes":"13","size_leaf_vector":"1"}},{"base_weights":[-1.3484955E-2,-3.1155905E-1,1.3779958E-1,-9.334564E-3,-3.7399292E-2,2.5016785E-1,-5.7957966E-2,1.1331177E-1,3.3036806E-2,-1.6940309E-2,8.246613E-3,1.3498688E-2,3.4980774E-3],"categories":[],"categories_nodes":[],"categories_segments":[],"categories_sizes":[],"default_left":[0,0,0,0,0,0,0,0,0,0,0,0,0],"id":24,"left_children":[1,3,5,-1,-1,7,9,11,-1,-1,-1,-1,-1],"loss_changes":[4.036847E-1,5.96112E-3,1.4648086E-1,0E0,0E0,6.4689517E-3,6.091875E-2,3.7154928E-4,0E0,0E0,0E0,0E0,0E0],"parents":[2147483647,0,0,1,1,2,2,5,5,6,6,7,7],"right_children":[2,4,6,-1,-1,8,10,12,-1,-1,-1,-1,-1],"split_conditions":[2.2665E2,2.25E2,2.0326804E-1,-9.334564E-3,-3.7399292E-2,2.264E2,2.2525E2,2.2455E2,3.3036806E-2,-1.6940309E-2,8.246613E-3,1.3498688E-2,3.4980774E-3],"split_indices":[1,0,5,0,0,0,0,0,0,0,0,0,0],"split_type":[0,0,0,0,0,0,0,0,0,0,0,0,0],"sum_hessian":[7E0,2E0,5E0,1E0,1E0,3E0,2E0,2E0,1E0,1E0,1E0,1E0,1E0],"tree_param":{"num_deleted":"0","num_feature":"6","num_nodes":"13","size_leaf_vector":"1"}},{"base_weights":[-1.2809753E-2,-2.9597983E-1,1.3091023E-1,-8.867646E-3,-3.5529327E-2,2.3765945E-1,-5.5058796E-2,1.0764567E-1,3.138504E-2,-1.6093446E-2,7.834625E-3,1.2823487E-2,3.3233643E-3],"categories":[],"categories_nodes":[],"categories_segments":[],"categories_sizes":[],"default_left":[0,0,0,0,0,0,0,0,0,0,0,0,0],"id":25,"left_children":[1,3,5,-1,-1,7,9,11,-1,-1,-1,-1,-1],"loss_changes":[3.643244E-1,5.381465E-3,1.3219753E-1,0E0,0E0,5.838856E-3,5.4981653E-2,3.3453852E-4,0E0,0E0,0E0,0E0,0E0],"parents":[2147483647,0,0,1,1,2,2,5,5,6,6,7,7],"right_children":[2,4,6,-1,-1,8,10,12,-1,-1,-1,-1,-1],"split_conditions":[2.2665E2,2.25E2,2.0326804E-1,-8.867646E-3,-3.5529327E-2,2.264E2,2.2525E2,2.2455E2,3.138504E-2,-1.6093446E-2,7.834625E-3,1.2823487E-2,3.3233643E-3],"split_indices":[1,0,5,0,0,0,0,0,0,0,0,0,0],"split_type":[0,0,0,0,0,0,0,0,0,0,0,0,0],"sum_hessian":[7E0,2E0,5E0,1E0,1E0,3E0,2E0,2E0,1E0,1E0,1E0,1E0,1E0],"tree_param":{"num_deleted":"0","num_feature":"6","num_nodes":"13","size_leaf_vector":"1"}},{"base_weights":[-1.2168884E-2,-2.8118387E-1,1.2436676E-1,-8.424378E-3,-3.3753205E-2,2.2577667E-1,-5.2302044E-2,1.02264404E-1,2.9815674E-2,-1.5288544E-2,7.4432376E-3,1.2182618E-2,3.1570436E-3],"categories":[],"categories_nodes":[],"categories_segments":[],"categories_sizes":[],"default_left":[0,0,0,0,0,0,0,0,0,0,0,0,0],"id":26,"left_children":[1,3,5,-1,-1,7,9,11,-1,-1,-1,-1,-1],"loss_changes":[3.2881102E-1,4.856661E-3,1.19304396E-1,0E0,0E0,5.2684695E-3,4.962176E-2,3.0259043E-4,0E0,0E0,0E0,0E0,0E0],"parents":[2147483647,0,0,1,1,2,2,5,5,6,6,7,7],"right_children":[2,4,6,-1,-1,8,10,12,-1,-1,-1,-1,-1],"split_conditions":[2.2665E2,2.25E2,2.0326804E-1,-8.424378E-3,-3.3753205E-2,2.264E2,2.2525E2,2.2455E2,2.9815674E-2,-1.5288544E-2,7.4432376E-3,1.2182618E-2,3.1570436E-3],"split_indices":[1,0,5,0,0,0,0,0,0,0,0,0,0],"split_type":[0,0,0,0,0,0,0,0,0,0,0,0,0],"sum_hessian":[7E0,2E0,5E0,1E0,1E0,3E0,2E0,2E0,1E0,1E0,1E0,1E0,1E0],"tree_param":{"num_deleted":"0","num_feature":"6","num_nodes":"13","size_leaf_vector":"1"}},{"base_weights":[-1.156044E-2,-2.6712546E-1,1.181488E-1,-8.003235E-3,-3.206558E-2,2.1448898E-1,-4.9687702E-2,9.715271E-2,2.832489E-2,-1.4524079E-2,7.0709228E-3,1.15737915E-2,2.999115E-3],"categories":[],"categories_nodes":[],"categories_segments":[],"categories_sizes":[],"default_left":[0,0,0,0,0,0,0,0,0,0,0,0,0],"id":27,"left_children":[1,3,5,-1,-1,7,9,11,-1,-1,-1,-1,-1],"loss_changes":[2.9675367E-1,4.382655E-3,1.0767387E-1,0E0,0E0,4.7537237E-3,4.4782754E-2,2.73522E-4,0E0,0E0,0E0,0E0,0E0],"parents":[2147483647,0,0,1,1,2,2,5,5,6,6,7,7],"right_children":[2,4,6,-1,-1,8,10,12,-1,-1,-1,-1,-1],"split_conditions":[2.2665E2,2.25E2,2.0326804E-1,-8.003235E-3,-3.206558E-2,2.264E2,2.2525E2,2.2455E2,2.832489E-2,-1.4524079E-2,7.0709228E-3,1.15737915E-2,2.999115E-3],"split_indices":[1,0,5,0,0,0,0,0,0,0,0,0,0],"split_type":[0,0,0,0,0,0,0,0,0,0,0,0,0],"sum_hessian":[7E0,2E0,5E0,1E0,1E0,3E0,2E0,2E0,1E0,1E0,1E0,1E0,1E0],"tree_param":{"num_deleted":"0","num_feature":"6","num_nodes":"13","size_leaf_vector":"1"}},{"base_weights":[-1.0982513E-2,-2.5377402E-1,1.1224365E-1,-7.603455E-3,-3.0462647E-2,2.0376587E-1,-4.720052E-2,9.229533E-2,2.6908875E-2,-1.379776E-2,6.717682E-3,1.0995484E-2,2.8488159E-3],"categories":[],"categories_nodes":[],"categories_segments":[],"categories_sizes":[],"default_left":[0,0,0,0,0,0,0,0,0,0,0,0,0],"id":28,"left_children":[1,3,5,-1,-1,7,9,11,-1,-1,-1,-1,-1],"loss_changes":[2.6783064E-1,3.953308E-3,9.717395E-2,0E0,0E0,4.29067E-3,4.041742E-2,2.4799816E-4,0E0,0E0,0E0,0E0,0E0],"parents":[2147483647,0,0,1,1,2,2,5,5,6,6,7,7],"right_children":[2,4,6,-1,-1,8,10,12,-1,-1,-1,-1,-1],"split_conditions":[2.2665E2,2.25E2,2.0326804E-1,-7.603455E-3,-3.0462647E-2,2.264E2,2.2525E2,2.2455E2,2.6908875E-2,-1.379776E-2,6.717682E-3,1.0995484E-2,2.8488159E-3],"split_indices":[1,0,5,0,0,0,0,0,0,0,0,0,0],"split_type":[0,0,0,0,0,0,0,0,0,0,0,0,0],"sum_hessian":[7E0,2E0,5E0,1E0,1E0,3E0,2E0,2E0,1E0,1E0,1E0,1E0,1E0],"tree_param":{"num_deleted":"0","num_feature":"6","num_nodes":"13","size_leaf_vector":"1"}},{"base_weights":[-1.0437012E-2,-2.4108887E-1,1.0662842E-1,-7.2235106E-3,-2.8939819E-2,1.93573E-1,-4.4840496E-2,8.7677E-2,2.556305E-2,-1.3108063E-2,6.3819885E-3,1.0445404E-2,2.7061463E-3],"categories":[],"categories_nodes":[],"categories_segments":[],"categories_sizes":[],"default_left":[0,0,0,0,0,0,0,0,0,0,0,0,0],"id":29,"left_children":[1,3,5,-1,-1,7,9,11,-1,-1,-1,-1,-1],"loss_changes":[2.4171779E-1,3.5669208E-3,8.769631E-2,0E0,0E0,3.8736463E-3,3.6478207E-2,2.241712E-4,0E0,0E0,0E0,0E0,0E0],"parents":[2147483647,0,0,1,1,2,2,5,5,6,6,7,7],"right_children":[2,4,6,-1,-1,8,10,12,-1,-1,-1,-1,-1],"split_conditions":[2.2665E2,2.25E2,2.0326804E-1,-7.2235106E-3,-2.8939819E-2,2.264E2,2.2525E2,2.2455E2,2.556305E-2,-1.3108063E-2,6.3819885E-3,1.0445404E-2,2.7061463E-3],"split_indices":[1,0,5,0,0,0,0,0,0,0,0,0,0],"split_type":[0,0,0,0,0,0,0,0,0,0,0,0,0],"sum_hessian":[7E0,2E0,5E0,1E0,1E0,3E0,2E0,2E0,1E0,1E0,1E0,1E0,1E0],"tree_param":{"num_deleted":"0","num_feature":"6","num_nodes":"13","size_leaf_vector":"1"}},{"base_weights":[-9.914398E-3,-2.2903442E-1,1.0129801E-1,-6.8626404E-3,-2.7492523E-2,1.8389511E-1,-4.2597454E-2,8.329264E-2,2.4285126E-2,-1.2452698E-2,6.06308E-3,9.92279E-3,2.571106E-3],"categories":[],"categories_nodes":[],"categories_segments":[],"categories_sizes":[],"default_left":[0,0,0,0,0,0,0,0,0,0,0,0,0],"id":30,"left_children":[1,3,5,-1,-1,7,9,11,-1,-1,-1,-1,-1],"loss_changes":[2.1815166E-1,3.2166392E-3,7.914555E-2,0E0,0E0,3.4968108E-3,3.2922495E-2,2.0147674E-4,0E0,0E0,0E0,0E0,0E0],"parents":[2147483647,0,0,1,1,2,2,5,5,6,6,7,7],"right_children":[2,4,6,-1,-1,8,10,12,-1,-1,-1,-1,-1],"split_conditions":[2.2665E2,2.25E2,2.0326804E-1,-6.8626404E-3,-2.7492523E-2,2.264E2,2.2525E2,2.2455E2,2.4285126E-2,-1.2452698E-2,6.06308E-3,9.92279E-3,2.571106E-3],"split_indices":[1,0,5,0,0,0,0,0,0,0,0,0,0],"split_type":[0,0,0,0,0,0,0,0,0,0,0,0,0],"sum_hessian":[7E0,2E0,5E0,1E0,1E0,3E0,2E0,2E0,1E0,1E0,1E0,1E0,1E0],"tree_param":{"num_deleted":"0","num_feature":"6","num_nodes":"13","size_leaf_vector":"1"}},{"base_weights":[-9.41658E-3,-2.1758015E-1,9.623464E-2,-6.5193176E-3,-2.6117707E-2,1.7470169E-1,-4.046631E-2,7.913208E-2,2.3070527E-2,-1.1830139E-2,5.760193E-3,9.42688E-3,2.4429322E-3],"categories":[],"categories_nodes":[],"categories_segments":[],"categories_sizes":[],"default_left":[0,0,0,0,0,0,0,0,0,0,0,0,0],"id":31,"left_children":[1,3,5,-1,-1,7,9,11,-1,-1,-1,-1,-1],"loss_changes":[1.9688064E-1,2.903834E-3,7.142866E-2,0E0,0E0,3.1527728E-3,2.9713836E-2,1.8113852E-4,0E0,0E0,0E0,0E0,0E0],"parents":[2147483647,0,0,1,1,2,2,5,5,6,6,7,7],"right_children":[2,4,6,-1,-1,8,10,12,-1,-1,-1,-1,-1],"split_conditions":[2.2665E2,2.25E2,2.0326804E-1,-6.5193176E-3,-2.6117707E-2,2.264E2,2.2525E2,2.2455E2,2.3070527E-2,-1.1830139E-2,5.760193E-3,9.42688E-3,2.4429322E-3],"split_indices":[1,0,5,0,0,0,0,0,0,0,0,0,0],"split_type":[0,0,0,0,0,0,0,0,0,0,0,0,0],"sum_hessian":[7E0,2E0,5E0,1E0,1E0,3E0,2E0,2E0,1E0,1E0,1E0,1E0,1E0],"tree_param":{"num_deleted":"0","num_feature":"6","num_nodes":"13","size_leaf_vector":"1"}},{"base_weights":[-8.945465E-3,-2.0670064E-1,9.1423035E-2,-6.1935424E-3,-2.4811555E-2,1.6596603E-1,-3.8441975E-2,7.5174965E-2,2.1916961E-2,-1.1238861E-2,5.4725646E-3,8.955384E-3,2.320862E-3],"categories":[],"categories_nodes":[],"categories_segments":[],"categories_sizes":[],"default_left":[0,0,0,0,0,0,0,0,0,0,0,0,0],"id":32,"left_children":[1,3,5,-1,-1,7,9,11,-1,-1,-1,-1,-1],"loss_changes":[1.7768432E-1,2.6191622E-3,6.446323E-2,0E0,0E0,2.8455704E-3,2.6818838E-2,1.6322918E-4,0E0,0E0,0E0,0E0,0E0],"parents":[2147483647,0,0,1,1,2,2,5,5,6,6,7,7],"right_children":[2,4,6,-1,-1,8,10,12,-1,-1,-1,-1,-1],"split_conditions":[2.2665E2,2.25E2,2.0326804E-1,-6.1935424E-3,-2.4811555E-2,2.264E2,2.2525E2,2.2455E2,2.1916961E-2,-1.1238861E-2,5.4725646E-3,8.955384E-3,2.320862E-3],"split_indices":[1,0,5,0,0,0,0,0,0,0,0,0,0],"split_type":[0,0,0,0,0,0,0,0,0,0,0,0,0],"sum_hessian":[7E0,2E0,5E0,1E0,1E0,3E0,2E0,2E0,1E0,1E0,1E0,1E0,1E0],"tree_param":{"num_deleted":"0","num_feature":"6","num_nodes":"13","size_leaf_vector":"1"}},{"base_weights":[-8.497238E-3,-1.9636536E-1,8.685303E-2,-5.883789E-3,-2.3571014E-2,1.5766907E-1,-3.6519367E-2,7.141622E-2,2.0821381E-2,-1.0676575E-2,5.1986696E-3,8.507538E-3,2.204895E-3],"categories":[],"categories_nodes":[],"categories_segments":[],"categories_sizes":[],"default_left":[0,0,0,0,0,0,0,0,0,0,0,0,0],"id":33,"left_children":[1,3,5,-1,-1,7,9,11,-1,-1,-1,-1,-1],"loss_changes":[1.6036113E-1,2.3642778E-3,5.8178443E-2,0E0,0E0,2.5686696E-3,2.4202088E-2,1.4712289E-4,0E0,0E0,0E0,0E0,0E0],"parents":[2147483647,0,0,1,1,2,2,5,5,6,6,7,7],"right_children":[2,4,6,-1,-1,8,10,12,-1,-1,-1,-1,-1],"split_conditions":[2.2665E2,2.25E2,2.0326804E-1,-5.883789E-3,-2.3571014E-2,2.264E2,2.2525E2,2.2455E2,2.0821381E-2,-1.0676575E-2,5.1986696E-3,8.507538E-3,2.204895E-3],"split_indices":[1,0,5,0,0,0,0,0,0,0,0,0,0],"split_type":[0,0,0,0,0,0,0,0,0,0,0,0,0],"sum_hessian":[7E0,2E0,5E0,1E0,1E0,3E0,2E0,2E0,1E0,1E0,1E0,1E0,1E0],"tree_param":{"num_deleted":"0","num_feature":"6","num_nodes":"13","size_leaf_vector":"1"}},{"base_weights":[-8.071899E-3,-1.8654378E-1,8.250936E-2,-5.5892947E-3,-2.2392273E-2,1.4978409E-1,-3.46934E-2,6.7845665E-2,1.9779969E-2,-1.0142517E-2,4.938507E-3,8.081818E-3,2.0950318E-3],"categories":[],"categories_nodes":[],"categories_segments":[],"categories_sizes":[],"default_left":[0,0,0,0,0,0,0,0,0,0,0,0,0],"id":34,"left_children":[1,3,5,-1,-1,7,9,11,-1,-1,-1,-1,-1],"loss_changes":[1.4472127E-1,2.1350756E-3,5.2505225E-2,0E0,0E0,2.317436E-3,2.1841004E-2,1.3188366E-4,0E0,0E0,0E0,0E0,0E0],"parents":[2147483647,0,0,1,1,2,2,5,5,6,6,7,7],"right_children":[2,4,6,-1,-1,8,10,12,-1,-1,-1,-1,-1],"split_conditions":[2.2665E2,2.25E2,2.0326804E-1,-5.5892947E-3,-2.2392273E-2,2.264E2,2.2525E2,2.2455E2,1.9779969E-2,-1.0142517E-2,4.938507E-3,8.081818E-3,2.0950318E-3],"split_indices":[1,0,5,0,0,0,0,0,0,0,0,0,0],"split_type":[0,0,0,0,0,0,0,0,0,0,0,0,0],"sum_hessian":[7E0,2E0,5E0,1E0,1E0,3E0,2E0,2E0,1E0,1E0,1E0,1E0,1E0],"tree_param":{"num_deleted":"0","num_feature":"6","num_nodes":"13","size_leaf_vector":"1"}},{"base_weights":[-7.669449E-3,-1.7722066E-1,7.83844E-2,-5.3100586E-3,-2.1273041E-2,1.4229584E-1,-3.2958984E-2,6.4453125E-2,1.8791199E-2,-9.635163E-3,4.691315E-3,7.6774596E-3,1.990509E-3],"categories":[],"categories_nodes":[],"categories_segments":[],"categories_sizes":[],"default_left":[0,0,0,0,0,0,0,0,0,0,0,0,0],"id":35,"left_children":[1,3,5,-1,-1,7,9,11,-1,-1,-1,-1,-1],"loss_changes":[1.3061562E-1,1.9263029E-3,4.738662E-2,0E0,0E0,2.0920262E-3,1.9710075E-2,1.1848658E-4,0E0,0E0,0E0,0E0,0E0],"parents":[2147483647,0,0,1,1,2,2,5,5,6,6,7,7],"right_children":[2,4,6,-1,-1,8,10,12,-1,-1,-1,-1,-1],"split_conditions":[2.2665E2,2.25E2,2.0326804E-1,-5.3100586E-3,-2.1273041E-2,2.264E2,2.2525E2,2.2455E2,1.8791199E-2,-9.635163E-3,4.691315E-3,7.6774596E-3,1.990509E-3],"split_indices":[1,0,5,0,0,0,0,0,0,0,0,0,0],"split_type":[0,0,0,0,0,0,0,0,0,0,0,0,0],"sum_hessian":[7E0,2E0,5E0,1E0,1E0,3E0,2E0,2E0,1E0,1E0,1E0,1E0,1E0],"tree_param":{"num_deleted":"0","num_feature":"6","num_nodes":"13","size_leaf_vector":"1"}},{"base_weights":[-7.286072E-3,-1.683604E-1,7.446543E-2,-5.0445558E-3,-2.0209504E-2,1.3518143E-1,-3.1311035E-2,6.123352E-2,1.7851258E-2,-9.153748E-3,4.4570924E-3,7.293701E-3,1.891327E-3],"categories":[],"categories_nodes":[],"categories_segments":[],"categories_sizes":[],"default_left":[0,0,0,0,0,0,0,0,0,0,0,0,0],"id":36,"left_children":[1,3,5,-1,-1,7,9,11,-1,-1,-1,-1,-1],"loss_changes":[1.1788157E-1,1.7386526E-3,4.276661E-2,0E0,0E0,1.88604E-3,1.779021E-2,1.064064E-4,0E0,0E0,0E0,0E0,0E0],"parents":[2147483647,0,0,1,1,2,2,5,5,6,6,7,7],"right_children":[2,4,6,-1,-1,8,10,12,-1,-1,-1,-1,-1],"split_conditions":[2.2665E2,2.25E2,2.0326804E-1,-5.0445558E-3,-2.0209504E-2,2.264E2,2.2525E2,2.2455E2,1.7851258E-2,-9.153748E-3,4.4570924E-3,7.293701E-3,1.891327E-3],"split_indices":[1,0,5,0,0,0,0,0,0,0,0,0,0],"split_type":[0,0,0,0,0,0,0,0,0,0,0,0,0],"sum_hessian":[7E0,2E0,5E0,1E0,1E0,3E0,2E0,2E0,1E0,1E0,1E0,1E0,1E0],"tree_param":{"num_deleted":"0","num_feature":"6","num_nodes":"13","size_leaf_vector":"1"}},{"base_weights":[-6.921768E-3,-1.5994263E-1,7.074229E-2,-4.792023E-3,-1.9199371E-2,1.2842178E-1,-2.9744467E-2,5.817159E-2,1.6958619E-2,-8.695984E-3,4.234314E-3,6.929016E-3,1.7967224E-3],"categories":[],"categories_nodes":[],"categories_segments":[],"categories_sizes":[],"default_left":[0,0,0,0,0,0,0,0,0,0,0,0,0],"id":37,"left_children":[1,3,5,-1,-1,7,9,11,-1,-1,-1,-1,-1],"loss_changes":[1.0638848E-1,1.5709326E-3,3.859599E-2,0E0,0E0,1.7021298E-3,1.6055709E-2,9.609293E-5,0E0,0E0,0E0,0E0,0E0],"parents":[2147483647,0,0,1,1,2,2,5,5,6,6,7,7],"right_children":[2,4,6,-1,-1,8,10,12,-1,-1,-1,-1,-1],"split_conditions":[2.2665E2,2.25E2,2.0326804E-1,-4.792023E-3,-1.9199371E-2,2.264E2,2.2525E2,2.2455E2,1.6958619E-2,-8.695984E-3,4.234314E-3,6.929016E-3,1.7967224E-3],"split_indices":[1,0,5,0,0,0,0,0,0,0,0,0,0],"split_type":[0,0,0,0,0,0,0,0,0,0,0,0,0],"sum_hessian":[7E0,2E0,5E0,1E0,1E0,3E0,2E0,2E0,1E0,1E0,1E0,1E0,1E0],"tree_param":{"num_deleted":"0","num_feature":"6","num_nodes":"13","size_leaf_vector":"1"}},{"base_weights":[-6.5746307E-3,-1.5194702E-1,6.720734E-2,-4.55246E-3,-1.8239593E-2,1.2200165E-1,-2.825419E-2,5.526225E-2,1.6110992E-2,-8.261109E-3,4.0229796E-3,6.5826415E-3,1.7066955E-3],"categories":[],"categories_nodes":[],"categories_segments":[],"categories_sizes":[],"default_left":[0,0,0,0,0,0,0,0,0,0,0,0,0],"id":38,"left_children":[1,3,5,-1,-1,7,9,11,-1,-1,-1,-1,-1],"loss_changes":[9.601884E-2,1.417838E-3,3.4831546E-2,0E0,0E0,1.5369542E-3,1.4491158E-2,8.704793E-5,0E0,0E0,0E0,0E0,0E0],"parents":[2147483647,0,0,1,1,2,2,5,5,6,6,7,7],"right_children":[2,4,6,-1,-1,8,10,12,-1,-1,-1,-1,-1],"split_conditions":[2.2665E2,2.25E2,2.0326804E-1,-4.55246E-3,-1.8239593E-2,2.264E2,2.2525E2,2.2455E2,1.6110992E-2,-8.261109E-3,4.0229796E-3,6.5826415E-3,1.7066955E-3],"split_indices":[1,0,5,0,0,0,0,0,0,0,0,0,0],"split_type":[0,0,0,0,0,0,0,0,0,0,0,0,0],"sum_hessian":[7E0,2E0,5E0,1E0,1E0,3E0,2E0,2E0,1E0,1E0,1E0,1E0,1E0],"tree_param":{"num_deleted":"0","num_feature":"6","num_nodes":"13","size_leaf_vector":"1"}},{"base_weights":[-6.248474E-3,-1.4435323E-1,6.3845314E-2,-4.325104E-3,-1.732788E-2,1.1590195E-1,-2.6845297E-2,5.250041E-2,1.5305328E-2,-7.848359E-3,3.8215637E-3,6.253815E-3,1.6212463E-3],"categories":[],"categories_nodes":[],"categories_segments":[],"categories_sizes":[],"default_left":[0,0,0,0,0,0,0,0,0,0,0,0,0],"id":39,"left_children":[1,3,5,-1,-1,7,9,11,-1,-1,-1,-1,-1],"loss_changes":[8.665857E-2,1.2788251E-3,3.143771E-2,0E0,0E0,1.386445E-3,1.3078205E-2,7.8849494E-5,0E0,0E0,0E0,0E0,0E0],"parents":[2147483647,0,0,1,1,2,2,5,5,6,6,7,7],"right_children":[2,4,6,-1,-1,8,10,12,-1,-1,-1,-1,-1],"split_conditions":[2.2665E2,2.25E2,2.0326804E-1,-4.325104E-3,-1.732788E-2,2.264E2,2.2525E2,2.2455E2,1.5305328E-2,-7.848359E-3,3.8215637E-3,6.253815E-3,1.6212463E-3],"split_indices":[1,0,5,0,0,0,0,0,0,0,0,0,0],"split_type":[0,0,0,0,0,0,0,0,0,0,0,0,0],"sum_hessian":[7E0,2E0,5E0,1E0,1E0,3E0,2E0,2E0,1E0,1E0,1E0,1E0,1E0],"tree_param":{"num_deleted":"0","num_feature":"6","num_nodes":"13","size_leaf_vector":"1"}},{"base_weights":[-5.935669E-3,-1.3713582E-1,6.0653687E-2,-4.109192E-3,-1.6461182E-2,1.1010742E-1,-2.5502523E-2,4.9875896E-2,1.45401005E-2,-7.456207E-3,3.6308288E-3,5.9410096E-3,1.5403748E-3],"categories":[],"categories_nodes":[],"categories_segments":[],"categories_sizes":[],"default_left":[0,0,0,0,0,0,0,0,0,0,0,0,0],"id":40,"left_children":[1,3,5,-1,-1,7,9,11,-1,-1,-1,-1,-1],"loss_changes":[7.821006E-2,1.1524893E-3,2.8372495E-2,0E0,0E0,1.2511387E-3,1.1804453E-2,7.085502E-5,0E0,0E0,0E0,0E0,0E0],"parents":[2147483647,0,0,1,1,2,2,5,5,6,6,7,7],"right_children":[2,4,6,-1,-1,8,10,12,-1,-1,-1,-1,-1],"split_conditions":[2.2665E2,2.25E2,2.0326804E-1,-4.109192E-3,-1.6461182E-2,2.264E2,2.2525E2,2.2455E2,1.45401005E-2,-7.456207E-3,3.6308288E-3,5.9410096E-3,1.5403748E-3],"split_indices":[1,0,5,0,0,0,0,0,0,0,0,0,0],"split_type":[0,0,0,0,0,0,0,0,0,0,0,0,0],"sum_hessian":[7E0,2E0,5E0,1E0,1E0,3E0,2E0,2E0,1E0,1E0,1E0,1E0,1E0],"tree_param":{"num_deleted":"0","num_feature":"6","num_nodes":"13","size_leaf_vector":"1"}},{"base_weights":[-5.6381226E-3,-1.3027954E-1,5.7622273E-2,-3.9039613E-3,-1.563797E-2,1.0460281E-1,-2.422587E-2,4.7383625E-2,1.3813019E-2,-7.08313E-3,3.4492493E-3,5.644226E-3,1.4633179E-3],"categories":[],"categories_nodes":[],"categories_segments":[],"categories_sizes":[],"default_left":[0,0,0,0,0,0,0,0,0,0,0,0,0],"id":41,"left_children":[1,3,5,-1,-1,7,9,11,-1,-1,-1,-1,-1],"loss_changes":[7.058593E-2,1.039125E-3,2.5605716E-2,0E0,0E0,1.1285283E-3,1.0652931E-2,6.4093154E-5,0E0,0E0,0E0,0E0,0E0],"parents":[2147483647,0,0,1,1,2,2,5,5,6,6,7,7],"right_children":[2,4,6,-1,-1,8,10,12,-1,-1,-1,-1,-1],"split_conditions":[2.2665E2,2.25E2,2.0326804E-1,-3.9039613E-3,-1.563797E-2,2.264E2,2.2525E2,2.2455E2,1.3813019E-2,-7.08313E-3,3.4492493E-3,5.644226E-3,1.4633179E-3],"split_indices":[1,0,5,0,0,0,0,0,0,0,0,0,0],"split_type":[0,0,0,0,0,0,0,0,0,0,0,0,0],"sum_hessian":[7E0,2E0,5E0,1E0,1E0,3E0,2E0,2E0,1E0,1E0,1E0,1E0,1E0],"tree_param":{"num_deleted":"0","num_feature":"6","num_nodes":"13","size_leaf_vector":"1"}},{"base_weights":[-5.355835E-3,-1.2376404E-1,5.4740906E-2,-3.7086487E-3,-1.4855958E-2,9.9372864E-2,-2.301534E-2,4.5013428E-2,1.3122559E-2,-6.729126E-3,3.276825E-3,5.3619384E-3,1.3900757E-3],"categories":[],"categories_nodes":[],"categories_segments":[],"categories_sizes":[],"default_left":[0,0,0,0,0,0,0,0,0,0,0,0,0],"id":42,"left_children":[1,3,5,-1,-1,7,9,11,-1,-1,-1,-1,-1],"loss_changes":[6.370254E-2,9.380914E-4,2.3109583E-2,0E0,0E0,1.0190718E-3,9.614626E-3,5.7913363E-5,0E0,0E0,0E0,0E0,0E0],"parents":[2147483647,0,0,1,1,2,2,5,5,6,6,7,7],"right_children":[2,4,6,-1,-1,8,10,12,-1,-1,-1,-1,-1],"split_conditions":[2.2665E2,2.25E2,2.0326804E-1,-3.7086487E-3,-1.4855958E-2,2.264E2,2.2525E2,2.2455E2,1.3122559E-2,-6.729126E-3,3.276825E-3,5.3619384E-3,1.3900757E-3],"split_indices":[1,0,5,0,0,0,0,0,0,0,0,0,0],"split_type":[0,0,0,0,0,0,0,0,0,0,0,0,0],"sum_hessian":[7E0,2E0,5E0,1E0,1E0,3E0,2E0,2E0,1E0,1E0,1E0,1E0,1E0],"tree_param":{"num_deleted":"0","num_feature":"6","num_nodes":"13","size_leaf_vector":"1"}},{"base_weights":[-5.086899E-3,-1.1757406E-1,5.2004497E-2,-3.5232545E-3,-1.4112854E-2,9.440613E-2,-2.1865845E-2,4.27653E-2,1.2466431E-2,-6.39267E-3,3.112793E-3,5.094147E-3,1.3206482E-3],"categories":[],"categories_nodes":[],"categories_segments":[],"categories_sizes":[],"default_left":[0,0,0,0,0,0,0,0,0,0,0,0,0],"id":43,"left_children":[1,3,5,-1,-1,7,9,11,-1,-1,-1,-1,-1],"loss_changes":[5.749077E-2,8.462183E-4,2.0857606E-2,0E0,0E0,9.189248E-4,8.676795E-3,5.22756E-5,0E0,0E0,0E0,0E0,0E0],"parents":[2147483647,0,0,1,1,2,2,5,5,6,6,7,7],"right_children":[2,4,6,-1,-1,8,10,12,-1,-1,-1,-1,-1],"split_conditions":[2.2665E2,2.25E2,2.0326804E-1,-3.5232545E-3,-1.4112854E-2,2.264E2,2.2525E2,2.2455E2,1.2466431E-2,-6.39267E-3,3.112793E-3,5.094147E-3,1.3206482E-3],"split_indices":[1,0,5,0,0,0,0,0,0,0,0,0,0],"split_type":[0,0,0,0,0,0,0,0,0,0,0,0,0],"sum_hessian":[7E0,2E0,5E0,1E0,1E0,3E0,2E0,2E0,1E0,1E0,1E0,1E0,1E0],"tree_param":{"num_deleted":"0","num_feature":"6","num_nodes":"13","size_leaf_vector":"1"}},{"base_weights":[-4.8332214E-3,-1.11694336E-1,4.9402874E-2,-3.3470155E-3,-1.3407135E-2,8.968353E-2,-2.0772299E-2,4.062398E-2,1.18431095E-2,-6.072998E-3,2.9571534E-3,4.839325E-3,1.2542725E-3],"categories":[],"categories_nodes":[],"categories_segments":[],"categories_sizes":[],"default_left":[0,0,0,0,0,0,0,0,0,0,0,0,0],"id":44,"left_children":[1,3,5,-1,-1,7,9,11,-1,-1,-1,-1,-1],"loss_changes":[5.1883858E-2,7.6388195E-4,1.8823147E-2,0E0,0E0,8.3022565E-4,7.830747E-3,4.7529116E-5,0E0,0E0,0E0,0E0,0E0],"parents":[2147483647,0,0,1,1,2,2,5,5,6,6,7,7],"right_children":[2,4,6,-1,-1,8,10,12,-1,-1,-1,-1,-1],"split_conditions":[2.2665E2,2.25E2,2.0326804E-1,-3.3470155E-3,-1.3407135E-2,2.264E2,2.2525E2,2.2455E2,1.18431095E-2,-6.072998E-3,2.9571534E-3,4.839325E-3,1.2542725E-3],"split_indices":[1,0,5,0,0,0,0,0,0,0,0,0,0],"split_type":[0,0,0,0,0,0,0,0,0,0,0,0,0],"sum_hessian":[7E0,2E0,5E0,1E0,1E0,3E0,2E0,2E0,1E0,1E0,1E0,1E0,1E0],"tree_param":{"num_deleted":"0","num_feature":"6","num_nodes":"13","size_leaf_vector":"1"}},{"base_weights":[-4.590988E-3,-1.0610962E-1,4.693349E-2,-3.1799318E-3,-1.2736511E-2,8.520126E-2,-1.9734701E-2,3.8594563E-2,1.1251069E-2,-5.7693482E-3,2.8091432E-3,4.5974734E-3,1.1917114E-3],"categories":[],"categories_nodes":[],"categories_segments":[],"categories_sizes":[],"default_left":[0,0,0,0,0,0,0,0,0,0,0,0,0],"id":45,"left_children":[1,3,5,-1,-1,7,9,11,-1,-1,-1,-1,-1],"loss_changes":[4.6825655E-2,6.883815E-4,1.6988881E-2,0E0,0E0,7.4890815E-4,7.066957E-3,4.2765867E-5,0E0,0E0,0E0,0E0,0E0],"parents":[2147483647,0,0,1,1,2,2,5,5,6,6,7,7],"right_children":[2,4,6,-1,-1,8,10,12,-1,-1,-1,-1,-1],"split_conditions":[2.2665E2,2.25E2,2.0326804E-1,-3.1799318E-3,-1.2736511E-2,2.264E2,2.2525E2,2.2455E2,1.1251069E-2,-5.7693482E-3,2.8091432E-3,4.5974734E-3,1.1917114E-3],"split_indices":[1,0,5,0,0,0,0,0,0,0,0,0,0],"split_type":[0,0,0,0,0,0,0,0,0,0,0,0,0],"sum_hessian":[7E0,2E0,5E0,1E0,1E0,3E0,2E0,2E0,1E0,1E0,1E0,1E0,1E0],"tree_param":{"num_deleted":"0","num_feature":"6","num_nodes":"13","size_leaf_vector":"1"}},{"base_weights":[-4.360199E-3,-1.0080465E-1,4.4588726E-2,-3.0212402E-3,-1.2099457E-2,8.094406E-2,-1.8747965E-2,3.666687E-2,1.0688782E-2,-5.480957E-3,2.6687623E-3,4.3678284E-3,1.1322022E-3],"categories":[],"categories_nodes":[],"categories_segments":[],"categories_sizes":[],"default_left":[0,0,0,0,0,0,0,0,0,0,0,0,0],"id":46,"left_children":[1,3,5,-1,-1,7,9,11,-1,-1,-1,-1,-1],"loss_changes":[4.2261563E-2,6.2021986E-4,1.5333296E-2,0E0,0E0,6.7562424E-4,6.3781776E-3,3.8583297E-5,0E0,0E0,0E0,0E0,0E0],"parents":[2147483647,0,0,1,1,2,2,5,5,6,6,7,7],"right_children":[2,4,6,-1,-1,8,10,12,-1,-1,-1,-1,-1],"split_conditions":[2.2665E2,2.25E2,2.0326804E-1,-3.0212402E-3,-1.2099457E-2,2.264E2,2.2525E2,2.2455E2,1.0688782E-2,-5.480957E-3,2.6687623E-3,4.3678284E-3,1.1322022E-3],"split_indices":[1,0,5,0,0,0,0,0,0,0,0,0,0],"split_type":[0,0,0,0,0,0,0,0,0,0,0,0,0],"sum_hessian":[7E0,2E0,5E0,1E0,1E0,3E0,2E0,2E0,1E0,1E0,1E0,1E0,1E0],"tree_param":{"num_deleted":"0","num_feature":"6","num_nodes":"13","size_leaf_vector":"1"}},{"base_weights":[-4.140854E-3,-9.576416E-2,4.2360943E-2,-2.8701783E-3,-1.1494446E-2,7.690048E-2,-1.7812094E-2,3.4835815E-2,1.0154724E-2,-5.207062E-3,2.535248E-3,4.149628E-3,1.0757446E-3],"categories":[],"categories_nodes":[],"categories_segments":[],"categories_sizes":[],"default_left":[0,0,0,0,0,0,0,0,0,0,0,0,0],"id":47,"left_children":[1,3,5,-1,-1,7,9,11,-1,-1,-1,-1,-1],"loss_changes":[3.8141847E-2,5.597193E-4,1.3839852E-2,0E0,0E0,6.0954876E-4,5.7563824E-3,3.472506E-5,0E0,0E0,0E0,0E0,0E0],"parents":[2147483647,0,0,1,1,2,2,5,5,6,6,7,7],"right_children":[2,4,6,-1,-1,8,10,12,-1,-1,-1,-1,-1],"split_conditions":[2.2665E2,2.25E2,2.0326804E-1,-2.8701783E-3,-1.1494446E-2,2.264E2,2.2525E2,2.2455E2,1.0154724E-2,-5.207062E-3,2.535248E-3,4.149628E-3,1.0757446E-3],"split_indices":[1,0,5,0,0,0,0,0,0,0,0,0,0],"split_type":[0,0,0,0,0,0,0,0,0,0,0,0,0],"sum_hessian":[7E0,2E0,5E0,1E0,1E0,3E0,2E0,2E0,1E0,1E0,1E0,1E0,1E0],"tree_param":{"num_deleted":"0","num_feature":"6","num_nodes":"13","size_leaf_vector":"1"}},{"base_weights":[-3.93486E-3,-9.097799E-2,4.024251E-2,-2.7267456E-3,-1.0919953E-2,7.305527E-2,-1.6921997E-2,3.3096313E-2,9.646607E-3,-4.9468996E-3,2.4086E-3,3.9421082E-3,1.0223389E-3],"categories":[],"categories_nodes":[],"categories_segments":[],"categories_sizes":[],"default_left":[0,0,0,0,0,0,0,0,0,0,0,0,0],"id":48,"left_children":[1,3,5,-1,-1,7,9,11,-1,-1,-1,-1,-1],"loss_changes":[3.4423877E-2,5.051177E-4,1.249059E-2,0E0,0E0,5.492121E-4,5.195571E-3,3.098068E-5,0E0,0E0,0E0,0E0,0E0],"parents":[2147483647,0,0,1,1,2,2,5,5,6,6,7,7],"right_children":[2,4,6,-1,-1,8,10,12,-1,-1,-1,-1,-1],"split_conditions":[2.2665E2,2.25E2,2.0326804E-1,-2.7267456E-3,-1.0919953E-2,2.264E2,2.2525E2,2.2455E2,9.646607E-3,-4.9468996E-3,2.4086E-3,3.9421082E-3,1.0223389E-3],"split_indices":[1,0,5,0,0,0,0,0,0,0,0,0,0],"split_type":[0,0,0,0,0,0,0,0,0,0,0,0,0],"sum_hessian":[7E0,2E0,5E0,1E0,1E0,3E0,2E0,2E0,1E0,1E0,1E0,1E0,1E0],"tree_param":{"num_deleted":"0","num_feature":"6","num_nodes":"13","size_leaf_vector":"1"}},{"base_weights":[-3.736496E-3,-8.642578E-2,3.8230896E-2,-2.5901794E-3,-1.0373688E-2,6.94046E-2,-1.6077677E-2,3.144328E-2,9.164429E-3,-4.699707E-3,2.2880554E-3,3.7452697E-3,9.7122195E-4],"categories":[],"categories_nodes":[],"categories_segments":[],"categories_sizes":[],"default_left":[0,0,0,0,0,0,0,0,0,0,0,0,0],"id":49,"left_children":[1,3,5,-1,-1,7,9,11,-1,-1,-1,-1,-1],"loss_changes":[3.1066164E-2,4.5624003E-4,1.1273862E-2,0E0,0E0,4.953947E-4,4.6890136E-3,2.8024195E-5,0E0,0E0,0E0,0E0,0E0],"parents":[2147483647,0,0,1,1,2,2,5,5,6,6,7,7],"right_children":[2,4,6,-1,-1,8,10,12,-1,-1,-1,-1,-1],"split_conditions":[2.2665E2,2.25E2,2.0326804E-1,-2.5901794E-3,-1.0373688E-2,2.264E2,2.2525E2,2.2455E2,9.164429E-3,-4.699707E-3,2.2880554E-3,3.7452697E-3,9.7122195E-4],"split_indices":[1,0,5,0,0,0,0,0,0,0,0,0,0],"split_type":[0,0,0,0,0,0,0,0,0,0,0,0,0],"sum_hessian":[7E0,2E0,5E0,1E0,1E0,3E0,2E0,2E0,1E0,1E0,1E0,1E0,1E0],"tree_param":{"num_deleted":"0","num_feature":"6","num_nodes":"13","size_leaf_vector":"1"}},{"base_weights":[-3.5495758E-3,-8.2102455E-2,3.6318462E-2,-2.4604797E-3,-9.8548895E-3,6.593323E-2,-1.5274048E-2,2.9871622E-2,8.705902E-3,-4.464722E-3,2.1736145E-3,3.5583496E-3,9.223938E-4],"categories":[],"categories_nodes":[],"categories_segments":[],"categories_sizes":[],"default_left":[0,0,0,0,0,0,0,0,0,0,0,0,0],"id":50,"left_children":[1,3,5,-1,-1,7,9,11,-1,-1,-1,-1,-1],"loss_changes":[2.8035829E-2,4.1211955E-4,1.0174466E-2,0E0,0E0,4.4672564E-4,4.231778E-3,2.5590882E-5,0E0,0E0,0E0,0E0,0E0],"parents":[2147483647,0,0,1,1,2,2,5,5,6,6,7,7],"right_children":[2,4,6,-1,-1,8,10,12,-1,-1,-1,-1,-1],"split_conditions":[2.2665E2,2.25E2,2.0326804E-1,-2.4604797E-3,-9.8548895E-3,2.264E2,2.2525E2,2.2455E2,8.705902E-3,-4.464722E-3,2.1736145E-3,3.5583496E-3,9.223938E-4],"split_indices":[1,0,5,0,0,0,0,0,0,0,0,0,0],"split_type":[0,0,0,0,0,0,0,0,0,0,0,0,0],"sum_hessian":[7E0,2E0,5E0,1E0,1E0,3E0,2E0,2E0,1E0,1E0,1E0,1E0,1E0],"tree_param":{"num_deleted":"0","num_feature":"6","num_nodes":"13","size_leaf_vector":"1"}},{"base_weights":[-3.370285E-3,-7.799784E-2,3.4505207E-2,-2.3376464E-3,-9.36203E-3,6.263733E-2,-1.4506022E-2,2.8381348E-2,8.270264E-3,-4.2411806E-3,2.0652772E-3,3.3805848E-3,8.7661744E-4],"categories":[],"categories_nodes":[],"categories_segments":[],"categories_sizes":[],"default_left":[0,0,0,0,0,0,0,0,0,0,0,0,0],"id":51,"left_children":[1,3,5,-1,-1,7,9,11,-1,-1,-1,-1,-1],"loss_changes":[2.5303775E-2,3.714487E-4,9.181358E-3,0E0,0E0,4.0221587E-4,3.819322E-3,2.2859313E-5,0E0,0E0,0E0,0E0,0E0],"parents":[2147483647,0,0,1,1,2,2,5,5,6,6,7,7],"right_children":[2,4,6,-1,-1,8,10,12,-1,-1,-1,-1,-1],"split_conditions":[2.2665E2,2.25E2,2.0326804E-1,-2.3376464E-3,-9.36203E-3,2.264E2,2.2525E2,2.2455E2,8.270264E-3,-4.2411806E-3,2.0652772E-3,3.3805848E-3,8.7661744E-4],"split_indices":[1,0,5,0,0,0,0,0,0,0,0,0,0],"split_type":[0,0,0,0,0,0,0,0,0,0,0,0,0],"sum_hessian":[7E0,2E0,5E0,1E0,1E0,3E0,2E0,2E0,1E0,1E0,1E0,1E0,1E0],"tree_param":{"num_deleted":"0","num_feature":"6","num_nodes":"13","size_leaf_vector":"1"}},{"base_weights":[-3.200531E-3,-7.409668E-2,3.2780964E-2,-2.2209168E-3,-8.893586E-3,5.9505463E-2,-1.37786865E-2,2.696228E-2,7.856751E-3,-4.0290835E-3,1.9622804E-3,3.211212E-3,8.331299E-4],"categories":[],"categories_nodes":[],"categories_segments":[],"categories_sizes":[],"default_left":[0,0,0,0,0,0,0,0,0,0,0,0,0],"id":52,"left_children":[1,3,5,-1,-1,7,9,11,-1,-1,-1,-1,-1],"loss_changes":[2.2836557E-2,3.3471175E-4,8.285607E-3,0E0,0E0,3.629988E-4,3.4472544E-3,2.0303996E-5,0E0,0E0,0E0,0E0,0E0],"parents":[2147483647,0,0,1,1,2,2,5,5,6,6,7,7],"right_children":[2,4,6,-1,-1,8,10,12,-1,-1,-1,-1,-1],"split_conditions":[2.2665E2,2.25E2,2.0326804E-1,-2.2209168E-3,-8.893586E-3,2.264E2,2.2525E2,2.2455E2,7.856751E-3,-4.0290835E-3,1.9622804E-3,3.211212E-3,8.331299E-4],"split_indices":[1,0,5,0,0,0,0,0,0,0,0,0,0],"split_type":[0,0,0,0,0,0,0,0,0,0,0,0,0],"sum_hessian":[7E0,2E0,5E0,1E0,1E0,3E0,2E0,2E0,1E0,1E0,1E0,1E0,1E0],"tree_param":{"num_deleted":"0","num_feature":"6","num_nodes":"13","size_leaf_vector":"1"}},{"base_weights":[-3.0403137E-3,-7.0388794E-2,3.1140646E-2,-2.1095276E-3,-8.448792E-3,5.653E-2,-1.3092041E-2,2.561442E-2,7.4638366E-3,-3.8276673E-3,1.8638611E-3,3.0509948E-3,7.9116825E-4],"categories":[],"categories_nodes":[],"categories_segments":[],"categories_sizes":[],"default_left":[0,0,0,0,0,0,0,0,0,0,0,0,0],"id":53,"left_children":[1,3,5,-1,-1,7,9,11,-1,-1,-1,-1,-1],"loss_changes":[2.0608237E-2,3.0268915E-4,7.478329E-3,0E0,0E0,3.275033E-4,3.110798E-3,1.8607825E-5,0E0,0E0,0E0,0E0,0E0],"parents":[2147483647,0,0,1,1,2,2,5,5,6,6,7,7],"right_children":[2,4,6,-1,-1,8,10,12,-1,-1,-1,-1,-1],"split_conditions":[2.2665E2,2.25E2,2.0326804E-1,-2.1095276E-3,-8.448792E-3,2.264E2,2.2525E2,2.2455E2,7.4638366E-3,-3.8276673E-3,1.8638611E-3,3.0509948E-3,7.9116825E-4],"split_indices":[1,0,5,0,0,0,0,0,0,0,0,0,0],"split_type":[0,0,0,0,0,0,0,0,0,0,0,0,0],"sum_hessian":[7E0,2E0,5E0,1E0,1E0,3E0,2E0,2E0,1E0,1E0,1E0,1E0,1E0],"tree_param":{"num_deleted":"0","num_feature":"6","num_nodes":"13","size_leaf_vector":"1"}},{"base_weights":[-2.8877258E-3,-6.68691E-2,2.958425E-2,-2.004242E-3,-8.026123E-3,5.3703308E-2,-1.2435913E-2,2.4332682E-2,7.0907595E-3,-3.6361695E-3,1.7707825E-3,2.898407E-3,7.5149536E-4],"categories":[],"categories_nodes":[],"categories_segments":[],"categories_sizes":[],"default_left":[0,0,0,0,0,0,0,0,0,0,0,0,0],"id":54,"left_children":[1,3,5,-1,-1,7,9,11,-1,-1,-1,-1,-1],"loss_changes":[1.8599086E-2,2.7269684E-4,6.7487704E-3,0E0,0E0,2.9582996E-4,2.8075238E-3,1.6863341E-5,0E0,0E0,0E0,0E0,0E0],"parents":[2147483647,0,0,1,1,2,2,5,5,6,6,7,7],"right_children":[2,4,6,-1,-1,8,10,12,-1,-1,-1,-1,-1],"split_conditions":[2.2665E2,2.25E2,2.0326804E-1,-2.004242E-3,-8.026123E-3,2.264E2,2.2525E2,2.2455E2,7.0907595E-3,-3.6361695E-3,1.7707825E-3,2.898407E-3,7.5149536E-4],"split_indices":[1,0,5,0,0,0,0,0,0,0,0,0,0],"split_type":[0,0,0,0,0,0,0,0,0,0,0,0,0],"sum_hessian":[7E0,2E0,5E0,1E0,1E0,3E0,2E0,2E0,1E0,1E0,1E0,1E0,1E0],"tree_param":{"num_deleted":"0","num_feature":"6","num_nodes":"13","size_leaf_vector":"1"}},{"base_weights":[-2.7446747E-3,-6.352743E-2,2.8104147E-2,-1.9042969E-3,-7.624817E-3,5.101776E-2,-1.1815389E-2,2.3117065E-2,6.7359926E-3,-3.45459E-3,1.6822815E-3,2.7534484E-3,7.141113E-4],"categories":[],"categories_nodes":[],"categories_segments":[],"categories_sizes":[],"default_left":[0,0,0,0,0,0,0,0,0,0,0,0,0],"id":55,"left_children":[1,3,5,-1,-1,7,9,11,-1,-1,-1,-1,-1],"loss_changes":[1.6785992E-2,2.4563447E-4,6.0909996E-3,0E0,0E0,2.6666746E-4,2.534042E-3,1.5090685E-5,0E0,0E0,0E0,0E0,0E0],"parents":[2147483647,0,0,1,1,2,2,5,5,6,6,7,7],"right_children":[2,4,6,-1,-1,8,10,12,-1,-1,-1,-1,-1],"split_conditions":[2.2665E2,2.25E2,2.0326804E-1,-1.9042969E-3,-7.624817E-3,2.264E2,2.2525E2,2.2455E2,6.7359926E-3,-3.45459E-3,1.6822815E-3,2.7534484E-3,7.141113E-4],"split_indices":[1,0,5,0,0,0,0,0,0,0,0,0,0],"split_type":[0,0,0,0,0,0,0,0,0,0,0,0,0],"sum_hessian":[7E0,2E0,5E0,1E0,1E0,3E0,2E0,2E0,1E0,1E0,1E0,1E0,1E0],"tree_param":{"num_deleted":"0","num_feature":"6","num_nodes":"13","size_leaf_vector":"1"}},{"base_weights":[-2.6054382E-3,-6.034851E-2,2.6700338E-2,-1.8089295E-3,-7.2433474E-3,4.8469543E-2,-1.1225383E-2,2.1962484E-2,6.399536E-3,-3.2821656E-3,1.5983582E-3,2.6161193E-3,6.782532E-4],"categories":[],"categories_nodes":[],"categories_segments":[],"categories_sizes":[],"default_left":[0,0,0,0,0,0,0,0,0,0,0,0,0],"id":56,"left_children":[1,3,5,-1,-1,7,9,11,-1,-1,-1,-1,-1],"loss_changes":[1.514897E-2,2.2183172E-4,5.4977657E-3,0E0,0E0,2.4067797E-4,2.2874442E-3,1.3769488E-5,0E0,0E0,0E0,0E0,0E0],"parents":[2147483647,0,0,1,1,2,2,5,5,6,6,7,7],"right_children":[2,4,6,-1,-1,8,10,12,-1,-1,-1,-1,-1],"split_conditions":[2.2665E2,2.25E2,2.0326804E-1,-1.8089295E-3,-7.2433474E-3,2.264E2,2.2525E2,2.2455E2,6.399536E-3,-3.2821656E-3,1.5983582E-3,2.6161193E-3,6.782532E-4],"split_indices":[1,0,5,0,0,0,0,0,0,0,0,0,0],"split_type":[0,0,0,0,0,0,0,0,0,0,0,0,0],"sum_hessian":[7E0,2E0,5E0,1E0,1E0,3E0,2E0,2E0,1E0,1E0,1E0,1E0,1E0],"tree_param":{"num_deleted":"0","num_feature":"6","num_nodes":"13","size_leaf_vector":"1"}},{"base_weights":[-2.4719238E-3,-5.732727E-2,2.5367737E-2,-1.7181396E-3,-6.880951E-3,4.6051025E-2,-1.0665894E-2,2.0868937E-2,6.0798647E-3,-3.1181336E-3,1.5182495E-3,2.4856569E-3,6.4468384E-4],"categories":[],"categories_nodes":[],"categories_segments":[],"categories_sizes":[],"default_left":[0,0,0,0,0,0,0,0,0,0,0,0,0],"id":57,"left_children":[1,3,5,-1,-1,7,9,11,-1,-1,-1,-1,-1],"loss_changes":[1.3671497E-2,2.0064972E-4,4.96294E-3,0E0,0E0,2.1670014E-4,2.0642837E-3,1.22837955E-5,0E0,0E0,0E0,0E0,0E0],"parents":[2147483647,0,0,1,1,2,2,5,5,6,6,7,7],"right_children":[2,4,6,-1,-1,8,10,12,-1,-1,-1,-1,-1],"split_conditions":[2.2665E2,2.25E2,2.0326804E-1,-1.7181396E-3,-6.880951E-3,2.264E2,2.2525E2,2.2455E2,6.0798647E-3,-3.1181336E-3,1.5182495E-3,2.4856569E-3,6.4468384E-4],"split_indices":[1,0,5,0,0,0,0,0,0,0,0,0,0],"split_type":[0,0,0,0,0,0,0,0,0,0,0,0,0],"sum_hessian":[7E0,2E0,5E0,1E0,1E0,3E0,2E0,2E0,1E0,1E0,1E0,1E0,1E0],"tree_param":{"num_deleted":"0","num_feature":"6","num_nodes":"13","size_leaf_vector":"1"}},{"base_weights":[-2.3460388E-3,-5.445862E-2,2.4101257E-2,-1.6319276E-3,-6.536865E-3,4.3750763E-2,-1.0131836E-2,1.9826254E-2,5.776215E-3,-2.962494E-3,1.4427186E-3,2.3612976E-3,6.126404E-4],"categories":[],"categories_nodes":[],"categories_segments":[],"categories_sizes":[],"default_left":[0,0,0,0,0,0,0,0,0,0,0,0,0],"id":58,"left_children":[1,3,5,-1,-1,7,9,11,-1,-1,-1,-1,-1],"loss_changes":[1.2338416E-2,1.8153526E-4,4.4792555E-3,0E0,0E0,1.9565457E-4,1.863599E-3,1.0969932E-5,0E0,0E0,0E0,0E0,0E0],"parents":[2147483647,0,0,1,1,2,2,5,5,6,6,7,7],"right_children":[2,4,6,-1,-1,8,10,12,-1,-1,-1,-1,-1],"split_conditions":[2.2665E2,2.25E2,2.0326804E-1,-1.6319276E-3,-6.536865E-3,2.264E2,2.2525E2,2.2455E2,5.776215E-3,-2.962494E-3,1.4427186E-3,2.3612976E-3,6.126404E-4],"split_indices":[1,0,5,0,0,0,0,0,0,0,0,0,0],"split_type":[0,0,0,0,0,0,0,0,0,0,0,0,0],"sum_hessian":[7E0,2E0,5E0,1E0,1E0,3E0,2E0,2E0,1E0,1E0,1E0,1E0,1E0],"tree_param":{"num_deleted":"0","num_feature":"6","num_nodes":"13","size_leaf_vector":"1"}},{"base_weights":[-2.231598E-3,-5.173747E-2,2.289327E-2,-1.550293E-3,-6.210327E-3,4.1561127E-2,-9.628296E-3,1.8834433E-2,5.4870606E-3,-2.8144836E-3,1.3702393E-3,2.243042E-3,5.821228E-4],"categories":[],"categories_nodes":[],"categories_segments":[],"categories_sizes":[],"default_left":[0,0,0,0,0,0,0,0,0,0,0,0,0],"id":59,"left_children":[1,3,5,-1,-1,7,9,11,-1,-1,-1,-1,-1],"loss_changes":[1.1135067E-2,1.6401801E-4,4.0428108E-3,0E0,0E0,1.7646514E-4,1.6816624E-3,9.813346E-6,0E0,0E0,0E0,0E0,0E0],"parents":[2147483647,0,0,1,1,2,2,5,5,6,6,7,7],"right_children":[2,4,6,-1,-1,8,10,12,-1,-1,-1,-1,-1],"split_conditions":[2.2665E2,2.25E2,2.0326804E-1,-1.550293E-3,-6.210327E-3,2.264E2,2.2525E2,2.2455E2,5.4870606E-3,-2.8144836E-3,1.3702393E-3,2.243042E-3,5.821228E-4],"split_indices":[1,0,5,0,0,0,0,0,0,0,0,0,0],"split_type":[0,0,0,0,0,0,0,0,0,0,0,0,0],"sum_hessian":[7E0,2E0,5E0,1E0,1E0,3E0,2E0,2E0,1E0,1E0,1E0,1E0,1E0],"tree_param":{"num_deleted":"0","num_feature":"6","num_nodes":"13","size_leaf_vector":"1"}},{"base_weights":[-2.1209717E-3,-4.914856E-2,2.1746317E-2,-1.4724731E-3,-5.8998107E-3,3.9482117E-2,-9.1501875E-3,1.7893473E-2,5.2124024E-3,-2.6741028E-3,1.3015748E-3,2.13089E-3,5.531311E-4],"categories":[],"categories_nodes":[],"categories_segments":[],"categories_sizes":[],"default_left":[0,0,0,0,0,0,0,0,0,0,0,0,0],"id":60,"left_children":[1,3,5,-1,-1,7,9,11,-1,-1,-1,-1,-1],"loss_changes":[1.0048168E-2,1.484463E-4,3.6491137E-3,0E0,0E0,1.5900703E-4,1.5178067E-3,8.800009E-6,0E0,0E0,0E0,0E0,0E0],"parents":[2147483647,0,0,1,1,2,2,5,5,6,6,7,7],"right_children":[2,4,6,-1,-1,8,10,12,-1,-1,-1,-1,-1],"split_conditions":[2.2665E2,2.25E2,2.0326804E-1,-1.4724731E-3,-5.8998107E-3,2.264E2,2.2525E2,2.2455E2,5.2124024E-3,-2.6741028E-3,1.3015748E-3,2.13089E-3,5.531311E-4],"split_indices":[1,0,5,0,0,0,0,0,0,0,0,0,0],"split_type":[0,0,0,0,0,0,0,0,0,0,0,0,0],"sum_hessian":[7E0,2E0,5E0,1E0,1E0,3E0,2E0,2E0,1E0,1E0,1E0,1E0,1E0],"tree_param":{"num_deleted":"0","num_feature":"6","num_nodes":"13","size_leaf_vector":"1"}},{"base_weights":[-2.0160675E-3,-4.6691895E-2,2.0657858E-2,-1.399231E-3,-5.6045535E-3,3.7506104E-2,-8.692424E-3,1.6998291E-2,4.951477E-3,-2.5405884E-3,1.2367249E-3,2.0240785E-3,5.256653E-4],"categories":[],"categories_nodes":[],"categories_segments":[],"categories_sizes":[],"default_left":[0,0,0,0,0,0,0,0,0,0,0,0,0],"id":61,"left_children":[1,3,5,-1,-1,7,9,11,-1,-1,-1,-1,-1],"loss_changes":[9.068365E-3,1.3337377E-4,3.2930234E-3,0E0,0E0,1.4341949E-4,1.3701408E-3,7.8177545E-6,0E0,0E0,0E0,0E0,0E0],"parents":[2147483647,0,0,1,1,2,2,5,5,6,6,7,7],"right_children":[2,4,6,-1,-1,8,10,12,-1,-1,-1,-1,-1],"split_conditions":[2.2665E2,2.25E2,2.0326804E-1,-1.399231E-3,-5.6045535E-3,2.264E2,2.2525E2,2.2455E2,4.951477E-3,-2.5405884E-3,1.2367249E-3,2.0240785E-3,5.256653E-4],"split_indices":[1,0,5,0,0,0,0,0,0,0,0,0,0],"split_type":[0,0,0,0,0,0,0,0,0,0,0,0,0],"sum_hessian":[7E0,2E0,5E0,1E0,1E0,3E0,2E0,2E0,1E0,1E0,1E0,1E0,1E0],"tree_param":{"num_deleted":"0","num_feature":"6","num_nodes":"13","size_leaf_vector":"1"}},{"base_weights":[-1.914978E-3,-4.43573E-2,1.9625345E-2,-1.3290405E-3,-5.3245546E-3,3.5633087E-2,-8.260091E-3,1.6148886E-2,4.704285E-3,-2.4139404E-3,1.1749268E-3,1.9226074E-3,4.9972534E-4],"categories":[],"categories_nodes":[],"categories_segments":[],"categories_sizes":[],"default_left":[0,0,0,0,0,0,0,0,0,0,0,0,0],"id":62,"left_children":[1,3,5,-1,-1,7,9,11,-1,-1,-1,-1,-1],"loss_changes":[8.184299E-3,1.2073573E-4,2.9726299E-3,0E0,0E0,1.295507E-4,1.2368249E-3,6.8694935E-6,0E0,0E0,0E0,0E0,0E0],"parents":[2147483647,0,0,1,1,2,2,5,5,6,6,7,7],"right_children":[2,4,6,-1,-1,8,10,12,-1,-1,-1,-1,-1],"split_conditions":[2.2665E2,2.25E2,2.0326804E-1,-1.3290405E-3,-5.3245546E-3,2.264E2,2.2525E2,2.2455E2,4.704285E-3,-2.4139404E-3,1.1749268E-3,1.9226074E-3,4.9972534E-4],"split_indices":[1,0,5,0,0,0,0,0,0,0,0,0,0],"split_type":[0,0,0,0,0,0,0,0,0,0,0,0,0],"sum_hessian":[7E0,2E0,5E0,1E0,1E0,3E0,2E0,2E0,1E0,1E0,1E0,1E0,1E0],"tree_param":{"num_deleted":"0","num_feature":"6","num_nodes":"13","size_leaf_vector":"1"}},{"base_weights":[-1.8196106E-3,-4.213969E-2,1.8643698E-2,-1.2626648E-3,-5.0582886E-3,3.3851624E-2,-7.8481035E-3,1.5340169E-2,4.469299E-3,-2.293396E-3,1.1161804E-3,1.8264771E-3,4.7454835E-4],"categories":[],"categories_nodes":[],"categories_segments":[],"categories_sizes":[],"default_left":[0,0,0,0,0,0,0,0,0,0,0,0,0],"id":63,"left_children":[1,3,5,-1,-1,7,9,11,-1,-1,-1,-1,-1],"loss_changes":[7.386297E-3,1.088609E-4,2.682983E-3,0E0,0E0,1.1716038E-4,1.1163265E-3,6.2805484E-6,0E0,0E0,0E0,0E0,0E0],"parents":[2147483647,0,0,1,1,2,2,5,5,6,6,7,7],"right_children":[2,4,6,-1,-1,8,10,12,-1,-1,-1,-1,-1],"split_conditions":[2.2665E2,2.25E2,2.0326804E-1,-1.2626648E-3,-5.0582886E-3,2.264E2,2.2525E2,2.2455E2,4.469299E-3,-2.293396E-3,1.1161804E-3,1.8264771E-3,4.7454835E-4],"split_indices":[1,0,5,0,0,0,0,0,0,0,0,0,0],"split_type":[0,0,0,0,0,0,0,0,0,0,0,0,0],"sum_hessian":[7E0,2E0,5E0,1E0,1E0,3E0,2E0,2E0,1E0,1E0,1E0,1E0,1E0],"tree_param":{"num_deleted":"0","num_feature":"6","num_nodes":"13","size_leaf_vector":"1"}},{"base_weights":[-1.7299652E-3,-4.0033977E-2,1.7710367E-2,-1.1993408E-3,-4.805756E-3,3.2157898E-2,-7.4564614E-3,1.4572144E-2,4.245758E-3,-2.1789551E-3,1.0604858E-3,1.7349244E-3,4.5089723E-4],"categories":[],"categories_nodes":[],"categories_segments":[],"categories_sizes":[],"default_left":[0,0,0,0,0,0,0,0,0,0,0,0,0],"id":64,"left_children":[1,3,5,-1,-1,7,9,11,-1,-1,-1,-1,-1],"loss_changes":[6.666158E-3,9.858329E-5,2.4213754E-3,0E0,0E0,1.05813146E-4,1.0076986E-3,5.6120334E-6,0E0,0E0,0E0,0E0,0E0],"parents":[2147483647,0,0,1,1,2,2,5,5,6,6,7,7],"right_children":[2,4,6,-1,-1,8,10,12,-1,-1,-1,-1,-1],"split_conditions":[2.2665E2,2.25E2,2.0326804E-1,-1.1993408E-3,-4.805756E-3,2.264E2,2.2525E2,2.2455E2,4.245758E-3,-2.1789551E-3,1.0604858E-3,1.7349244E-3,4.5089723E-4],"split_indices":[1,0,5,0,0,0,0,0,0,0,0,0,0],"split_type":[0,0,0,0,0,0,0,0,0,0,0,0,0],"sum_hessian":[7E0,2E0,5E0,1E0,1E0,3E0,2E0,2E0,1E0,1E0,1E0,1E0,1E0],"tree_param":{"num_deleted":"0","num_feature":"6","num_nodes":"13","size_leaf_vector":"1"}},{"base_weights":[-1.6422272E-3,-3.8029987E-2,1.6825357E-2,-1.1390686E-3,-4.56543E-3,3.0548096E-2,-7.080078E-3,1.3839722E-2,4.033661E-3,-2.0698549E-3,1.0078431E-3,1.6479492E-3,4.2800905E-4],"categories":[],"categories_nodes":[],"categories_segments":[],"categories_sizes":[],"default_left":[0,0,0,0,0,0,0,0,0,0,0,0,0],"id":65,"left_children":[1,3,5,-1,-1,7,9,11,-1,-1,-1,-1,-1],"loss_changes":[6.0158204E-3,8.9284964E-5,2.1845712E-3,0E0,0E0,9.5953E-5,9.096267E-4,5.1719835E-6,0E0,0E0,0E0,0E0,0E0],"parents":[2147483647,0,0,1,1,2,2,5,5,6,6,7,7],"right_children":[2,4,6,-1,-1,8,10,12,-1,-1,-1,-1,-1],"split_conditions":[2.2665E2,2.25E2,2.0326804E-1,-1.1390686E-3,-4.56543E-3,2.264E2,2.2525E2,2.2455E2,4.033661E-3,-2.0698549E-3,1.0078431E-3,1.6479492E-3,4.2800905E-4],"split_indices":[1,0,5,0,0,0,0,0,0,0,0,0,0],"split_type":[0,0,0,0,0,0,0,0,0,0,0,0,0],"sum_hessian":[7E0,2E0,5E0,1E0,1E0,3E0,2E0,2E0,1E0,1E0,1E0,1E0,1E0],"tree_param":{"num_deleted":"0","num_feature":"6","num_nodes":"13","size_leaf_vector":"1"}},{"base_weights":[-1.5583038E-3,-3.6127727E-2,1.5986124E-2,-1.0818482E-3,-4.337311E-3,2.9022217E-2,-6.7240396E-3,1.314799E-2,3.832245E-3,-1.966095E-3,9.57489E-4,1.5655517E-3,4.0664672E-4],"categories":[],"categories_nodes":[],"categories_segments":[],"categories_sizes":[],"default_left":[0,0,0,0,0,0,0,0,0,0,0,0,0],"id":66,"left_children":[1,3,5,-1,-1,7,9,11,-1,-1,-1,-1,-1],"loss_changes":[5.429548E-3,8.089421E-5,1.9714572E-3,0E0,0E0,8.6672604E-5,8.208248E-4,4.653877E-6,0E0,0E0,0E0,0E0,0E0],"parents":[2147483647,0,0,1,1,2,2,5,5,6,6,7,7],"right_children":[2,4,6,-1,-1,8,10,12,-1,-1,-1,-1,-1],"split_conditions":[2.2665E2,2.25E2,2.0326804E-1,-1.0818482E-3,-4.337311E-3,2.264E2,2.2525E2,2.2455E2,3.832245E-3,-1.966095E-3,9.57489E-4,1.5655517E-3,4.0664672E-4],"split_indices":[1,0,5,0,0,0,0,0,0,0,0,0,0],"split_type":[0,0,0,0,0,0,0,0,0,0,0,0,0],"sum_hessian":[7E0,2E0,5E0,1E0,1E0,3E0,2E0,2E0,1E0,1E0,1E0,1E0,1E0],"tree_param":{"num_deleted":"0","num_feature":"6","num_nodes":"13","size_leaf_vector":"1"}},{"base_weights":[-1.4820099E-3,-3.43221E-2,1.5185039E-2,-1.0276794E-3,-4.1206363E-3,2.7568817E-2,-6.388346E-3,1.2486775E-2,3.6407472E-3,-1.8676758E-3,9.0942386E-4,1.4869691E-3,3.8604738E-4],"categories":[],"categories_nodes":[],"categories_segments":[],"categories_sizes":[],"default_left":[0,0,0,0,0,0,0,0,0,0,0,0,0],"id":67,"left_children":[1,3,5,-1,-1,7,9,11,-1,-1,-1,-1,-1],"loss_changes":[4.8999614E-3,7.3132804E-5,1.7790792E-3,0E0,0E0,7.8607816E-5,7.4062E-4,4.263158E-6,0E0,0E0,0E0,0E0,0E0],"parents":[2147483647,0,0,1,1,2,2,5,5,6,6,7,7],"right_children":[2,4,6,-1,-1,8,10,12,-1,-1,-1,-1,-1],"split_conditions":[2.2665E2,2.25E2,2.0326804E-1,-1.0276794E-3,-4.1206363E-3,2.264E2,2.2525E2,2.2455E2,3.6407472E-3,-1.8676758E-3,9.0942386E-4,1.4869691E-3,3.8604738E-4],"split_indices":[1,0,5,0,0,0,0,0,0,0,0,0,0],"split_type":[0,0,0,0,0,0,0,0,0,0,0,0,0],"sum_hessian":[7E0,2E0,5E0,1E0,1E0,3E0,2E0,2E0,1E0,1E0,1E0,1E0,1E0],"tree_param":{"num_deleted":"0","num_feature":"6","num_nodes":"13","size_leaf_vector":"1"}},{"base_weights":[-1.4095306E-3,-3.2608032E-2,1.4424642E-2,-9.765625E-4,-3.9146426E-3,2.6191711E-2,-6.072998E-3,1.1866252E-2,3.4584047E-3,-1.7745972E-3,8.636475E-4,1.4129638E-3,3.669739E-4],"categories":[],"categories_nodes":[],"categories_segments":[],"categories_sizes":[],"default_left":[0,0,0,0,0,0,0,0,0,0,0,0,0],"id":68,"left_children":[1,3,5,-1,-1,7,9,11,-1,-1,-1,-1,-1],"loss_changes":[4.4223787E-3,6.576837E-5,1.6062452E-3,0E0,0E0,7.051299E-5,6.683725E-4,3.8035505E-6,0E0,0E0,0E0,0E0,0E0],"parents":[2147483647,0,0,1,1,2,2,5,5,6,6,7,7],"right_children":[2,4,6,-1,-1,8,10,12,-1,-1,-1,-1,-1],"split_conditions":[2.2665E2,2.25E2,2.0326804E-1,-9.765625E-4,-3.9146426E-3,2.264E2,2.2525E2,2.2455E2,3.4584047E-3,-1.7745972E-3,8.636475E-4,1.4129638E-3,3.669739E-4],"split_indices":[1,0,5,0,0,0,0,0,0,0,0,0,0],"split_type":[0,0,0,0,0,0,0,0,0,0,0,0,0],"sum_hessian":[7E0,2E0,5E0,1E0,1E0,3E0,2E0,2E0,1E0,1E0,1E0,1E0,1E0],"tree_param":{"num_deleted":"0","num_feature":"6","num_nodes":"13","size_leaf_vector":"1"}},{"base_weights":[-1.3408661E-3,-3.0975342E-2,1.3699849E-2,-9.2773436E-4,-3.7185668E-3,2.4879456E-2,-5.7729087E-3,1.1271159E-2,3.2852173E-3,-1.6860962E-3,8.201599E-4,1.3420106E-3,3.4866334E-4],"categories":[],"categories_nodes":[],"categories_segments":[],"categories_sizes":[],"default_left":[0,0,0,0,0,0,0,0,0,0,0,0,0],"id":69,"left_children":[1,3,5,-1,-1,7,9,11,-1,-1,-1,-1,-1],"loss_changes":[3.9901473E-3,5.9270766E-5,1.4498134E-3,0E0,0E0,6.369827E-5,6.0313713E-4,3.3945835E-6,0E0,0E0,0E0,0E0,0E0],"parents":[2147483647,0,0,1,1,2,2,5,5,6,6,7,7],"right_children":[2,4,6,-1,-1,8,10,12,-1,-1,-1,-1,-1],"split_conditions":[2.2665E2,2.25E2,2.0326804E-1,-9.2773436E-4,-3.7185668E-3,2.264E2,2.2525E2,2.2455E2,3.2852173E-3,-1.6860962E-3,8.201599E-4,1.3420106E-3,3.4866334E-4],"split_indices":[1,0,5,0,0,0,0,0,0,0,0,0,0],"split_type":[0,0,0,0,0,0,0,0,0,0,0,0,0],"sum_hessian":[7E0,2E0,5E0,1E0,1E0,3E0,2E0,2E0,1E0,1E0,1E0,1E0,1E0],"tree_param":{"num_deleted":"0","num_feature":"6","num_nodes":"13","size_leaf_vector":"1"}},{"base_weights":[-1.2741089E-3,-2.9424032E-2,1.3013204E-2,-8.8119507E-4,-3.5324097E-3,2.3635864E-2,-5.4880776E-3,1.0706584E-2,3.1211853E-3,-1.6021729E-3,7.7896117E-4,1.2748719E-3,3.3111573E-4],"categories":[],"categories_nodes":[],"categories_segments":[],"categories_sizes":[],"default_left":[0,0,0,0,0,0,0,0,0,0,0,0,0],"id":70,"left_children":[1,3,5,-1,-1,7,9,11,-1,-1,-1,-1,-1],"loss_changes":[3.6003948E-3,5.356362E-5,1.3089124E-3,0E0,0E0,5.763606E-5,5.443907E-4,3.0943484E-6,0E0,0E0,0E0,0E0,0E0],"parents":[2147483647,0,0,1,1,2,2,5,5,6,6,7,7],"right_children":[2,4,6,-1,-1,8,10,12,-1,-1,-1,-1,-1],"split_conditions":[2.2665E2,2.25E2,2.0326804E-1,-8.8119507E-4,-3.5324097E-3,2.264E2,2.2525E2,2.2455E2,3.1211853E-3,-1.6021729E-3,7.7896117E-4,1.2748719E-3,3.3111573E-4],"split_indices":[1,0,5,0,0,0,0,0,0,0,0,0,0],"split_type":[0,0,0,0,0,0,0,0,0,0,0,0,0],"sum_hessian":[7E0,2E0,5E0,1E0,1E0,3E0,2E0,2E0,1E0,1E0,1E0,1E0,1E0],"tree_param":{"num_deleted":"0","num_feature":"6","num_nodes":"13","size_leaf_vector":"1"}},{"base_weights":[-1.2130737E-3,-2.7954102E-2,1.2359619E-2,-8.369446E-4,-3.3561706E-3,2.2449493E-2,-5.2134194E-3,1.01674395E-2,2.9647828E-3,-1.5220642E-3,7.4005127E-4,1.2107849E-3,3.1433106E-4],"categories":[],"categories_nodes":[],"categories_segments":[],"categories_sizes":[],"default_left":[0,0,0,0,0,0,0,0,0,0,0,0,0],"id":71,"left_children":[1,3,5,-1,-1,7,9,11,-1,-1,-1,-1,-1],"loss_changes":[3.249084E-3,4.8575923E-5,1.180897E-3,0E0,0E0,5.2198768E-5,4.9133186E-4,2.8303184E-6,0E0,0E0,0E0,0E0,0E0],"parents":[2147483647,0,0,1,1,2,2,5,5,6,6,7,7],"right_children":[2,4,6,-1,-1,8,10,12,-1,-1,-1,-1,-1],"split_conditions":[2.2665E2,2.25E2,2.0326804E-1,-8.369446E-4,-3.3561706E-3,2.264E2,2.2525E2,2.2455E2,2.9647828E-3,-1.5220642E-3,7.4005127E-4,1.2107849E-3,3.1433106E-4],"split_indices":[1,0,5,0,0,0,0,0,0,0,0,0,0],"split_type":[0,0,0,0,0,0,0,0,0,0,0,0,0],"sum_hessian":[7E0,2E0,5E0,1E0,1E0,3E0,2E0,2E0,1E0,1E0,1E0,1E0,1E0],"tree_param":{"num_deleted":"0","num_feature":"6","num_nodes":"13","size_leaf_vector":"1"}},{"base_weights":[-1.1520386E-3,-2.655538E-2,1.1741638E-2,-7.9498295E-4,-3.188324E-3,2.1327972E-2,-4.95402E-3,9.6588135E-3,2.8167726E-3,-1.4457703E-3,7.026672E-4,1.1505127E-3,2.9830934E-4],"categories":[],"categories_nodes":[],"categories_segments":[],"categories_sizes":[],"default_left":[0,0,0,0,0,0,0,0,0,0,0,0,0],"id":72,"left_children":[1,3,5,-1,-1,7,9,11,-1,-1,-1,-1,-1],"loss_changes":[2.9321432E-3,4.391698E-5,1.0659602E-3,0E0,0E0,4.7189882E-5,4.4317162E-4,2.65555E-6,0E0,0E0,0E0,0E0,0E0],"parents":[2147483647,0,0,1,1,2,2,5,5,6,6,7,7],"right_children":[2,4,6,-1,-1,8,10,12,-1,-1,-1,-1,-1],"split_conditions":[2.2665E2,2.25E2,2.0326804E-1,-7.9498295E-4,-3.188324E-3,2.264E2,2.2525E2,2.2455E2,2.8167726E-3,-1.4457703E-3,7.026672E-4,1.1505127E-3,2.9830934E-4],"split_indices":[1,0,5,0,0,0,0,0,0,0,0,0,0],"split_type":[0,0,0,0,0,0,0,0,0,0,0,0,0],"sum_hessian":[7E0,2E0,5E0,1E0,1E0,3E0,2E0,2E0,1E0,1E0,1E0,1E0,1E0],"tree_param":{"num_deleted":"0","num_feature":"6","num_nodes":"13","size_leaf_vector":"1"}},{"base_weights":[-1.0948181E-3,-2.5227865E-2,1.1154175E-2,-7.5531006E-4,-3.0288696E-3,2.0259857E-2,-4.7047934E-3,9.175618E-3,2.6756288E-3,-1.373291E-3,6.67572E-4,1.0932923E-3,2.8305055E-4],"categories":[],"categories_nodes":[],"categories_segments":[],"categories_sizes":[],"default_left":[0,0,0,0,0,0,0,0,0,0,0,0,0],"id":73,"left_children":[1,3,5,-1,-1,7,9,11,-1,-1,-1,-1,-1],"loss_changes":[2.6462404E-3,3.957341E-5,9.617588E-4,0E0,0E0,4.2526517E-5,3.9991087E-4,2.5051704E-6,0E0,0E0,0E0,0E0,0E0],"parents":[2147483647,0,0,1,1,2,2,5,5,6,6,7,7],"right_children":[2,4,6,-1,-1,8,10,12,-1,-1,-1,-1,-1],"split_conditions":[2.2665E2,2.25E2,2.0326804E-1,-7.5531006E-4,-3.0288696E-3,2.264E2,2.2525E2,2.2455E2,2.6756288E-3,-1.373291E-3,6.67572E-4,1.0932923E-3,2.8305055E-4],"split_indices":[1,0,5,0,0,0,0,0,0,0,0,0,0],"split_type":[0,0,0,0,0,0,0,0,0,0,0,0,0],"sum_hessian":[7E0,2E0,5E0,1E0,1E0,3E0,2E0,2E0,1E0,1E0,1E0,1E0,1E0],"tree_param":{"num_deleted":"0","num_feature":"6","num_nodes":"13","size_leaf_vector":"1"}},{"base_weights":[-1.039505E-3,-2.3961386E-2,1.0594686E-2,-7.171631E-4,-2.8770447E-3,1.9245148E-2,-4.470825E-3,8.712769E-3,2.5421144E-3,-1.3046265E-3,6.340027E-4,1.0383606E-3,2.685547E-4],"categories":[],"categories_nodes":[],"categories_segments":[],"categories_sizes":[],"default_left":[0,0,0,0,0,0,0,0,0,0,0,0,0],"id":74,"left_children":[1,3,5,-1,-1,7,9,11,-1,-1,-1,-1,-1],"loss_changes":[2.3872836E-3,3.5897945E-5,8.679834E-4,0E0,0E0,3.8703205E-5,3.608371E-4,2.3258617E-6,0E0,0E0,0E0,0E0,0E0],"parents":[2147483647,0,0,1,1,2,2,5,5,6,6,7,7],"right_children":[2,4,6,-1,-1,8,10,12,-1,-1,-1,-1,-1],"split_conditions":[2.2665E2,2.25E2,2.0326804E-1,-7.171631E-4,-2.8770447E-3,2.264E2,2.2525E2,2.2455E2,2.5421144E-3,-1.3046265E-3,6.340027E-4,1.0383606E-3,2.685547E-4],"split_indices":[1,0,5,0,0,0,0,0,0,0,0,0,0],"split_type":[0,0,0,0,0,0,0,0,0,0,0,0,0],"sum_hessian":[7E0,2E0,5E0,1E0,1E0,3E0,2E0,2E0,1E0,1E0,1E0,1E0,1E0],"tree_param":{"num_deleted":"0","num_feature":"6","num_nodes":"13","size_leaf_vector":"1"}},{"base_weights":[-9.880066E-4,-2.2761026E-2,1.0063171E-2,-6.8130495E-4,-2.7328492E-3,1.828003E-2,-4.24703E-3,8.27535E-3,2.4147034E-3,-1.2390137E-3,6.0195924E-4,9.864807E-4,2.548218E-4],"categories":[],"categories_nodes":[],"categories_segments":[],"categories_sizes":[],"default_left":[0,0,0,0,0,0,0,0,0,0,0,0,0],"id":75,"left_children":[1,3,5,-1,-1,7,9,11,-1,-1,-1,-1,-1],"loss_changes":[2.1539885E-3,3.233517E-5,7.831452E-4,0E0,0E0,3.4964876E-5,3.2539017E-4,2.1714222E-6,0E0,0E0,0E0,0E0,0E0],"parents":[2147483647,0,0,1,1,2,2,5,5,6,6,7,7],"right_children":[2,4,6,-1,-1,8,10,12,-1,-1,-1,-1,-1],"split_conditions":[2.2665E2,2.25E2,2.0326804E-1,-6.8130495E-4,-2.7328492E-3,2.264E2,2.2525E2,2.2455E2,2.4147034E-3,-1.2390137E-3,6.0195924E-4,9.864807E-4,2.548218E-4],"split_indices":[1,0,5,0,0,0,0,0,0,0,0,0,0],"split_type":[0,0,0,0,0,0,0,0,0,0,0,0,0],"sum_hessian":[7E0,2E0,5E0,1E0,1E0,3E0,2E0,2E0,1E0,1E0,1E0,1E0,1E0],"tree_param":{"num_deleted":"0","num_feature":"6","num_nodes":"13","size_leaf_vector":"1"}},{"base_weights":[-9.384155E-4,-2.1621704E-2,9.559631E-3,-6.469727E-4,-2.596283E-3,1.7364502E-2,-4.0334067E-3,7.858276E-3,2.294159E-3,-1.1772156E-3,5.722046E-4,9.368897E-4,2.4185181E-4],"categories":[],"categories_nodes":[],"categories_segments":[],"categories_sizes":[],"default_left":[0,0,0,0,0,0,0,0,0,0,0,0,0],"id":76,"left_children":[1,3,5,-1,-1,7,9,11,-1,-1,-1,-1,-1],"loss_changes":[1.9437685E-3,2.9357616E-5,7.0658955E-4,0E0,0E0,3.1786854E-5,2.938458E-4,1.9933796E-6,0E0,0E0,0E0,0E0,0E0],"parents":[2147483647,0,0,1,1,2,2,5,5,6,6,7,7],"right_children":[2,4,6,-1,-1,8,10,12,-1,-1,-1,-1,-1],"split_conditions":[2.2665E2,2.25E2,2.0326804E-1,-6.469727E-4,-2.596283E-3,2.264E2,2.2525E2,2.2455E2,2.294159E-3,-1.1772156E-3,5.722046E-4,9.368897E-4,2.4185181E-4],"split_indices":[1,0,5,0,0,0,0,0,0,0,0,0,0],"split_type":[0,0,0,0,0,0,0,0,0,0,0,0,0],"sum_hessian":[7E0,2E0,5E0,1E0,1E0,3E0,2E0,2E0,1E0,1E0,1E0,1E0,1E0],"tree_param":{"num_deleted":"0","num_feature":"6","num_nodes":"13","size_leaf_vector":"1"}},{"base_weights":[-8.907318E-4,-2.0543417E-2,9.084065E-3,-6.149292E-4,-2.4665834E-3,1.6498566E-2,-3.829956E-3,7.4666343E-3,2.179718E-3,-1.1184693E-3,5.4397585E-4,8.903504E-4,2.2964478E-4],"categories":[],"categories_nodes":[],"categories_segments":[],"categories_sizes":[],"default_left":[0,0,0,0,0,0,0,0,0,0,0,0,0],"id":77,"left_children":[1,3,5,-1,-1,7,9,11,-1,-1,-1,-1,-1],"loss_changes":[1.7548702E-3,2.6338268E-5,6.376948E-4,0E0,0E0,2.8675422E-5,2.6537094E-4,1.8402206E-6,0E0,0E0,0E0,0E0,0E0],"parents":[2147483647,0,0,1,1,2,2,5,5,6,6,7,7],"right_children":[2,4,6,-1,-1,8,10,12,-1,-1,-1,-1,-1],"split_conditions":[2.2665E2,2.25E2,2.0326804E-1,-6.149292E-4,-2.4665834E-3,2.264E2,2.2525E2,2.2455E2,2.179718E-3,-1.1184693E-3,5.4397585E-4,8.903504E-4,2.2964478E-4],"split_indices":[1,0,5,0,0,0,0,0,0,0,0,0,0],"split_type":[0,0,0,0,0,0,0,0,0,0,0,0,0],"sum_hessian":[7E0,2E0,5E0,1E0,1E0,3E0,2E0,2E0,1E0,1E0,1E0,1E0,1E0],"tree_param":{"num_deleted":"0","num_feature":"6","num_nodes":"13","size_leaf_vector":"1"}},{"base_weights":[-8.468628E-4,-1.9515991E-2,8.628845E-3,-5.844116E-4,-2.342987E-3,1.5674591E-2,-3.6417644E-3,7.095337E-3,2.0706176E-3,-1.0627747E-3,5.1651004E-4,8.4609987E-4,2.1820069E-4],"categories":[],"categories_nodes":[],"categories_segments":[],"categories_sizes":[],"default_left":[0,0,0,0,0,0,0,0,0,0,0,0,0],"id":78,"left_children":[1,3,5,-1,-1,7,9,11,-1,-1,-1,-1,-1],"loss_changes":[1.5836261E-3,2.3603323E-5,5.758167E-4,0E0,0E0,2.5751768E-5,2.3946718E-4,1.6678823E-6,0E0,0E0,0E0,0E0,0E0],"parents":[2147483647,0,0,1,1,2,2,5,5,6,6,7,7],"right_children":[2,4,6,-1,-1,8,10,12,-1,-1,-1,-1,-1],"split_conditions":[2.2665E2,2.25E2,2.0326804E-1,-5.844116E-4,-2.342987E-3,2.264E2,2.2525E2,2.2455E2,2.0706176E-3,-1.0627747E-3,5.1651004E-4,8.4609987E-4,2.1820069E-4],"split_indices":[1,0,5,0,0,0,0,0,0,0,0,0,0],"split_type":[0,0,0,0,0,0,0,0,0,0,0,0,0],"sum_hessian":[7E0,2E0,5E0,1E0,1E0,3E0,2E0,2E0,1E0,1E0,1E0,1E0,1E0],"tree_param":{"num_deleted":"0","num_feature":"6","num_nodes":"13","size_leaf_vector":"1"}},{"base_weights":[-8.029938E-4,-1.8539429E-2,8.199056E-3,-5.5541995E-4,-2.2254945E-3,1.4892578E-2,-3.458659E-3,6.7443848E-3,1.966858E-3,-1.0093689E-3,4.905701E-4,8.041382E-4,2.0751954E-4],"categories":[],"categories_nodes":[],"categories_segments":[],"categories_sizes":[],"default_left":[0,0,0,0,0,0,0,0,0,0,0,0,0],"id":79,"left_children":[1,3,5,-1,-1,7,9,11,-1,-1,-1,-1,-1],"loss_changes":[1.42932E-3,2.1132058E-5,5.1969534E-4,0E0,0E0,2.3010653E-5,2.1600995E-4,1.4803372E-6,0E0,0E0,0E0,0E0,0E0],"parents":[2147483647,0,0,1,1,2,2,5,5,6,6,7,7],"right_children":[2,4,6,-1,-1,8,10,12,-1,-1,-1,-1,-1],"split_conditions":[2.2665E2,2.25E2,2.0326804E-1,-5.5541995E-4,-2.2254945E-3,2.264E2,2.2525E2,2.2455E2,1.966858E-3,-1.0093689E-3,4.905701E-4,8.041382E-4,2.0751954E-4],"split_indices":[1,0,5,0,0,0,0,0,0,0,0,0,0],"split_type":[0,0,0,0,0,0,0,0,0,0,0,0,0],"sum_hessian":[7E0,2E0,5E0,1E0,1E0,3E0,2E0,2E0,1E0,1E0,1E0,1E0,1E0],"tree_param":{"num_deleted":"0","num_feature":"6","num_nodes":"13","size_leaf_vector":"1"}},{"base_weights":[-7.648468E-4,-1.761373E-2,7.787069E-3,-5.2795414E-4,-2.1141053E-3,1.4144897E-2,-3.2857258E-3,6.403605E-3,1.8684388E-3,-9.590149E-4,4.6615602E-4,7.637024E-4,1.9683839E-4],"categories":[],"categories_nodes":[],"categories_segments":[],"categories_sizes":[],"default_left":[0,0,0,0,0,0,0,0,0,0,0,0,0],"id":80,"left_children":[1,3,5,-1,-1,7,9,11,-1,-1,-1,-1,-1],"loss_changes":[1.2898811E-3,1.8904975E-5,4.6886984E-4,0E0,0E0,2.0918611E-5,1.9501422E-4,1.3788667E-6,0E0,0E0,0E0,0E0,0E0],"parents":[2147483647,0,0,1,1,2,2,5,5,6,6,7,7],"right_children":[2,4,6,-1,-1,8,10,12,-1,-1,-1,-1,-1],"split_conditions":[2.2665E2,2.25E2,2.0326804E-1,-5.2795414E-4,-2.1141053E-3,2.264E2,2.2525E2,2.2455E2,1.8684388E-3,-9.590149E-4,4.6615602E-4,7.637024E-4,1.9683839E-4],"split_indices":[1,0,5,0,0,0,0,0,0,0,0,0,0],"split_type":[0,0,0,0,0,0,0,0,0,0,0,0,0],"sum_hessian":[7E0,2E0,5E0,1E0,1E0,3E0,2E0,2E0,1E0,1E0,1E0,1E0,1E0],"tree_param":{"num_deleted":"0","num_feature":"6","num_nodes":"13","size_leaf_vector":"1"}},{"base_weights":[-7.247925E-4,-1.672872E-2,7.3979697E-3,-5.0125126E-4,-2.0080567E-3,1.34391785E-2,-3.1229656E-3,6.0831704E-3,1.7753601E-3,-9.109497E-4,4.4250488E-4,7.255554E-4,1.8692017E-4],"categories":[],"categories_nodes":[],"categories_segments":[],"categories_sizes":[],"default_left":[0,0,0,0,0,0,0,0,0,0,0,0,0],"id":81,"left_children":[1,3,5,-1,-1,7,9,11,-1,-1,-1,-1,-1],"loss_changes":[1.1637273E-3,1.7158745E-5,4.2332508E-4,0E0,0E0,1.8949504E-5,1.7586925E-4,1.2590681E-6,0E0,0E0,0E0,0E0,0E0],"parents":[2147483647,0,0,1,1,2,2,5,5,6,6,7,7],"right_children":[2,4,6,-1,-1,8,10,12,-1,-1,-1,-1,-1],"split_conditions":[2.2665E2,2.25E2,2.0326804E-1,-5.0125126E-4,-2.0080567E-3,2.264E2,2.2525E2,2.2455E2,1.7753601E-3,-9.109497E-4,4.4250488E-4,7.255554E-4,1.8692017E-4],"split_indices":[1,0,5,0,0,0,0,0,0,0,0,0,0],"split_type":[0,0,0,0,0,0,0,0,0,0,0,0,0],"sum_hessian":[7E0,2E0,5E0,1E0,1E0,3E0,2E0,2E0,1E0,1E0,1E0,1E0,1E0],"tree_param":{"num_deleted":"0","num_feature":"6","num_nodes":"13","size_leaf_vector":"1"}},{"base_weights":[-6.866455E-4,-1.5889486E-2,7.0292153E-3,-4.7607423E-4,-1.9073486E-3,1.2767792E-2,-2.9652913E-3,5.7779946E-3,1.6868592E-3,-8.6517335E-4,4.2037966E-4,6.8893435E-4,1.777649E-4],"categories":[],"categories_nodes":[],"categories_segments":[],"categories_sizes":[],"default_left":[0,0,0,0,0,0,0,0,0,0,0,0,0],"id":82,"left_children":[1,3,5,-1,-1,7,9,11,-1,-1,-1,-1,-1],"loss_changes":[1.0501146E-3,1.5497848E-5,3.8198565E-4,0E0,0E0,1.7188373E-5,1.5866994E-4,1.0904987E-6,0E0,0E0,0E0,0E0,0E0],"parents":[2147483647,0,0,1,1,2,2,5,5,6,6,7,7],"right_children":[2,4,6,-1,-1,8,10,12,-1,-1,-1,-1,-1],"split_conditions":[2.2665E2,2.25E2,2.0326804E-1,-4.7607423E-4,-1.9073486E-3,2.264E2,2.2525E2,2.2455E2,1.6868592E-3,-8.6517335E-4,4.2037966E-4,6.8893435E-4,1.777649E-4],"split_indices":[1,0,5,0,0,0,0,0,0,0,0,0,0],"split_type":[0,0,0,0,0,0,0,0,0,0,0,0,0],"sum_hessian":[7E0,2E0,5E0,1E0,1E0,3E0,2E0,2E0,1E0,1E0,1E0,1E0,1E0],"tree_param":{"num_deleted":"0","num_feature":"6","num_nodes":"13","size_leaf_vector":"1"}},{"base_weights":[-6.542206E-4,-1.5096028E-2,6.67572E-3,-4.524231E-4,-1.8119812E-3,1.2126923E-2,-2.8177898E-3,5.4880776E-3,1.6021729E-3,-8.216858E-4,3.9901733E-4,6.546021E-4,1.6860962E-4],"categories":[],"categories_nodes":[],"categories_segments":[],"categories_sizes":[],"default_left":[0,0,0,0,0,0,0,0,0,0,0,0,0],"id":83,"left_children":[1,3,5,-1,-1,7,9,11,-1,-1,-1,-1,-1],"loss_changes":[9.476376E-4,1.3922283E-5,3.4467736E-4,0E0,0E0,1.5499536E-5,1.4305666E-4,1.0296135E-6,0E0,0E0,0E0,0E0,0E0],"parents":[2147483647,0,0,1,1,2,2,5,5,6,6,7,7],"right_children":[2,4,6,-1,-1,8,10,12,-1,-1,-1,-1,-1],"split_conditions":[2.2665E2,2.25E2,2.0326804E-1,-4.524231E-4,-1.8119812E-3,2.264E2,2.2525E2,2.2455E2,1.6021729E-3,-8.216858E-4,3.9901733E-4,6.546021E-4,1.6860962E-4],"split_indices":[1,0,5,0,0,0,0,0,0,0,0,0,0],"split_type":[0,0,0,0,0,0,0,0,0,0,0,0,0],"sum_hessian":[7E0,2E0,5E0,1E0,1E0,3E0,2E0,2E0,1E0,1E0,1E0,1E0,1E0],"tree_param":{"num_deleted":"0","num_feature":"6","num_nodes":"13","size_leaf_vector":"1"}},{"base_weights":[-6.198883E-4,-1.4338176E-2,6.34257E-3,-4.295349E-4,-1.7211915E-3,1.1520386E-2,-2.6753743E-3,5.21342E-4,1.5220642E-3,-7.804871E-4,3.791809E-4],"categories":[],"categories_nodes":[],"categories_segments":[],"categories_sizes":[],"default_left":[0,0,0,0,0,0,0,0,0,0,0],"id":84,"left_children":[1,3,5,-1,-1,7,9,-1,-1,-1,-1],"loss_changes":[8.550449E-4,1.2650213E-5,3.1098083E-4,0E0,0E0,1.3997953E-5,1.2911476E-4,0E0,0E0,0E0,0E0],"parents":[2147483647,0,0,1,1,2,2,5,5,6,6],"right_children":[2,4,6,-1,-1,8,10,-1,-1,-1,-1],"split_conditions":[2.2665E2,2.25E2,2.0326804E-1,-4.295349E-4,-1.7211915E-3,2.264E2,2.2525E2,5.21342E-4,1.5220642E-3,-7.804871E-4,3.791809E-4],"split_indices":[1,0,5,0,0,0,0,0,0,0,0],"split_type":[0,0,0,0,0,0,0,0,0,0,0],"sum_hessian":[7E0,2E0,5E0,1E0,1E0,3E0,2E0,2E0,1E0,1E0,1E0],"tree_param":{"num_deleted":"0","num_feature":"6","num_nodes":"11","size_leaf_vector":"1"}},{"base_weights":[-6.2179565E-4,-1.3621013E-2,5.9814453E-3,-4.081726E-4,-1.6349793E-3,1.0879517E-2,-2.5431316E-3,4.8675537E-3,1.4457703E-3,-7.415772E-4,3.6010743E-4,5.958557E-4,1.3427735E-4],"categories":[],"categories_nodes":[],"categories_segments":[],"categories_sizes":[],"default_left":[0,0,0,0,0,0,0,0,0,0,0,0,0],"id":85,"left_children":[1,3,5,-1,-1,7,9,11,-1,-1,-1,-1,-1],"loss_changes":[7.68169E-4,1.1356489E-5,2.7819193E-4,0E0,0E0,1.5674043E-5,1.1652025E-4,3.5356497E-6,0E0,0E0,0E0,0E0,0E0],"parents":[2147483647,0,0,1,1,2,2,5,5,6,6,7,7],"right_children":[2,4,6,-1,-1,8,10,12,-1,-1,-1,-1,-1],"split_conditions":[2.2665E2,2.25E2,2.0326804E-1,-4.081726E-4,-1.6349793E-3,2.264E2,2.2525E2,2.2455E2,1.4457703E-3,-7.415772E-4,3.6010743E-4,5.958557E-4,1.3427735E-4],"split_indices":[1,0,5,0,0,0,0,0,0,0,0,0,0],"split_type":[0,0,0,0,0,0,0,0,0,0,0,0,0],"sum_hessian":[7E0,2E0,5E0,1E0,1E0,3E0,2E0,2E0,1E0,1E0,1E0,1E0,1E0],"tree_param":{"num_deleted":"0","num_feature":"6","num_nodes":"13","size_leaf_vector":"1"}},{"base_weights":[-5.912781E-4,-1.2939453E-2,5.681356E-3,-3.8757324E-4,-1.5533448E-3,1.0334015E-2,-2.4159749E-3,4.623413E-3,1.373291E-3,-7.0419314E-4,3.4179687E-4,5.661011E-4,1.274109E-4],"categories":[],"categories_nodes":[],"categories_segments":[],"categories_sizes":[],"default_left":[0,0,0,0,0,0,0,0,0,0,0,0,0],"id":86,"left_children":[1,3,5,-1,-1,7,9,11,-1,-1,-1,-1,-1],"loss_changes":[6.931583E-4,1.033023E-5,2.5101146E-4,0E0,0E0,1.4146033E-5,1.050318E-4,3.2129465E-6,0E0,0E0,0E0,0E0,0E0],"parents":[2147483647,0,0,1,1,2,2,5,5,6,6,7,7],"right_children":[2,4,6,-1,-1,8,10,12,-1,-1,-1,-1,-1],"split_conditions":[2.2665E2,2.25E2,2.0326804E-1,-3.8757324E-4,-1.5533448E-3,2.264E2,2.2525E2,2.2455E2,1.373291E-3,-7.0419314E-4,3.4179687E-4,5.661011E-4,1.274109E-4],"split_indices":[1,0,5,0,0,0,0,0,0,0,0,0,0],"split_type":[0,0,0,0,0,0,0,0,0,0,0,0,0],"sum_hessian":[7E0,2E0,5E0,1E0,1E0,3E0,2E0,2E0,1E0,1E0,1E0,1E0,1E0],"tree_param":{"num_deleted":"0","num_feature":"6","num_nodes":"13","size_leaf_vector":"1"}},{"base_weights":[-5.607605E-4,-1.2293498E-2,5.3990684E-3,-3.6849975E-4,-1.475525E-3,9.819031E-3,-2.2939045E-3,4.3945312E-3,1.3046265E-3,-6.6909794E-4,3.2501222E-4,5.378723E-4,1.2130738E-4],"categories":[],"categories_nodes":[],"categories_segments":[],"categories_sizes":[],"default_left":[0,0,0,0,0,0,0,0,0,0,0,0,0],"id":87,"left_children":[1,3,5,-1,-1,7,9,11,-1,-1,-1,-1,-1],"loss_changes":[6.2577426E-4,9.202893E-6,2.2653984E-4,0E0,0E0,1.2692297E-5,9.487899E-5,2.8687064E-6,0E0,0E0,0E0,0E0,0E0],"parents":[2147483647,0,0,1,1,2,2,5,5,6,6,7,7],"right_children":[2,4,6,-1,-1,8,10,12,-1,-1,-1,-1,-1],"split_conditions":[2.2665E2,2.25E2,2.0326804E-1,-3.6849975E-4,-1.475525E-3,2.264E2,2.2525E2,2.2455E2,1.3046265E-3,-6.6909794E-4,3.2501222E-4,5.378723E-4,1.2130738E-4],"split_indices":[1,0,5,0,0,0,0,0,0,0,0,0,0],"split_type":[0,0,0,0,0,0,0,0,0,0,0,0,0],"sum_hessian":[7E0,2E0,5E0,1E0,1E0,3E0,2E0,2E0,1E0,1E0,1E0,1E0,1E0],"tree_param":{"num_deleted":"0","num_feature":"6","num_nodes":"13","size_leaf_vector":"1"}},{"base_weights":[-5.3215027E-4,-1.167806E-2,5.129496E-3,-3.5018922E-4,-1.4015198E-3,9.326935E-3,-2.1769207E-3,4.175822E-3,1.2390137E-3,-6.355286E-4,3.0899048E-4,5.1116943E-4,1.1520386E-4],"categories":[],"categories_nodes":[],"categories_segments":[],"categories_sizes":[],"default_left":[0,0,0,0,0,0,0,0,0,0,0,0,0],"id":88,"left_children":[1,3,5,-1,-1,7,9,11,-1,-1,-1,-1,-1],"loss_changes":[5.647362E-4,8.246774E-6,2.0431342E-4,0E0,0E0,1.13766E-5,8.565738E-5,2.6007583E-6,0E0,0E0,0E0,0E0,0E0],"parents":[2147483647,0,0,1,1,2,2,5,5,6,6,7,7],"right_children":[2,4,6,-1,-1,8,10,12,-1,-1,-1,-1,-1],"split_conditions":[2.2665E2,2.25E2,2.0326804E-1,-3.5018922E-4,-1.4015198E-3,2.264E2,2.2525E2,2.2455E2,1.2390137E-3,-6.355286E-4,3.0899048E-4,5.1116943E-4,1.1520386E-4],"split_indices":[1,0,5,0,0,0,0,0,0,0,0,0,0],"split_type":[0,0,0,0,0,0,0,0,0,0,0,0,0],"sum_hessian":[7E0,2E0,5E0,1E0,1E0,3E0,2E0,2E0,1E0,1E0,1E0,1E0,1E0],"tree_param":{"num_deleted":"0","num_feature":"6","num_nodes":"13","size_leaf_vector":"1"}},{"base_weights":[-5.054474E-4,-1.109314E-2,4.87264E-3,-3.3264162E-4,-1.3313293E-3,8.857727E-3,-2.0650227E-3,3.9621987E-3,1.1772156E-3,-6.034851E-4,2.937317E-4,4.852295E-4,1.0910034E-4],"categories":[],"categories_nodes":[],"categories_segments":[],"categories_sizes":[],"default_left":[0,0,0,0,0,0,0,0,0,0,0,0,0],"id":89,"left_children":[1,3,5,-1,-1,7,9,11,-1,-1,-1,-1,-1],"loss_changes":[5.0958514E-4,7.4444106E-6,1.8417455E-4,0E0,0E0,1.0427058E-5,7.7301556E-5,2.37305E-6,0E0,0E0,0E0,0E0,0E0],"parents":[2147483647,0,0,1,1,2,2,5,5,6,6,7,7],"right_children":[2,4,6,-1,-1,8,10,12,-1,-1,-1,-1,-1],"split_conditions":[2.2665E2,2.25E2,2.0326804E-1,-3.3264162E-4,-1.3313293E-3,2.264E2,2.2525E2,2.2455E2,1.1772156E-3,-6.034851E-4,2.937317E-4,4.852295E-4,1.0910034E-4],"split_indices":[1,0,5,0,0,0,0,0,0,0,0,0,0],"split_type":[0,0,0,0,0,0,0,0,0,0,0,0,0],"sum_hessian":[7E0,2E0,5E0,1E0,1E0,3E0,2E0,2E0,1E0,1E0,1E0,1E0,1E0],"tree_param":{"num_deleted":"0","num_feature":"6","num_nodes":"13","size_leaf_vector":"1"}},{"base_weights":[-4.787445E-4,-1.0538737E-2,4.6310425E-3,-3.1585695E-4,-1.2649536E-3,8.415222E-3,-1.9582112E-3,3.7638347E-3,1.1184693E-3,-5.729675E-4,2.7923586E-4,4.6081544E-4,1.0375977E-4],"categories":[],"categories_nodes":[],"categories_segments":[],"categories_sizes":[],"default_left":[0,0,0,0,0,0,0,0,0,0,0,0,0],"id":90,"left_children":[1,3,5,-1,-1,7,9,11,-1,-1,-1,-1,-1],"loss_changes":[4.600407E-4,6.779708E-6,1.6608831E-4,0E0,0E0,9.430194E-6,6.974911E-5,2.1240376E-6,0E0,0E0,0E0,0E0,0E0],"parents":[2147483647,0,0,1,1,2,2,5,5,6,6,7,7],"right_children":[2,4,6,-1,-1,8,10,12,-1,-1,-1,-1,-1],"split_conditions":[2.2665E2,2.25E2,2.0326804E-1,-3.1585695E-4,-1.2649536E-3,2.264E2,2.2525E2,2.2455E2,1.1184693E-3,-5.729675E-4,2.7923586E-4,4.6081544E-4,1.0375977E-4],"split_indices":[1,0,5,0,0,0,0,0,0,0,0,0,0],"split_type":[0,0,0,0,0,0,0,0,0,0,0,0,0],"sum_hessian":[7E0,2E0,5E0,1E0,1E0,3E0,2E0,2E0,1E0,1E0,1E0,1E0,1E0],"tree_param":{"num_deleted":"0","num_feature":"6","num_nodes":"13","size_leaf_vector":"1"}},{"base_weights":[-4.5204163E-4,-1.0009766E-2,4.4021606E-3,-2.998352E-4,-1.2016296E-3,7.9956055E-3,-1.856486E-3,3.5756428E-3,1.0627747E-3,-5.4397585E-4,2.6550292E-4,4.3792726E-4,9.8419194E-5],"categories":[],"categories_nodes":[],"categories_segments":[],"categories_sizes":[],"default_left":[0,0,0,0,0,0,0,0,0,0,0,0,0],"id":91,"left_children":[1,3,5,-1,-1,7,9,11,-1,-1,-1,-1,-1],"loss_changes":[4.152256E-4,6.176764E-6,1.4978435E-4,0E0,0E0,8.534844E-6,6.294068E-5,1.9376566E-6,0E0,0E0,0E0,0E0,0E0],"parents":[2147483647,0,0,1,1,2,2,5,5,6,6,7,7],"right_children":[2,4,6,-1,-1,8,10,12,-1,-1,-1,-1,-1],"split_conditions":[2.2665E2,2.25E2,2.0326804E-1,-2.998352E-4,-1.2016296E-3,2.264E2,2.2525E2,2.2455E2,1.0627747E-3,-5.4397585E-4,2.6550292E-4,4.3792726E-4,9.8419194E-5],"split_indices":[1,0,5,0,0,0,0,0,0,0,0,0,0],"split_type":[0,0,0,0,0,0,0,0,0,0,0,0,0],"sum_hessian":[7E0,2E0,5E0,1E0,1E0,3E0,2E0,2E0,1E0,1E0,1E0,1E0,1E0],"tree_param":{"num_deleted":"0","num_feature":"6","num_nodes":"13","size_leaf_vector":"1"}},{"base_weights":[-4.272461E-4,-9.506226E-3,4.183451E-3,-2.845764E-4,-1.1413575E-3,7.5950623E-3,-1.759847E-3,3.3976238E-3,1.0093689E-3,-5.1651004E-4,2.5253298E-4,4.15802E-4,9.3841554E-5],"categories":[],"categories_nodes":[],"categories_segments":[],"categories_sizes":[],"default_left":[0,0,0,0,0,0,0,0,0,0,0,0,0],"id":92,"left_children":[1,3,5,-1,-1,7,9,11,-1,-1,-1,-1,-1],"loss_changes":[3.7465224E-4,5.6311255E-6,1.3502347E-4,0E0,0E0,7.656767E-6,5.6819914E-5,1.7079692E-6,0E0,0E0,0E0,0E0,0E0],"parents":[2147483647,0,0,1,1,2,2,5,5,6,6,7,7],"right_children":[2,4,6,-1,-1,8,10,12,-1,-1,-1,-1,-1],"split_conditions":[2.2665E2,2.25E2,2.0326804E-1,-2.845764E-4,-1.1413575E-3,2.264E2,2.2525E2,2.2455E2,1.0093689E-3,-5.1651004E-4,2.5253298E-4,4.15802E-4,9.3841554E-5],"split_indices":[1,0,5,0,0,0,0,0,0,0,0,0,0],"split_type":[0,0,0,0,0,0,0,0,0,0,0,0,0],"sum_hessian":[7E0,2E0,5E0,1E0,1E0,3E0,2E0,2E0,1E0,1E0,1E0,1E0,1E0],"tree_param":{"num_deleted":"0","num_feature":"6","num_nodes":"13","size_leaf_vector":"1"}},{"base_weights":[-4.043579E-4,-9.028117E-3,3.9749146E-3,-2.7008058E-4,-1.084137E-3,7.217407E-3,-1.6733805E-3,3.229777E-3,9.590149E-4,-4.905701E-4,2.3956299E-4,3.9520263E-4,8.9263915E-5],"categories":[],"categories_nodes":[],"categories_segments":[],"categories_sizes":[],"default_left":[0,0,0,0,0,0,0,0,0,0,0,0,0],"id":93,"left_children":[1,3,5,-1,-1,7,9,11,-1,-1,-1,-1,-1],"loss_changes":[3.3801232E-4,5.1386014E-6,1.219648E-4,0E0,0E0,6.8724185E-6,5.1209277E-5,1.5362566E-6,0E0,0E0,0E0,0E0,0E0],"parents":[2147483647,0,0,1,1,2,2,5,5,6,6,7,7],"right_children":[2,4,6,-1,-1,8,10,12,-1,-1,-1,-1,-1],"split_conditions":[2.2665E2,2.25E2,2.0326804E-1,-2.7008058E-4,-1.084137E-3,2.264E2,2.2525E2,2.2455E2,9.590149E-4,-4.905701E-4,2.3956299E-4,3.9520263E-4,8.9263915E-5],"split_indices":[1,0,5,0,0,0,0,0,0,0,0,0,0],"split_type":[0,0,0,0,0,0,0,0,0,0,0,0,0],"sum_hessian":[7E0,2E0,5E0,1E0,1E0,3E0,2E0,2E0,1E0,1E0,1E0,1E0,1E0],"tree_param":{"num_deleted":"0","num_feature":"6","num_nodes":"13","size_leaf_vector":"1"}},{"base_weights":[-3.8528442E-4,-8.575439E-3,3.774007E-3,-2.5634767E-4,-1.0299683E-3,6.855011E-3,-1.5920004E-3,3.0670166E-3,9.109497E-4,-4.6615602E-4,2.2735597E-4,3.7536622E-4,8.468628E-5],"categories":[],"categories_nodes":[],"categories_segments":[],"categories_sizes":[],"default_left":[0,0,0,0,0,0,0,0,0,0,0,0,0],"id":94,"left_children":[1,3,5,-1,-1,7,9,11,-1,-1,-1,-1,-1],"loss_changes":[3.048857E-4,4.6952628E-6,1.10109315E-4,0E0,0E0,6.2209438E-6,4.6195037E-5,1.3945391E-6,0E0,0E0,0E0,0E0,0E0],"parents":[2147483647,0,0,1,1,2,2,5,5,6,6,7,7],"right_children":[2,4,6,-1,-1,8,10,12,-1,-1,-1,-1,-1],"split_conditions":[2.2665E2,2.25E2,2.0326804E-1,-2.5634767E-4,-1.0299683E-3,2.264E2,2.2525E2,2.2455E2,9.109497E-4,-4.6615602E-4,2.2735597E-4,3.7536622E-4,8.468628E-5],"split_indices":[1,0,5,0,0,0,0,0,0,0,0,0,0],"split_type":[0,0,0,0,0,0,0,0,0,0,0,0,0],"sum_hessian":[7E0,2E0,5E0,1E0,1E0,3E0,2E0,2E0,1E0,1E0,1E0,1E0,1E0],"tree_param":{"num_deleted":"0","num_feature":"6","num_nodes":"13","size_leaf_vector":"1"}},{"base_weights":[-3.681183E-4,-8.148193E-3,3.5832722E-3,-2.4337768E-4,-9.788513E-4,6.5078735E-3,-1.5106201E-3,2.9093425E-3,8.6517335E-4,-4.4250488E-4,2.1591187E-4,3.5629273E-4,8.010864E-5],"categories":[],"categories_nodes":[],"categories_segments":[],"categories_sizes":[],"default_left":[0,0,0,0,0,0,0,0,0,0,0,0,0],"id":95,"left_children":[1,3,5,-1,-1,7,9,11,-1,-1,-1,-1,-1],"loss_changes":[2.751341E-4,4.297355E-6,9.921655E-5,0E0,0E0,5.6881254E-6,4.163978E-5,1.279559E-6,0E0,0E0,0E0,0E0,0E0],"parents":[2147483647,0,0,1,1,2,2,5,5,6,6,7,7],"right_children":[2,4,6,-1,-1,8,10,12,-1,-1,-1,-1,-1],"split_conditions":[2.2665E2,2.25E2,2.0326804E-1,-2.4337768E-4,-9.788513E-4,2.264E2,2.2525E2,2.2455E2,8.6517335E-4,-4.4250488E-4,2.1591187E-4,3.5629273E-4,8.010864E-5],"split_indices":[1,0,5,0,0,0,0,0,0,0,0,0,0],"split_type":[0,0,0,0,0,0,0,0,0,0,0,0,0],"sum_hessian":[7E0,2E0,5E0,1E0,1E0,3E0,2E0,2E0,1E0,1E0,1E0,1E0,1E0],"tree_param":{"num_deleted":"0","num_feature":"6","num_nodes":"13","size_leaf_vector":"1"}},{"base_weights":[-3.490448E-4,-7.7412925E-3,3.4052532E-3,-2.3117066E-4,-9.300232E-4,6.1836243E-3,-1.4343262E-3,2.766927E-3,8.216858E-4,-4.2037966E-4,2.0523071E-4,3.3874513E-4,7.6293945E-5],"categories":[],"categories_nodes":[],"categories_segments":[],"categories_sizes":[],"default_left":[0,0,0,0,0,0,0,0,0,0,0,0,0],"id":96,"left_children":[1,3,5,-1,-1,7,9,11,-1,-1,-1,-1,-1],"loss_changes":[2.4838265E-4,3.893787E-6,8.954622E-5,0E0,0E0,5.052323E-6,3.7595863E-5,1.146147E-6,0E0,0E0,0E0,0E0,0E0],"parents":[2147483647,0,0,1,1,2,2,5,5,6,6,7,7],"right_children":[2,4,6,-1,-1,8,10,12,-1,-1,-1,-1,-1],"split_conditions":[2.2665E2,2.25E2,2.0326804E-1,-2.3117066E-4,-9.300232E-4,2.264E2,2.2525E2,2.2455E2,8.216858E-4,-4.2037966E-4,2.0523071E-4,3.3874513E-4,7.6293945E-5],"split_indices":[1,0,5,0,0,0,0,0,0,0,0,0,0],"split_type":[0,0,0,0,0,0,0,0,0,0,0,0,0],"sum_hessian":[7E0,2E0,5E0,1E0,1E0,3E0,2E0,2E0,1E0,1E0,1E0,1E0,1E0],"tree_param":{"num_deleted":"0","num_feature":"6","num_nodes":"13","size_leaf_vector":"1"}},{"base_weights":[-3.299713E-4,-7.3547363E-3,3.2374065E-3,-2.1972657E-4,-8.834839E-4,5.874634E-3,-1.3580322E-3,2.629598E-3,7.804871E-4,-3.9901733E-4,1.953125E-4,3.2196046E-4,7.247925E-5],"categories":[],"categories_nodes":[],"categories_segments":[],"categories_sizes":[],"default_left":[0,0,0,0,0,0,0,0,0,0,0,0,0],"id":97,"left_children":[1,3,5,-1,-1,7,9,11,-1,-1,-1,-1,-1],"loss_changes":[2.2429018E-4,3.4882687E-6,8.0693244E-5,0E0,0E0,4.5310735E-6,3.3939607E-5,1.0379972E-6,0E0,0E0,0E0,0E0,0E0],"parents":[2147483647,0,0,1,1,2,2,5,5,6,6,7,7],"right_children":[2,4,6,-1,-1,8,10,12,-1,-1,-1,-1,-1],"split_conditions":[2.2665E2,2.25E2,2.0326804E-1,-2.1972657E-4,-8.834839E-4,2.264E2,2.2525E2,2.2455E2,7.804871E-4,-3.9901733E-4,1.953125E-4,3.2196046E-4,7.247925E-5],"split_indices":[1,0,5,0,0,0,0,0,0,0,0,0,0],"split_type":[0,0,0,0,0,0,0,0,0,0,0,0,0],"sum_hessian":[7E0,2E0,5E0,1E0,1E0,3E0,2E0,2E0,1E0,1E0,1E0,1E0,1E0],"tree_param":{"num_deleted":"0","num_feature":"6","num_nodes":"13","size_leaf_vector":"1"}},{"base_weights":[-3.1471252E-4,-6.9885254E-3,3.074646E-3,-2.090454E-4,-8.392334E-4,5.580902E-3,-1.2919108E-3,2.4973552E-4,7.415772E-4,-3.791809E-4,1.853943E-4],"categories":[],"categories_nodes":[],"categories_segments":[],"categories_sizes":[],"default_left":[0,0,0,0,0,0,0,0,0,0,0],"id":98,"left_children":[1,3,5,-1,-1,7,9,-1,-1,-1,-1],"loss_changes":[2.024468E-4,3.0840747E-6,7.287228E-5,0E0,0E0,4.1118037E-6,3.062274E-5,0E0,0E0,0E0,0E0],"parents":[2147483647,0,0,1,1,2,2,5,5,6,6],"right_children":[2,4,6,-1,-1,8,10,-1,-1,-1,-1],"split_conditions":[2.2665E2,2.25E2,2.0326804E-1,-2.090454E-4,-8.392334E-4,2.264E2,2.2525E2,2.4973552E-4,7.415772E-4,-3.791809E-4,1.853943E-4],"split_indices":[1,0,5,0,0,0,0,0,0,0,0],"split_type":[0,0,0,0,0,0,0,0,0,0,0],"sum_hessian":[7E0,2E0,5E0,1E0,1E0,3E0,2E0,2E0,1E0,1E0,1E0],"tree_param":{"num_deleted":"0","num_feature":"6","num_nodes":"11","size_leaf_vector":"1"}},{"base_weights":[-3.1280518E-4,-6.6375732E-3,2.9017131E-3,-1.9836426E-4,-7.972717E-4,5.2719116E-3,-1.2257894E-3,2.3345947E-3,7.0419314E-4,-3.6010743E-4,1.7623902E-4,2.937317E-4,5.645752E-5],"categories":[],"categories_nodes":[],"categories_segments":[],"categories_sizes":[],"default_left":[0,0,0,0,0,0,0,0,0,0,0,0,0],"id":99,"left_children":[1,3,5,-1,-1,7,9,11,-1,-1,-1,-1,-1],"loss_changes":[1.81909E-4,2.825982E-6,6.516026E-5,0E0,0E0,4.3563778E-6,2.763983E-5,1.5421538E-6,0E0,0E0,0E0,0E0,0E0],"parents":[2147483647,0,0,1,1,2,2,5,5,6,6,7,7],"right_children":[2,4,6,-1,-1,8,10,12,-1,-1,-1,-1,-1],"split_conditions":[2.2665E2,2.25E2,2.0326804E-1,-1.9836426E-4,-7.972717E-4,2.264E2,2.2525E2,2.2455E2,7.0419314E-4,-3.6010743E-4,1.7623902E-4,2.937317E-4,5.645752E-5],"split_indices":[1,0,5,0,0,0,0,0,0,0,0,0,0],"split_type":[0,0,0,0,0,0,0,0,0,0,0,0,0],"sum_hessian":[7E0,2E0,5E0,1E0,1E0,3E0,2E0,2E0,1E0,1E0,1E0,1E0,1E0],"tree_param":{"num_deleted":"0","num_feature":"6","num_nodes":"13","size_leaf_vector":"1"}},{"base_weights":[8.077602E1,1.1696198E0,8.599272E0],"categories":[],"categories_nodes":[],"categories_segments":[],"categories_sizes":[],"default_left":[0,0,0],"id":100,"left_children":[1,-1,-1],"loss_changes":[3.3186328E3,0E0,0E0],"parents":[2147483647,0,0],"right_children":[2,-1,-1],"split_conditions":[2.4734E2,1.1696198E0,8.599272E0],"split_indices":[0,0,0],"split_type":[0,0,0],"sum_hessian":[1.1E1,1E0,1E1],"tree_param":{"num_deleted":"0","num_feature":"6","num_nodes":"3","size_leaf_vector":"1"}},{"base_weights":[7.351249E1,1.1111389E0,7.8175197E0],"categories":[],"categories_nodes":[],"categories_segments":[],"categories_sizes":[],"default_left":[0,0,0],"id":101,"left_children":[1,-1,-1],"loss_changes":[2.6228672E3,0E0,0E0],"parents":[2147483647,0,0],"right_children":[2,-1,-1],"split_conditions":[2.4734E2,1.1111389E0,7.8175197E0],"split_indices":[0,0,0],"split_type":[0,0,0],"sum_hessian":[1.1E1,1E0,1E1],"tree_param":{"num_deleted":"0","num_feature":"6","num_nodes":"3","size_leaf_vector":"1"}},{"base_weights":[6.69053E1,2.1412742E0,7.3862534E0],"categories":[],"categories_nodes":[],"categories_segments":[],"categories_sizes":[],"default_left":[0,0,0],"id":102,"left_children":[1,-1,-1],"loss_changes":[2.2164297E3,0E0,0E0],"parents":[2147483647,0,0],"right_children":[2,-1,-1],"split_conditions":[2.8467E2,2.1412742E0,7.3862534E0],"split_indices":[0,0,0],"split_type":[0,0,0],"sum_hessian":[1.1E1,2E0,9E0],"tree_param":{"num_deleted":"0","num_feature":"6","num_nodes":"3","size_leaf_vector":"1"}},{"base_weights":[6.1008724E1,2.6018999E0,6.978097E0],"categories":[],"categories_nodes":[],"categories_segments":[],"categories_sizes":[],"default_left":[0,0,0],"id":103,"left_children":[1,-1,-1],"loss_changes":[1.8676328E3,0E0,0E0],"parents":[2147483647,0,0],"right_children":[2,-1,-1],"split_conditions":[2.8889E2,2.6018999E0,6.978097E0],"split_indices":[0,0,0],"split_type":[0,0,0],"sum_hessian":[1.1E1,3E0,8E0],"tree_param":{"num_deleted":"0","num_feature":"6","num_nodes":"3","size_leaf_vector":"1"}},{"base_weights":[5.570619E1,8.1842273E-1,5.928235E0],"categories":[],"categories_nodes":[],"categories_segments":[],"categories_sizes":[],"default_left":[0,0,0],"id":104,"left_children":[1,-1,-1],"loss_changes":[1.5541758E3,0E0,0E0],"parents":[2147483647,0,0],"right_children":[2,-1,-1],"split_conditions":[2.4734E2,8.1842273E-1,5.928235E0],"split_indices":[0,0,0],"split_type":[0,0,0],"sum_hessian":[1.1E1,1E0,1E1],"tree_param":{"num_deleted":"0","num_feature":"6","num_nodes":"3","size_leaf_vector":"1"}},{"base_weights":[5.06978E1,2.0898855E0,5.830869E0],"categories":[],"categories_nodes":[],"categories_segments":[],"categories_sizes":[],"default_left":[0,0,0],"id":105,"left_children":[1,-1,-1],"loss_changes":[1.5029746E3,0E0,0E0],"parents":[2147483647,0,0],"right_children":[2,-1,-1],"split_conditions":[2.8889E2,2.0898855E0,5.830869E0],"split_indices":[0,0,0],"split_type":[0,0,0],"sum_hessian":[1.1E1,3E0,8E0],"tree_param":{"num_deleted":"0","num_feature":"6","num_nodes":"3","size_leaf_vector":"1"}},{"base_weights":[4.6288082E1,1.9331445E0,5.312569E0],"categories":[],"categories_nodes":[],"categories_segments":[],"categories_sizes":[],"default_left":[0,0,0],"id":106,"left_children":[1,-1,-1],"loss_changes":[1.184832E3,0E0,0E0],"parents":[2147483647,0,0],"right_children":[2,-1,-1],"split_conditions":[2.8889E2,1.9331445E0,5.312569E0],"split_indices":[0,0,0],"split_type":[0,0,0],"sum_hessian":[1.1E1,3E0,8E0],"tree_param":{"num_deleted":"0","num_feature":"6","num_nodes":"3","size_leaf_vector":"1"}},{"base_weights":[4.2263092E1,5.763497E-1,4.5057282E0],"categories":[],"categories_nodes":[],"categories_segments":[],"categories_sizes":[],"default_left":[0,0,0],"id":107,"left_children":[1,-1,-1],"loss_changes":[9.641543E2,0E0,0E0],"parents":[2147483647,0,0],"right_children":[2,-1,-1],"split_conditions":[2.4734E2,5.763497E-1,4.5057282E0],"split_indices":[0,0,0],"split_type":[0,0,0],"sum_hessian":[1.1E1,1E0,1E1],"tree_param":{"num_deleted":"0","num_feature":"6","num_nodes":"3","size_leaf_vector":"1"}},{"base_weights":[3.846028E1,1.5484631E0,4.4398317E0],"categories":[],"categories_nodes":[],"categories_segments":[],"categories_sizes":[],"default_left":[0,0,0],"id":108,"left_children":[1,-1,-1],"loss_changes":[9.496719E2,0E0,0E0],"parents":[2147483647,0,0],"right_children":[2,-1,-1],"split_conditions":[2.8889E2,1.5484631E0,4.4398317E0],"split_indices":[0,0,0],"split_type":[0,0,0],"sum_hessian":[1.1E1,3E0,8E0],"tree_param":{"num_deleted":"0","num_feature":"6","num_nodes":"3","size_leaf_vector":"1"}},{"base_weights":[3.5113285E1,1.4323285E0,4.045181E0],"categories":[],"categories_nodes":[],"categories_segments":[],"categories_sizes":[],"default_left":[0,0,0],"id":109,"left_children":[1,-1,-1],"loss_changes":[7.524531E2,